<?xml version="1.0"?>
<opencv_storage>
<cascade>
  <stageType>BOOST</stageType>
  <featureType>HAAR</featureType>
  <height>40</height>
  <width>40</width>
  <stageParams>
    <boostType>GAB</boostType>
    <minHitRate>9.9500000476837158e-01</minHitRate>
    <maxFalseAlarm>5.0000000000000000e-01</maxFalseAlarm>
    <weightTrimRate>9.4999999999999996e-01</weightTrimRate>
    <maxDepth>1</maxDepth>
    <maxWeakCount>100</maxWeakCount></stageParams>
  <featureParams>
    <maxCatCount>0</maxCatCount>
    <featSize>1</featSize>
    <mode>BASIC</mode></featureParams>
  <stageNum>10</stageNum>
  <stages>
    <!-- stage 0 -->
    <_>
      <maxWeakCount>1</maxWeakCount>
      <stageThreshold>1.</stageThreshold>
      <weakClassifiers>
        <_>
          <internalNodes>
            0 -1 2 -3.0087140202522278e-01</internalNodes>
          <leafValues>
            -1. 1.</leafValues></_></weakClassifiers></_>
    <!-- stage 1 -->
    <_>
      <maxWeakCount>1</maxWeakCount>
      <stageThreshold>1.</stageThreshold>
      <weakClassifiers>
        <_>
          <internalNodes>
            0 -1 1 2.1827523596584797e-03</internalNodes>
          <leafValues>
            1. -1.</leafValues></_></weakClassifiers></_>
    <!-- stage 2 -->
    <_>
      <maxWeakCount>1</maxWeakCount>
      <stageThreshold>1.</stageThreshold>
      <weakClassifiers>
        <_>
          <internalNodes>
            0 -1 0 -2.0720930770039558e-03</internalNodes>
          <leafValues>
            -1. 1.</leafValues></_></weakClassifiers></_>
    <!-- stage 3 -->
    <_>
      <maxWeakCount>3</maxWeakCount>
      <stageThreshold>-8.1348311901092529e-01</stageThreshold>
      <weakClassifiers>
        <_>
          <internalNodes>
            0 -1 17 9.3260454013943672e-03</internalNodes>
          <leafValues>
            -7.7692306041717529e-01 9.2244899272918701e-01</leafValues></_>
        <_>
          <internalNodes>
            0 -1 4 4.7455519437789917e-02</internalNodes>
          <leafValues>
            -7.3701047897338867e-01 8.8661575317382813e-01</leafValues></_>
        <_>
          <internalNodes>
            0 -1 12 -2.3523773998022079e-03</internalNodes>
          <leafValues>
            7.0045042037963867e-01 -9.6842819452285767e-01</leafValues></_></weakClassifiers></_>
    <!-- stage 4 -->
    <_>
      <maxWeakCount>3</maxWeakCount>
      <stageThreshold>-8.7850558757781982e-01</stageThreshold>
      <weakClassifiers>
        <_>
          <internalNodes>
            0 -1 21 3.3830881118774414e-02</internalNodes>
          <leafValues>
            -8.6725664138793945e-01 8.5114502906799316e-01</leafValues></_>
        <_>
          <internalNodes>
            0 -1 14 1.0790349915623665e-02</internalNodes>
          <leafValues>
            -7.4570918083190918e-01 8.5233080387115479e-01</leafValues></_>
        <_>
          <internalNodes>
            0 -1 22 -2.1692816168069839e-02</internalNodes>
          <leafValues>
            7.3446023464202881e-01 -8.3495825529098511e-01</leafValues></_></weakClassifiers></_>
    <!-- stage 5 -->
    <_>
      <maxWeakCount>2</maxWeakCount>
      <stageThreshold>-7.3192559182643890e-02</stageThreshold>
      <weakClassifiers>
        <_>
          <internalNodes>
            0 -1 3 5.1112875342369080e-02</internalNodes>
          <leafValues>
            -8.1589961051940918e-01 8.7084150314331055e-01</leafValues></_>
        <_>
          <internalNodes>
            0 -1 16 1.8321422860026360e-02</internalNodes>
          <leafValues>
            -9.4133931398391724e-01 7.4270701408386230e-01</leafValues></_></weakClassifiers></_>
    <!-- stage 6 -->
    <_>
      <maxWeakCount>5</maxWeakCount>
      <stageThreshold>-1.1265404224395752e+00</stageThreshold>
      <weakClassifiers>
        <_>
          <internalNodes>
            0 -1 23 -5.2500180900096893e-03</internalNodes>
          <leafValues>
            7.7735126018524170e-01 -6.7685592174530029e-01</leafValues></_>
        <_>
          <internalNodes>
            0 -1 15 -8.4864459931850433e-03</internalNodes>
          <leafValues>
            6.4108175039291382e-01 -6.9850599765777588e-01</leafValues></_>
        <_>
          <internalNodes>
            0 -1 13 1.3981908559799194e-03</internalNodes>
          <leafValues>
            -9.0926575660705566e-01 4.5512047410011292e-01</leafValues></_>
        <_>
          <internalNodes>
            0 -1 26 -2.5650665163993835e-02</internalNodes>
          <leafValues>
            7.1384185552597046e-01 -5.8118402957916260e-01</leafValues></_>
        <_>
          <internalNodes>
            0 -1 11 -7.6912205258850008e-05</internalNodes>
          <leafValues>
            3.7488502264022827e-01 -9.6964615583419800e-01</leafValues></_></weakClassifiers></_>
    <!-- stage 7 -->
    <_>
      <maxWeakCount>4</maxWeakCount>
      <stageThreshold>-3.4115439653396606e-01</stageThreshold>
      <weakClassifiers>
        <_>
          <internalNodes>
            0 -1 8 6.9908155128359795e-03</internalNodes>
          <leafValues>
            -7.4634146690368652e-01 7.3944956064224243e-01</leafValues></_>
        <_>
          <internalNodes>
            0 -1 19 8.9592271251603961e-04</internalNodes>
          <leafValues>
            -8.2416468858718872e-01 5.7807564735412598e-01</leafValues></_>
        <_>
          <internalNodes>
            0 -1 25 -3.3407837152481079e-02</internalNodes>
          <leafValues>
            6.7065322399139404e-01 -5.9021705389022827e-01</leafValues></_>
        <_>
          <internalNodes>
            0 -1 9 -1.4567706733942032e-02</internalNodes>
          <leafValues>
            5.5869847536087036e-01 -7.6900804042816162e-01</leafValues></_></weakClassifiers></_>
    <!-- stage 8 -->
    <_>
      <maxWeakCount>4</maxWeakCount>
      <stageThreshold>-4.2828798294067383e-01</stageThreshold>
      <weakClassifiers>
        <_>
          <internalNodes>
            0 -1 24 -2.4029952473938465e-03</internalNodes>
          <leafValues>
            7.7514791488647461e-01 -5.8847737312316895e-01</leafValues></_>
        <_>
          <internalNodes>
            0 -1 20 -4.8724599182605743e-03</internalNodes>
          <leafValues>
            6.8600004911422729e-01 -5.4443436861038208e-01</leafValues></_>
        <_>
          <internalNodes>
            0 -1 10 4.1157808154821396e-03</internalNodes>
          <leafValues>
            -9.2773872613906860e-01 4.1769403219223022e-01</leafValues></_>
        <_>
          <internalNodes>
            0 -1 7 1.0831417748704553e-03</internalNodes>
          <leafValues>
            3.3925968408584595e-01 -9.4350469112396240e-01</leafValues></_></weakClassifiers></_>
    <!-- stage 9 -->
    <_>
      <maxWeakCount>3</maxWeakCount>
      <stageThreshold>2.5901874899864197e-01</stageThreshold>
      <weakClassifiers>
        <_>
          <internalNodes>
            0 -1 5 -1.0688364505767822e-02</internalNodes>
          <leafValues>
            7.1428573131561279e-01 -6.8627452850341797e-01</leafValues></_>
        <_>
          <internalNodes>
            0 -1 18 7.6700685895048082e-05</internalNodes>
          <leafValues>
            -8.7447446584701538e-01 5.0688427686691284e-01</leafValues></_>
        <_>
          <internalNodes>
            0 -1 6 -1.4339026529341936e-04</internalNodes>
          <leafValues>
            -9.5279008150100708e-01 4.3840900063514709e-01</leafValues></_></weakClassifiers></_></stages>
  <features>
    <_>
      <rects>
        <_>
          0 0 1 2 -1.</_>
        <_>
          0 1 1 1 2.</_></rects>
      <tilted>0</tilted></_>
    <_>
      <rects>
        <_>
          0 0 4 2 -1.</_>
        <_>
          0 0 2 1 2.</_>
        <_>
          2 1 2 1 2.</_></rects>
      <tilted>0</tilted></_>
    <_>
      <rects>
        <_>
          0 0 34 24 -1.</_>
        <_>
          0 12 34 12 2.</_></rects>
      <tilted>0</tilted></_>
    <_>
      <rects>
        <_>
          3 1 28 18 -1.</_>
        <_>
          3 1 14 9 2.</_>
        <_>
          17 10 14 9 2.</_></rects>
      <tilted>0</tilted></_>
    <_>
      <rects>
        <_>
          3 2 26 16 -1.</_>
        <_>
          3 2 13 8 2.</_>
        <_>
          16 10 13 8 2.</_></rects>
      <tilted>0</tilted></_>
    <_>
      <rects>
        <_>
          3 15 35 8 -1.</_>
        <_>
          3 19 35 4 2.</_></rects>
      <tilted>0</tilted></_>
    <_>
      <rects>
        <_>
          4 15 12 10 -1.</_>
        <_>
          4 20 12 5 2.</_></rects>
      <tilted>0</tilted></_>
    <_>
      <rects>
        <_>
          5 19 19 6 -1.</_>
        <_>
          5 22 19 3 2.</_></rects>
      <tilted>0</tilted></_>
    <_>
      <rects>
        <_>
          8 9 10 10 -1.</_>
        <_>
          8 9 5 5 2.</_>
        <_>
          13 14 5 5 2.</_></rects>
      <tilted>0</tilted></_>
    <_>
      <rects>
        <_>
          8 12 14 28 -1.</_>
        <_>
          8 12 7 14 2.</_>
        <_>
          15 26 7 14 2.</_></rects>
      <tilted>0</tilted></_>
    <_>
      <rects>
        <_>
          9 3 9 30 -1.</_>
        <_>
          9 18 9 15 2.</_></rects>
      <tilted>0</tilted></_>
    <_>
      <rects>
        <_>
          10 24 20 1 -1.</_>
        <_>
          20 24 10 1 2.</_></rects>
      <tilted>0</tilted></_>
    <_>
      <rects>
        <_>
          10 25 18 4 -1.</_>
        <_>
          19 25 9 4 2.</_></rects>
      <tilted>0</tilted></_>
    <_>
      <rects>
        <_>
          11 10 10 6 -1.</_>
        <_>
          11 10 5 3 2.</_>
        <_>
          16 13 5 3 2.</_></rects>
      <tilted>0</tilted></_>
    <_>
      <rects>
        <_>
          12 10 6 12 -1.</_>
        <_>
          12 16 6 6 2.</_></rects>
      <tilted>0</tilted></_>
    <_>
      <rects>
        <_>
          13 18 10 14 -1.</_>
        <_>
          18 18 5 14 2.</_></rects>
      <tilted>0</tilted></_>
    <_>
      <rects>
        <_>
          18 0 10 23 -1.</_>
        <_>
          23 0 5 23 2.</_></rects>
      <tilted>0</tilted></_>
    <_>
      <rects>
        <_>
          19 10 13 6 -1.</_>
        <_>
          19 13 13 3 2.</_></rects>
      <tilted>0</tilted></_>
    <_>
      <rects>
        <_>
          22 18 2 9 -1.</_>
        <_>
          23 18 1 9 2.</_></rects>
      <tilted>0</tilted></_>
    <_>
      <rects>
        <_>
          23 0 2 25 -1.</_>
        <_>
          24 0 1 25 2.</_></rects>
      <tilted>0</tilted></_>
    <_>
      <rects>
        <_>
          24 5 10 6 -1.</_>
        <_>
          24 5 5 3 2.</_>
        <_>
          29 8 5 3 2.</_></rects>
      <tilted>0</tilted></_>
    <_>
      <rects>
        <_>
          24 11 14 26 -1.</_>
        <_>
          24 11 7 13 2.</_>
        <_>
          31 24 7 13 2.</_></rects>
      <tilted>0</tilted></_>
    <_>
      <rects>
        <_>
          25 4 14 14 -1.</_>
        <_>
          25 4 7 7 2.</_>
        <_>
          32 11 7 7 2.</_></rects>
      <tilted>0</tilted></_>
    <_>
      <rects>
        <_>
          25 10 10 4 -1.</_>
        <_>
          30 10 5 4 2.</_></rects>
      <tilted>0</tilted></_>
    <_>
      <rects>
        <_>
          25 19 2 6 -1.</_>
        <_>
          25 22 2 3 2.</_></rects>
      <tilted>0</tilted></_>
    <_>
      <rects>
        <_>
          26 4 12 16 -1.</_>
        <_>
          26 4 6 8 2.</_>
        <_>
          32 12 6 8 2.</_></rects>
      <tilted>0</tilted></_>
    <_>
      <rects>
        <_>
          28 4 10 16 -1.</_>
        <_>
          28 4 5 8 2.</_>
        <_>
          33 12 5 8 2.</_></rects>
      <tilted>0</tilted></_></features></cascade>
</opencv_storage>
