<?xml version="1.0"?>
<opencv_storage>
<stage6>
  <maxWeakCount>5</maxWeakCount>
  <stageThreshold>-1.1265404224395752e+00</stageThreshold>
  <weakClassifiers>
    <_>
      <internalNodes>
        0 -1 1076430 -5.2500180900096893e-03</internalNodes>
      <leafValues>
        7.7735126018524170e-01 -6.7685592174530029e-01</leafValues></_>
    <_>
      <internalNodes>
        0 -1 703862 -8.4864459931850433e-03</internalNodes>
      <leafValues>
        6.4108175039291382e-01 -6.9850599765777588e-01</leafValues></_>
    <_>
      <internalNodes>
        0 -1 607839 1.3981908559799194e-03</internalNodes>
      <leafValues>
        -9.0926575660705566e-01 4.5512047410011292e-01</leafValues></_>
    <_>
      <internalNodes>
        0 -1 1132979 -2.5650665163993835e-02</internalNodes>
      <leafValues>
        7.1384185552597046e-01 -5.8118402957916260e-01</leafValues></_>
    <_>
      <internalNodes>
        0 -1 581397 -7.6912205258850008e-05</internalNodes>
      <leafValues>
        3.7488502264022827e-01 -9.6964615583419800e-01</leafValues></_></weakClassifiers></stage6>
</opencv_storage>
