<?xml version="1.0"?>
<opencv_storage>
<cascade>
  <stageType>BOOST</stageType>
  <featureType>HAAR</featureType>
  <height>40</height>
  <width>40</width>
  <stageParams>
    <boostType>GAB</boostType>
    <minHitRate>9.9500000476837158e-01</minHitRate>
    <maxFalseAlarm>5.0000000000000000e-01</maxFalseAlarm>
    <weightTrimRate>9.4999999999999996e-01</weightTrimRate>
    <maxDepth>1</maxDepth>
    <maxWeakCount>100</maxWeakCount></stageParams>
  <featureParams>
    <maxCatCount>0</maxCatCount>
    <featSize>1</featSize>
    <mode>BASIC</mode></featureParams>
  <stageNum>10</stageNum>
  <stages>
    <!-- stage 0 -->
    <_>
      <maxWeakCount>1</maxWeakCount>
      <stageThreshold>1.</stageThreshold>
      <weakClassifiers>
        <_>
          <internalNodes>
            0 -1 0 4.8688016249798238e-04</internalNodes>
          <leafValues>
            1. -1.</leafValues></_></weakClassifiers></_>
    <!-- stage 1 -->
    <_>
      <maxWeakCount>1</maxWeakCount>
      <stageThreshold>1.</stageThreshold>
      <weakClassifiers>
        <_>
          <internalNodes>
            0 -1 2 2.1900022402405739e-03</internalNodes>
          <leafValues>
            1. -1.</leafValues></_></weakClassifiers></_>
    <!-- stage 2 -->
    <_>
      <maxWeakCount>1</maxWeakCount>
      <stageThreshold>1.</stageThreshold>
      <weakClassifiers>
        <_>
          <internalNodes>
            0 -1 1 -1.2565755750983953e-03</internalNodes>
          <leafValues>
            -1. 1.</leafValues></_></weakClassifiers></_>
    <!-- stage 3 -->
    <_>
      <maxWeakCount>2</maxWeakCount>
      <stageThreshold>4.8861607909202576e-02</stageThreshold>
      <weakClassifiers>
        <_>
          <internalNodes>
            0 -1 13 -2.5329962372779846e-02</internalNodes>
          <leafValues>
            9.5733332633972168e-01 -6.7241376638412476e-01</leafValues></_>
        <_>
          <internalNodes>
            0 -1 7 -2.1688574925065041e-03</internalNodes>
          <leafValues>
            7.2127538919448853e-01 -1.</leafValues></_></weakClassifiers></_>
    <!-- stage 4 -->
    <_>
      <maxWeakCount>2</maxWeakCount>
      <stageThreshold>2.5785345584154129e-02</stageThreshold>
      <weakClassifiers>
        <_>
          <internalNodes>
            0 -1 12 -2.1491151303052902e-02</internalNodes>
          <leafValues>
            9.3650794029235840e-01 -6.5938866138458252e-01</leafValues></_>
        <_>
          <internalNodes>
            0 -1 16 3.0974294058978558e-03</internalNodes>
          <leafValues>
            -9.1072261333465576e-01 7.0105057954788208e-01</leafValues></_></weakClassifiers></_>
    <!-- stage 5 -->
    <_>
      <maxWeakCount>3</maxWeakCount>
      <stageThreshold>-7.4923831224441528e-01</stageThreshold>
      <weakClassifiers>
        <_>
          <internalNodes>
            0 -1 9 8.1330910325050354e-03</internalNodes>
          <leafValues>
            -7.7664977312088013e-01 8.6829268932342529e-01</leafValues></_>
        <_>
          <internalNodes>
            0 -1 20 -8.3767520263791084e-03</internalNodes>
          <leafValues>
            7.8585445880889893e-01 -8.2587587833404541e-01</leafValues></_>
        <_>
          <internalNodes>
            0 -1 6 2.0560842007398605e-02</internalNodes>
          <leafValues>
            -5.4714298248291016e-01 8.5328727960586548e-01</leafValues></_></weakClassifiers></_>
    <!-- stage 6 -->
    <_>
      <maxWeakCount>4</maxWeakCount>
      <stageThreshold>-1.1542378365993500e-01</stageThreshold>
      <weakClassifiers>
        <_>
          <internalNodes>
            0 -1 14 -2.7995657175779343e-02</internalNodes>
          <leafValues>
            8.6868685483932495e-01 -6.6824644804000854e-01</leafValues></_>
        <_>
          <internalNodes>
            0 -1 22 -4.3840073049068451e-03</internalNodes>
          <leafValues>
            6.8750798702239990e-01 -8.0215090513229370e-01</leafValues></_>
        <_>
          <internalNodes>
            0 -1 10 -1.3150246813893318e-02</internalNodes>
          <leafValues>
            -7.0407944917678833e-01 7.3705613613128662e-01</leafValues></_>
        <_>
          <internalNodes>
            0 -1 11 8.0318283289670944e-03</internalNodes>
          <leafValues>
            -6.7104238271713257e-01 6.1791741847991943e-01</leafValues></_></weakClassifiers></_>
    <!-- stage 7 -->
    <_>
      <maxWeakCount>2</maxWeakCount>
      <stageThreshold>-7.5688600540161133e-02</stageThreshold>
      <weakClassifiers>
        <_>
          <internalNodes>
            0 -1 4 3.7194166798144579e-03</internalNodes>
          <leafValues>
            -8.1699347496032715e-01 7.2246694564819336e-01</leafValues></_>
        <_>
          <internalNodes>
            0 -1 21 -5.4143145680427551e-03</internalNodes>
          <leafValues>
            7.4130487442016602e-01 -7.2018873691558838e-01</leafValues></_></weakClassifiers></_>
    <!-- stage 8 -->
    <_>
      <maxWeakCount>4</maxWeakCount>
      <stageThreshold>-2.4551784619688988e-02</stageThreshold>
      <weakClassifiers>
        <_>
          <internalNodes>
            0 -1 18 -4.6745622530579567e-03</internalNodes>
          <leafValues>
            7.9643768072128296e-01 -5.1401871442794800e-01</leafValues></_>
        <_>
          <internalNodes>
            0 -1 3 -3.3323884010314941e-02</internalNodes>
          <leafValues>
            7.0652461051940918e-01 -5.5949676036834717e-01</leafValues></_>
        <_>
          <internalNodes>
            0 -1 15 -1.7711311578750610e-02</internalNodes>
          <leafValues>
            -6.4905387163162231e-01 6.2162882089614868e-01</leafValues></_>
        <_>
          <internalNodes>
            0 -1 17 6.4682215452194214e-05</internalNodes>
          <leafValues>
            4.5283013582229614e-01 -8.3868652582168579e-01</leafValues></_></weakClassifiers></_>
    <!-- stage 9 -->
    <_>
      <maxWeakCount>4</maxWeakCount>
      <stageThreshold>-1.1775039434432983e+00</stageThreshold>
      <weakClassifiers>
        <_>
          <internalNodes>
            0 -1 23 -7.1850819513201714e-03</internalNodes>
          <leafValues>
            7.6328504085540771e-01 -5.8549225330352783e-01</leafValues></_>
        <_>
          <internalNodes>
            0 -1 8 2.7567479759454727e-02</internalNodes>
          <leafValues>
            -5.2555286884307861e-01 8.0033731460571289e-01</leafValues></_>
        <_>
          <internalNodes>
            0 -1 5 -2.3011119628790766e-04</internalNodes>
          <leafValues>
            -7.7483791112899780e-01 5.0253248214721680e-01</leafValues></_>
        <_>
          <internalNodes>
            0 -1 19 -2.8475232422351837e-02</internalNodes>
          <leafValues>
            5.5948042869567871e-01 -6.4039814472198486e-01</leafValues></_></weakClassifiers></_></stages>
  <features>
    <_>
      <rects>
        <_>
          0 0 1 2 -1.</_>
        <_>
          0 1 1 1 2.</_></rects>
      <tilted>0</tilted></_>
    <_>
      <rects>
        <_>
          0 0 2 2 -1.</_>
        <_>
          0 0 1 1 2.</_>
        <_>
          1 1 1 1 2.</_></rects>
      <tilted>0</tilted></_>
    <_>
      <rects>
        <_>
          0 0 1 4 -1.</_>
        <_>
          0 2 1 2 2.</_></rects>
      <tilted>0</tilted></_>
    <_>
      <rects>
        <_>
          1 29 39 10 -1.</_>
        <_>
          1 34 39 5 2.</_></rects>
      <tilted>0</tilted></_>
    <_>
      <rects>
        <_>
          3 21 14 10 -1.</_>
        <_>
          3 21 7 5 2.</_>
        <_>
          10 26 7 5 2.</_></rects>
      <tilted>0</tilted></_>
    <_>
      <rects>
        <_>
          3 25 26 8 -1.</_>
        <_>
          3 25 13 4 2.</_>
        <_>
          16 29 13 4 2.</_></rects>
      <tilted>0</tilted></_>
    <_>
      <rects>
        <_>
          5 14 10 18 -1.</_>
        <_>
          5 14 5 9 2.</_>
        <_>
          10 23 5 9 2.</_></rects>
      <tilted>0</tilted></_>
    <_>
      <rects>
        <_>
          9 23 18 14 -1.</_>
        <_>
          18 23 9 14 2.</_></rects>
      <tilted>0</tilted></_>
    <_>
      <rects>
        <_>
          10 6 12 14 -1.</_>
        <_>
          10 6 6 7 2.</_>
        <_>
          16 13 6 7 2.</_></rects>
      <tilted>0</tilted></_>
    <_>
      <rects>
        <_>
          10 8 14 10 -1.</_>
        <_>
          10 8 7 5 2.</_>
        <_>
          17 13 7 5 2.</_></rects>
      <tilted>0</tilted></_>
    <_>
      <rects>
        <_>
          10 22 2 18 -1.</_>
        <_>
          10 28 2 6 2.</_></rects>
      <tilted>0</tilted></_>
    <_>
      <rects>
        <_>
          11 6 12 10 -1.</_>
        <_>
          11 6 6 5 2.</_>
        <_>
          17 11 6 5 2.</_></rects>
      <tilted>0</tilted></_>
    <_>
      <rects>
        <_>
          18 6 12 12 -1.</_>
        <_>
          18 6 6 6 2.</_>
        <_>
          24 12 6 6 2.</_></rects>
      <tilted>0</tilted></_>
    <_>
      <rects>
        <_>
          19 2 10 18 -1.</_>
        <_>
          19 2 5 9 2.</_>
        <_>
          24 11 5 9 2.</_></rects>
      <tilted>0</tilted></_>
    <_>
      <rects>
        <_>
          19 4 12 16 -1.</_>
        <_>
          19 4 6 8 2.</_>
        <_>
          25 12 6 8 2.</_></rects>
      <tilted>0</tilted></_>
    <_>
      <rects>
        <_>
          19 5 3 24 -1.</_>
        <_>
          19 13 3 8 2.</_></rects>
      <tilted>0</tilted></_>
    <_>
      <rects>
        <_>
          19 22 10 10 -1.</_>
        <_>
          24 22 5 10 2.</_></rects>
      <tilted>0</tilted></_>
    <_>
      <rects>
        <_>
          21 19 11 2 -1.</_>
        <_>
          21 20 11 1 2.</_></rects>
      <tilted>0</tilted></_>
    <_>
      <rects>
        <_>
          24 11 6 10 -1.</_>
        <_>
          24 11 3 5 2.</_>
        <_>
          27 16 3 5 2.</_></rects>
      <tilted>0</tilted></_>
    <_>
      <rects>
        <_>
          25 5 10 32 -1.</_>
        <_>
          25 5 5 16 2.</_>
        <_>
          30 21 5 16 2.</_></rects>
      <tilted>0</tilted></_>
    <_>
      <rects>
        <_>
          26 12 8 18 -1.</_>
        <_>
          26 12 4 9 2.</_>
        <_>
          30 21 4 9 2.</_></rects>
      <tilted>0</tilted></_>
    <_>
      <rects>
        <_>
          27 11 4 18 -1.</_>
        <_>
          27 11 2 9 2.</_>
        <_>
          29 20 2 9 2.</_></rects>
      <tilted>0</tilted></_>
    <_>
      <rects>
        <_>
          28 18 8 14 -1.</_>
        <_>
          28 18 4 7 2.</_>
        <_>
          32 25 4 7 2.</_></rects>
      <tilted>0</tilted></_>
    <_>
      <rects>
        <_>
          28 27 8 8 -1.</_>
        <_>
          32 27 4 8 2.</_></rects>
      <tilted>0</tilted></_></features></cascade>
</opencv_storage>
