<?xml version="1.0"?>
<opencv_storage>
<cascade>
  <stageType>BOOST</stageType>
  <featureType>HAAR</featureType>
  <height>40</height>
  <width>40</width>
  <stageParams>
    <boostType>GAB</boostType>
    <minHitRate>9.9500000476837158e-01</minHitRate>
    <maxFalseAlarm>5.0000000000000000e-01</maxFalseAlarm>
    <weightTrimRate>9.4999999999999996e-01</weightTrimRate>
    <maxDepth>1</maxDepth>
    <maxWeakCount>100</maxWeakCount></stageParams>
  <featureParams>
    <maxCatCount>0</maxCatCount>
    <featSize>1</featSize>
    <mode>BASIC</mode></featureParams>
  <stageNum>10</stageNum>
  <stages>
    <!-- stage 0 -->
    <_>
      <maxWeakCount>1</maxWeakCount>
      <stageThreshold>1.</stageThreshold>
      <weakClassifiers>
        <_>
          <internalNodes>
            0 -1 2 -2.7903345227241516e-01</internalNodes>
          <leafValues>
            1. -1.</leafValues></_></weakClassifiers></_>
    <!-- stage 1 -->
    <_>
      <maxWeakCount>1</maxWeakCount>
      <stageThreshold>1.</stageThreshold>
      <weakClassifiers>
        <_>
          <internalNodes>
            0 -1 0 -1.8891061190515757e-03</internalNodes>
          <leafValues>
            -1. 1.</leafValues></_></weakClassifiers></_>
    <!-- stage 2 -->
    <_>
      <maxWeakCount>1</maxWeakCount>
      <stageThreshold>1.</stageThreshold>
      <weakClassifiers>
        <_>
          <internalNodes>
            0 -1 1 -4.9798941612243652e-01</internalNodes>
          <leafValues>
            1. -1.</leafValues></_></weakClassifiers></_>
    <!-- stage 3 -->
    <_>
      <maxWeakCount>2</maxWeakCount>
      <stageThreshold>-4.1837383061647415e-02</stageThreshold>
      <weakClassifiers>
        <_>
          <internalNodes>
            0 -1 5 4.3269909918308258e-02</internalNodes>
          <leafValues>
            -9.5884776115417480e-01 9.5266270637512207e-01</leafValues></_>
        <_>
          <internalNodes>
            0 -1 17 1.2797653675079346e-02</internalNodes>
          <leafValues>
            -8.5105609893798828e-01 9.1701036691665649e-01</leafValues></_></weakClassifiers></_>
    <!-- stage 4 -->
    <_>
      <maxWeakCount>3</maxWeakCount>
      <stageThreshold>-8.7076097726821899e-01</stageThreshold>
      <weakClassifiers>
        <_>
          <internalNodes>
            0 -1 4 -2.6377435773611069e-02</internalNodes>
          <leafValues>
            8.9473682641983032e-01 -8.8185656070709229e-01</leafValues></_>
        <_>
          <internalNodes>
            0 -1 13 5.4381769150495529e-03</internalNodes>
          <leafValues>
            -8.5260260105133057e-01 8.2624083757400513e-01</leafValues></_>
        <_>
          <internalNodes>
            0 -1 6 1.6977095976471901e-02</internalNodes>
          <leafValues>
            -7.3815959692001343e-01 8.6369818449020386e-01</leafValues></_></weakClassifiers></_>
    <!-- stage 5 -->
    <_>
      <maxWeakCount>2</maxWeakCount>
      <stageThreshold>-8.4168262779712677e-02</stageThreshold>
      <weakClassifiers>
        <_>
          <internalNodes>
            0 -1 7 -2.0130995661020279e-02</internalNodes>
          <leafValues>
            9.0588235855102539e-01 -8.8333332538604736e-01</leafValues></_>
        <_>
          <internalNodes>
            0 -1 15 -7.9455226659774780e-02</internalNodes>
          <leafValues>
            -9.3265748023986816e-01 7.9916507005691528e-01</leafValues></_></weakClassifiers></_>
    <!-- stage 6 -->
    <_>
      <maxWeakCount>2</maxWeakCount>
      <stageThreshold>-5.1955927163362503e-02</stageThreshold>
      <weakClassifiers>
        <_>
          <internalNodes>
            0 -1 3 -1.0391471907496452e-02</internalNodes>
          <leafValues>
            8.9682537317276001e-01 -8.2113820314407349e-01</leafValues></_>
        <_>
          <internalNodes>
            0 -1 11 -1.0077397339046001e-02</internalNodes>
          <leafValues>
            7.6918226480484009e-01 -8.9882129430770874e-01</leafValues></_></weakClassifiers></_>
    <!-- stage 7 -->
    <_>
      <maxWeakCount>2</maxWeakCount>
      <stageThreshold>-4.0451854467391968e-02</stageThreshold>
      <weakClassifiers>
        <_>
          <internalNodes>
            0 -1 18 -1.8850078806281090e-02</internalNodes>
          <leafValues>
            8.6274510622024536e-01 -7.9166668653488159e-01</leafValues></_>
        <_>
          <internalNodes>
            0 -1 9 1.5601787716150284e-02</internalNodes>
          <leafValues>
            -9.0319693088531494e-01 7.8990566730499268e-01</leafValues></_></weakClassifiers></_>
    <!-- stage 8 -->
    <_>
      <maxWeakCount>2</maxWeakCount>
      <stageThreshold>5.8077331632375717e-03</stageThreshold>
      <weakClassifiers>
        <_>
          <internalNodes>
            0 -1 10 -2.0810572430491447e-02</internalNodes>
          <leafValues>
            8.8306450843811035e-01 -7.4015748500823975e-01</leafValues></_>
        <_>
          <internalNodes>
            0 -1 8 -5.9460843913257122e-03</internalNodes>
          <leafValues>
            7.4848681688308716e-01 -8.7725681066513062e-01</leafValues></_></weakClassifiers></_>
    <!-- stage 9 -->
    <_>
      <maxWeakCount>4</maxWeakCount>
      <stageThreshold>-1.6346596181392670e-01</stageThreshold>
      <weakClassifiers>
        <_>
          <internalNodes>
            0 -1 19 -4.6809655614197254e-03</internalNodes>
          <leafValues>
            9.1880339384078979e-01 -6.3829785585403442e-01</leafValues></_>
        <_>
          <internalNodes>
            0 -1 16 -5.1950048655271530e-03</internalNodes>
          <leafValues>
            7.5806528329849243e-01 -8.6062985658645630e-01</leafValues></_>
        <_>
          <internalNodes>
            0 -1 12 -4.3512843549251556e-03</internalNodes>
          <leafValues>
            6.7909419536590576e-01 -8.7728220224380493e-01</leafValues></_>
        <_>
          <internalNodes>
            0 -1 14 6.0997959226369858e-03</internalNodes>
          <leafValues>
            -8.9766466617584229e-01 6.5636759996414185e-01</leafValues></_></weakClassifiers></_></stages>
  <features>
    <_>
      <rects>
        <_>
          0 0 2 2 -1.</_>
        <_>
          0 0 1 1 2.</_>
        <_>
          1 1 1 1 2.</_></rects>
      <tilted>0</tilted></_>
    <_>
      <rects>
        <_>
          0 0 39 34 -1.</_>
        <_>
          13 0 13 34 2.</_></rects>
      <tilted>0</tilted></_>
    <_>
      <rects>
        <_>
          0 0 33 21 -1.</_>
        <_>
          0 7 33 7 2.</_></rects>
      <tilted>0</tilted></_>
    <_>
      <rects>
        <_>
          4 22 8 12 -1.</_>
        <_>
          4 22 4 6 2.</_>
        <_>
          8 28 4 6 2.</_></rects>
      <tilted>0</tilted></_>
    <_>
      <rects>
        <_>
          7 5 8 31 -1.</_>
        <_>
          11 5 4 31 2.</_></rects>
      <tilted>0</tilted></_>
    <_>
      <rects>
        <_>
          7 9 24 10 -1.</_>
        <_>
          7 14 24 5 2.</_></rects>
      <tilted>0</tilted></_>
    <_>
      <rects>
        <_>
          7 12 23 4 -1.</_>
        <_>
          7 14 23 2 2.</_></rects>
      <tilted>0</tilted></_>
    <_>
      <rects>
        <_>
          9 4 6 34 -1.</_>
        <_>
          12 4 3 34 2.</_></rects>
      <tilted>0</tilted></_>
    <_>
      <rects>
        <_>
          9 25 4 8 -1.</_>
        <_>
          9 29 4 4 2.</_></rects>
      <tilted>0</tilted></_>
    <_>
      <rects>
        <_>
          9 31 24 8 -1.</_>
        <_>
          9 35 24 4 2.</_></rects>
      <tilted>0</tilted></_>
    <_>
      <rects>
        <_>
          10 1 18 6 -1.</_>
        <_>
          10 4 18 3 2.</_></rects>
      <tilted>0</tilted></_>
    <_>
      <rects>
        <_>
          10 13 10 26 -1.</_>
        <_>
          10 13 5 13 2.</_>
        <_>
          15 26 5 13 2.</_></rects>
      <tilted>0</tilted></_>
    <_>
      <rects>
        <_>
          10 25 4 13 -1.</_>
        <_>
          12 25 2 13 2.</_></rects>
      <tilted>0</tilted></_>
    <_>
      <rects>
        <_>
          10 35 22 4 -1.</_>
        <_>
          10 37 22 2 2.</_></rects>
      <tilted>0</tilted></_>
    <_>
      <rects>
        <_>
          20 7 18 2 -1.</_>
        <_>
          29 7 9 2 2.</_></rects>
      <tilted>0</tilted></_>
    <_>
      <rects>
        <_>
          21 4 6 33 -1.</_>
        <_>
          21 15 6 11 2.</_></rects>
      <tilted>0</tilted></_>
    <_>
      <rects>
        <_>
          22 18 12 12 -1.</_>
        <_>
          22 18 6 6 2.</_>
        <_>
          28 24 6 6 2.</_></rects>
      <tilted>0</tilted></_>
    <_>
      <rects>
        <_>
          26 23 12 10 -1.</_>
        <_>
          26 23 6 5 2.</_>
        <_>
          32 28 6 5 2.</_></rects>
      <tilted>0</tilted></_>
    <_>
      <rects>
        <_>
          29 7 8 20 -1.</_>
        <_>
          29 7 4 10 2.</_>
        <_>
          33 17 4 10 2.</_></rects>
      <tilted>0</tilted></_>
    <_>
      <rects>
        <_>
          31 9 6 6 -1.</_>
        <_>
          31 9 3 3 2.</_>
        <_>
          34 12 3 3 2.</_></rects>
      <tilted>0</tilted></_></features></cascade>
</opencv_storage>
