<?xml version="1.0"?>
<opencv_storage>
<cascade>
  <stageType>BOOST</stageType>
  <featureType>HAAR</featureType>
  <height>40</height>
  <width>40</width>
  <stageParams>
    <boostType>GAB</boostType>
    <minHitRate>9.9500000476837158e-01</minHitRate>
    <maxFalseAlarm>5.0000000000000000e-01</maxFalseAlarm>
    <weightTrimRate>9.4999999999999996e-01</weightTrimRate>
    <maxDepth>1</maxDepth>
    <maxWeakCount>100</maxWeakCount></stageParams>
  <featureParams>
    <maxCatCount>0</maxCatCount>
    <featSize>1</featSize>
    <mode>BASIC</mode></featureParams>
  <stageNum>10</stageNum>
  <stages>
    <!-- stage 0 -->
    <_>
      <maxWeakCount>1</maxWeakCount>
      <stageThreshold>1.</stageThreshold>
      <weakClassifiers>
        <_>
          <internalNodes>
            0 -1 2 5.1451167091727257e-03</internalNodes>
          <leafValues>
            1. -1.</leafValues></_></weakClassifiers></_>
    <!-- stage 1 -->
    <_>
      <maxWeakCount>1</maxWeakCount>
      <stageThreshold>1.</stageThreshold>
      <weakClassifiers>
        <_>
          <internalNodes>
            0 -1 1 1.7035670578479767e-01</internalNodes>
          <leafValues>
            1. -1.</leafValues></_></weakClassifiers></_>
    <!-- stage 2 -->
    <_>
      <maxWeakCount>1</maxWeakCount>
      <stageThreshold>1.</stageThreshold>
      <weakClassifiers>
        <_>
          <internalNodes>
            0 -1 0 -1.6341533046215773e-03</internalNodes>
          <leafValues>
            -1. 1.</leafValues></_></weakClassifiers></_>
    <!-- stage 3 -->
    <_>
      <maxWeakCount>2</maxWeakCount>
      <stageThreshold>-1.1072219163179398e-01</stageThreshold>
      <weakClassifiers>
        <_>
          <internalNodes>
            0 -1 9 9.8900655284523964e-03</internalNodes>
          <leafValues>
            -8.9622640609741211e-01 8.1784385442733765e-01</leafValues></_>
        <_>
          <internalNodes>
            0 -1 11 -6.3511924818158150e-03</internalNodes>
          <leafValues>
            7.8550422191619873e-01 -7.4548566341400146e-01</leafValues></_></weakClassifiers></_>
    <!-- stage 4 -->
    <_>
      <maxWeakCount>2</maxWeakCount>
      <stageThreshold>-1.8545764684677124e-01</stageThreshold>
      <weakClassifiers>
        <_>
          <internalNodes>
            0 -1 21 -1.5540054300799966e-03</internalNodes>
          <leafValues>
            7.2679507732391357e-01 -9.2178773880004883e-01</leafValues></_>
        <_>
          <internalNodes>
            0 -1 4 1.3875674456357956e-02</internalNodes>
          <leafValues>
            -7.4873477220535278e-01 7.3633009195327759e-01</leafValues></_></weakClassifiers></_>
    <!-- stage 5 -->
    <_>
      <maxWeakCount>4</maxWeakCount>
      <stageThreshold>-4.0348389744758606e-01</stageThreshold>
      <weakClassifiers>
        <_>
          <internalNodes>
            0 -1 24 -3.5431715659797192e-03</internalNodes>
          <leafValues>
            7.7110695838928223e-01 -7.4193549156188965e-01</leafValues></_>
        <_>
          <internalNodes>
            0 -1 16 1.7052062321454287e-03</internalNodes>
          <leafValues>
            -9.4438737630844116e-01 5.6278991699218750e-01</leafValues></_>
        <_>
          <internalNodes>
            0 -1 19 -3.7934994325041771e-03</internalNodes>
          <leafValues>
            6.3743472099304199e-01 -6.8403160572052002e-01</leafValues></_>
        <_>
          <internalNodes>
            0 -1 8 1.2324967246968299e-04</internalNodes>
          <leafValues>
            -8.3086681365966797e-01 4.5969328284263611e-01</leafValues></_></weakClassifiers></_>
    <!-- stage 6 -->
    <_>
      <maxWeakCount>4</maxWeakCount>
      <stageThreshold>-1.1770143508911133e+00</stageThreshold>
      <weakClassifiers>
        <_>
          <internalNodes>
            0 -1 17 -2.9686694033443928e-03</internalNodes>
          <leafValues>
            8.2892054319381714e-01 -6.0617762804031372e-01</leafValues></_>
        <_>
          <internalNodes>
            0 -1 10 -3.0420662369579077e-03</internalNodes>
          <leafValues>
            5.9741866588592529e-01 -8.4645217657089233e-01</leafValues></_>
        <_>
          <internalNodes>
            0 -1 6 1.6204463317990303e-02</internalNodes>
          <leafValues>
            -5.8922833204269409e-01 7.6869326829910278e-01</leafValues></_>
        <_>
          <internalNodes>
            0 -1 22 1.0796206071972847e-02</internalNodes>
          <leafValues>
            -5.7902705669403076e-01 7.1882569789886475e-01</leafValues></_></weakClassifiers></_>
    <!-- stage 7 -->
    <_>
      <maxWeakCount>3</maxWeakCount>
      <stageThreshold>-4.9674853682518005e-01</stageThreshold>
      <weakClassifiers>
        <_>
          <internalNodes>
            0 -1 14 -6.7690555006265640e-03</internalNodes>
          <leafValues>
            -9.3548387289047241e-01 6.6386556625366211e-01</leafValues></_>
        <_>
          <internalNodes>
            0 -1 25 -4.3672597967088223e-03</internalNodes>
          <leafValues>
            7.3522520065307617e-01 -6.2696969509124756e-01</leafValues></_>
        <_>
          <internalNodes>
            0 -1 18 -2.4238446727395058e-02</internalNodes>
          <leafValues>
            7.6918154954910278e-01 -5.3364437818527222e-01</leafValues></_></weakClassifiers></_>
    <!-- stage 8 -->
    <_>
      <maxWeakCount>4</maxWeakCount>
      <stageThreshold>-4.7956690192222595e-01</stageThreshold>
      <weakClassifiers>
        <_>
          <internalNodes>
            0 -1 15 -8.3461496978998184e-03</internalNodes>
          <leafValues>
            6.8620687723159790e-01 -8.7058824300765991e-01</leafValues></_>
        <_>
          <internalNodes>
            0 -1 5 2.2679623216390610e-03</internalNodes>
          <leafValues>
            -6.3542252779006958e-01 6.9532519578933716e-01</leafValues></_>
        <_>
          <internalNodes>
            0 -1 23 3.7374367821030319e-05</internalNodes>
          <leafValues>
            -8.5743099451065063e-01 4.7375023365020752e-01</leafValues></_>
        <_>
          <internalNodes>
            0 -1 13 -4.8894323408603668e-03</internalNodes>
          <leafValues>
            5.5312716960906982e-01 -5.3567856550216675e-01</leafValues></_></weakClassifiers></_>
    <!-- stage 9 -->
    <_>
      <maxWeakCount>4</maxWeakCount>
      <stageThreshold>-3.0178603529930115e-01</stageThreshold>
      <weakClassifiers>
        <_>
          <internalNodes>
            0 -1 20 3.7353080697357655e-03</internalNodes>
          <leafValues>
            -6.0784316062927246e-01 6.8498170375823975e-01</leafValues></_>
        <_>
          <internalNodes>
            0 -1 3 9.8594753071665764e-03</internalNodes>
          <leafValues>
            -4.0570077300071716e-01 9.0673309564590454e-01</leafValues></_>
        <_>
          <internalNodes>
            0 -1 12 -7.2400405770167708e-05</internalNodes>
          <leafValues>
            -9.1791015863418579e-01 4.4466564059257507e-01</leafValues></_>
        <_>
          <internalNodes>
            0 -1 7 -4.2096675315406173e-05</internalNodes>
          <leafValues>
            -8.9846771955490112e-01 3.3684322237968445e-01</leafValues></_></weakClassifiers></_></stages>
  <features>
    <_>
      <rects>
        <_>
          0 0 2 2 -1.</_>
        <_>
          0 0 1 1 2.</_>
        <_>
          1 1 1 1 2.</_></rects>
      <tilted>0</tilted></_>
    <_>
      <rects>
        <_>
          0 0 22 12 -1.</_>
        <_>
          11 0 11 12 2.</_></rects>
      <tilted>0</tilted></_>
    <_>
      <rects>
        <_>
          0 1 2 6 -1.</_>
        <_>
          0 1 1 3 2.</_>
        <_>
          1 4 1 3 2.</_></rects>
      <tilted>0</tilted></_>
    <_>
      <rects>
        <_>
          5 22 6 12 -1.</_>
        <_>
          5 22 3 6 2.</_>
        <_>
          8 28 3 6 2.</_></rects>
      <tilted>0</tilted></_>
    <_>
      <rects>
        <_>
          6 25 10 8 -1.</_>
        <_>
          11 25 5 8 2.</_></rects>
      <tilted>0</tilted></_>
    <_>
      <rects>
        <_>
          8 22 10 1 -1.</_>
        <_>
          13 22 5 1 2.</_></rects>
      <tilted>0</tilted></_>
    <_>
      <rects>
        <_>
          10 5 8 24 -1.</_>
        <_>
          10 5 4 12 2.</_>
        <_>
          14 17 4 12 2.</_></rects>
      <tilted>0</tilted></_>
    <_>
      <rects>
        <_>
          10 25 7 2 -1.</_>
        <_>
          10 26 7 1 2.</_></rects>
      <tilted>0</tilted></_>
    <_>
      <rects>
        <_>
          12 19 10 2 -1.</_>
        <_>
          12 20 10 1 2.</_></rects>
      <tilted>0</tilted></_>
    <_>
      <rects>
        <_>
          13 14 11 16 -1.</_>
        <_>
          13 22 11 8 2.</_></rects>
      <tilted>0</tilted></_>
    <_>
      <rects>
        <_>
          13 28 10 4 -1.</_>
        <_>
          18 28 5 4 2.</_></rects>
      <tilted>0</tilted></_>
    <_>
      <rects>
        <_>
          14 22 8 9 -1.</_>
        <_>
          18 22 4 9 2.</_></rects>
      <tilted>0</tilted></_>
    <_>
      <rects>
        <_>
          14 23 4 2 -1.</_>
        <_>
          14 24 4 1 2.</_></rects>
      <tilted>0</tilted></_>
    <_>
      <rects>
        <_>
          17 6 4 20 -1.</_>
        <_>
          17 6 2 10 2.</_>
        <_>
          19 16 2 10 2.</_></rects>
      <tilted>0</tilted></_>
    <_>
      <rects>
        <_>
          17 10 6 30 -1.</_>
        <_>
          17 25 6 15 2.</_></rects>
      <tilted>0</tilted></_>
    <_>
      <rects>
        <_>
          17 22 8 18 -1.</_>
        <_>
          17 31 8 9 2.</_></rects>
      <tilted>0</tilted></_>
    <_>
      <rects>
        <_>
          19 27 10 7 -1.</_>
        <_>
          24 27 5 7 2.</_></rects>
      <tilted>0</tilted></_>
    <_>
      <rects>
        <_>
          24 18 6 5 -1.</_>
        <_>
          27 18 3 5 2.</_></rects>
      <tilted>0</tilted></_>
    <_>
      <rects>
        <_>
          24 19 10 9 -1.</_>
        <_>
          29 19 5 9 2.</_></rects>
      <tilted>0</tilted></_>
    <_>
      <rects>
        <_>
          25 15 6 10 -1.</_>
        <_>
          25 15 3 5 2.</_>
        <_>
          28 20 3 5 2.</_></rects>
      <tilted>0</tilted></_>
    <_>
      <rects>
        <_>
          25 20 6 14 -1.</_>
        <_>
          25 20 3 7 2.</_>
        <_>
          28 27 3 7 2.</_></rects>
      <tilted>0</tilted></_>
    <_>
      <rects>
        <_>
          25 23 1 16 -1.</_>
        <_>
          25 31 1 8 2.</_></rects>
      <tilted>0</tilted></_>
    <_>
      <rects>
        <_>
          26 12 2 18 -1.</_>
        <_>
          26 21 2 9 2.</_></rects>
      <tilted>0</tilted></_>
    <_>
      <rects>
        <_>
          27 25 4 2 -1.</_>
        <_>
          27 26 4 1 2.</_></rects>
      <tilted>0</tilted></_>
    <_>
      <rects>
        <_>
          28 25 6 7 -1.</_>
        <_>
          31 25 3 7 2.</_></rects>
      <tilted>0</tilted></_>
    <_>
      <rects>
        <_>
          29 22 6 10 -1.</_>
        <_>
          29 22 3 5 2.</_>
        <_>
          32 27 3 5 2.</_></rects>
      <tilted>0</tilted></_></features></cascade>
</opencv_storage>
