<?xml version="1.0"?>
<opencv_storage>
<cascade>
  <stageType>BOOST</stageType>
  <featureType>HAAR</featureType>
  <height>40</height>
  <width>40</width>
  <stageParams>
    <boostType>GAB</boostType>
    <minHitRate>9.9500000476837158e-01</minHitRate>
    <maxFalseAlarm>5.0000000000000000e-01</maxFalseAlarm>
    <weightTrimRate>9.4999999999999996e-01</weightTrimRate>
    <maxDepth>1</maxDepth>
    <maxWeakCount>100</maxWeakCount></stageParams>
  <featureParams>
    <maxCatCount>0</maxCatCount>
    <featSize>1</featSize>
    <mode>BASIC</mode></featureParams>
  <stageNum>10</stageNum>
  <stages>
    <!-- stage 0 -->
    <_>
      <maxWeakCount>1</maxWeakCount>
      <stageThreshold>1.</stageThreshold>
      <weakClassifiers>
        <_>
          <internalNodes>
            0 -1 2 6.3842628151178360e-03</internalNodes>
          <leafValues>
            1. -1.</leafValues></_></weakClassifiers></_>
    <!-- stage 1 -->
    <_>
      <maxWeakCount>1</maxWeakCount>
      <stageThreshold>1.</stageThreshold>
      <weakClassifiers>
        <_>
          <internalNodes>
            0 -1 0 -8.7516918778419495e-02</internalNodes>
          <leafValues>
            -1. 1.</leafValues></_></weakClassifiers></_>
    <!-- stage 2 -->
    <_>
      <maxWeakCount>1</maxWeakCount>
      <stageThreshold>1.</stageThreshold>
      <weakClassifiers>
        <_>
          <internalNodes>
            0 -1 1 -3.8089740276336670e-01</internalNodes>
          <leafValues>
            -1. 1.</leafValues></_></weakClassifiers></_>
    <!-- stage 3 -->
    <_>
      <maxWeakCount>2</maxWeakCount>
      <stageThreshold>-4.1519127786159515e-02</stageThreshold>
      <weakClassifiers>
        <_>
          <internalNodes>
            0 -1 10 2.3746296763420105e-02</internalNodes>
          <leafValues>
            -9.0476191043853760e-01 9.5983934402465820e-01</leafValues></_>
        <_>
          <internalNodes>
            0 -1 5 2.3843448609113693e-02</internalNodes>
          <leafValues>
            -9.7188729047775269e-01 8.6324280500411987e-01</leafValues></_></weakClassifiers></_>
    <!-- stage 4 -->
    <_>
      <maxWeakCount>2</maxWeakCount>
      <stageThreshold>-6.9036394357681274e-02</stageThreshold>
      <weakClassifiers>
        <_>
          <internalNodes>
            0 -1 9 2.2459274157881737e-02</internalNodes>
          <leafValues>
            -9.1071426868438721e-01 8.6311787366867065e-01</leafValues></_>
        <_>
          <internalNodes>
            0 -1 17 -1.3269547373056412e-02</internalNodes>
          <leafValues>
            8.4167790412902832e-01 -9.0047764778137207e-01</leafValues></_></weakClassifiers></_>
    <!-- stage 5 -->
    <_>
      <maxWeakCount>2</maxWeakCount>
      <stageThreshold>-1.2812365591526031e-01</stageThreshold>
      <weakClassifiers>
        <_>
          <internalNodes>
            0 -1 15 -2.8059868142008781e-02</internalNodes>
          <leafValues>
            8.6590039730072021e-01 -8.8596493005752563e-01</leafValues></_>
        <_>
          <internalNodes>
            0 -1 14 -4.8181682825088501e-02</internalNodes>
          <leafValues>
            7.5784122943878174e-01 -9.3038380146026611e-01</leafValues></_></weakClassifiers></_>
    <!-- stage 6 -->
    <_>
      <maxWeakCount>2</maxWeakCount>
      <stageThreshold>-1.8064640462398529e-01</stageThreshold>
      <weakClassifiers>
        <_>
          <internalNodes>
            0 -1 12 8.0063398927450180e-03</internalNodes>
          <leafValues>
            -9.0430623292922974e-01 8.1146025657653809e-01</leafValues></_>
        <_>
          <internalNodes>
            0 -1 19 -2.5341521948575974e-02</internalNodes>
          <leafValues>
            7.2365981340408325e-01 -9.3974375724792480e-01</leafValues></_></weakClassifiers></_>
    <!-- stage 7 -->
    <_>
      <maxWeakCount>2</maxWeakCount>
      <stageThreshold>-1.3700254261493683e-01</stageThreshold>
      <weakClassifiers>
        <_>
          <internalNodes>
            0 -1 18 1.0357318446040154e-02</internalNodes>
          <leafValues>
            -8.2648402452468872e-01 8.1167608499526978e-01</leafValues></_>
        <_>
          <internalNodes>
            0 -1 3 1.1681761592626572e-02</internalNodes>
          <leafValues>
            -8.4059143066406250e-01 6.8948149681091309e-01</leafValues></_></weakClassifiers></_>
    <!-- stage 8 -->
    <_>
      <maxWeakCount>4</maxWeakCount>
      <stageThreshold>-5.2981299161911011e-01</stageThreshold>
      <weakClassifiers>
        <_>
          <internalNodes>
            0 -1 4 1.4255641959607601e-02</internalNodes>
          <leafValues>
            -9.0769231319427490e-01 7.6936936378479004e-01</leafValues></_>
        <_>
          <internalNodes>
            0 -1 16 1.7727166414260864e-02</internalNodes>
          <leafValues>
            -7.1818786859512329e-01 8.3975821733474731e-01</leafValues></_>
        <_>
          <internalNodes>
            0 -1 6 -2.6594864204525948e-02</internalNodes>
          <leafValues>
            6.2291479110717773e-01 -8.8477611541748047e-01</leafValues></_>
        <_>
          <internalNodes>
            0 -1 8 9.0492786839604378e-03</internalNodes>
          <leafValues>
            -9.9034565687179565e-01 4.7315236926078796e-01</leafValues></_></weakClassifiers></_>
    <!-- stage 9 -->
    <_>
      <maxWeakCount>3</maxWeakCount>
      <stageThreshold>2.2804257273674011e-01</stageThreshold>
      <weakClassifiers>
        <_>
          <internalNodes>
            0 -1 13 6.5586515702307224e-03</internalNodes>
          <leafValues>
            -9.4505494832992554e-01 7.4295777082443237e-01</leafValues></_>
        <_>
          <internalNodes>
            0 -1 11 3.4044258296489716e-02</internalNodes>
          <leafValues>
            -8.2813137769699097e-01 5.9982824325561523e-01</leafValues></_>
        <_>
          <internalNodes>
            0 -1 7 9.4657633453607559e-03</internalNodes>
          <leafValues>
            -9.5274364948272705e-01 5.7326924800872803e-01</leafValues></_></weakClassifiers></_></stages>
  <features>
    <_>
      <rects>
        <_>
          0 0 16 32 -1.</_>
        <_>
          0 0 8 16 2.</_>
        <_>
          8 16 8 16 2.</_></rects>
      <tilted>0</tilted></_>
    <_>
      <rects>
        <_>
          0 0 27 34 -1.</_>
        <_>
          0 17 27 17 2.</_></rects>
      <tilted>0</tilted></_>
    <_>
      <rects>
        <_>
          0 1 2 6 -1.</_>
        <_>
          0 1 1 3 2.</_>
        <_>
          1 4 1 3 2.</_></rects>
      <tilted>0</tilted></_>
    <_>
      <rects>
        <_>
          1 24 26 8 -1.</_>
        <_>
          1 24 13 4 2.</_>
        <_>
          14 28 13 4 2.</_></rects>
      <tilted>0</tilted></_>
    <_>
      <rects>
        <_>
          3 18 10 6 -1.</_>
        <_>
          8 18 5 6 2.</_></rects>
      <tilted>0</tilted></_>
    <_>
      <rects>
        <_>
          4 18 10 13 -1.</_>
        <_>
          9 18 5 13 2.</_></rects>
      <tilted>0</tilted></_>
    <_>
      <rects>
        <_>
          4 29 21 8 -1.</_>
        <_>
          4 33 21 4 2.</_></rects>
      <tilted>0</tilted></_>
    <_>
      <rects>
        <_>
          5 28 14 3 -1.</_>
        <_>
          12 28 7 3 2.</_></rects>
      <tilted>0</tilted></_>
    <_>
      <rects>
        <_>
          8 6 14 8 -1.</_>
        <_>
          15 6 7 8 2.</_></rects>
      <tilted>0</tilted></_>
    <_>
      <rects>
        <_>
          8 7 7 18 -1.</_>
        <_>
          8 16 7 9 2.</_></rects>
      <tilted>0</tilted></_>
    <_>
      <rects>
        <_>
          10 5 20 8 -1.</_>
        <_>
          10 9 20 4 2.</_></rects>
      <tilted>0</tilted></_>
    <_>
      <rects>
        <_>
          10 5 21 8 -1.</_>
        <_>
          10 9 21 4 2.</_></rects>
      <tilted>0</tilted></_>
    <_>
      <rects>
        <_>
          11 18 8 16 -1.</_>
        <_>
          11 18 4 8 2.</_>
        <_>
          15 26 4 8 2.</_></rects>
      <tilted>0</tilted></_>
    <_>
      <rects>
        <_>
          12 24 10 11 -1.</_>
        <_>
          17 24 5 11 2.</_></rects>
      <tilted>0</tilted></_>
    <_>
      <rects>
        <_>
          12 27 21 12 -1.</_>
        <_>
          12 33 21 6 2.</_></rects>
      <tilted>0</tilted></_>
    <_>
      <rects>
        <_>
          17 8 22 6 -1.</_>
        <_>
          28 8 11 6 2.</_></rects>
      <tilted>0</tilted></_>
    <_>
      <rects>
        <_>
          18 9 16 10 -1.</_>
        <_>
          18 9 8 5 2.</_>
        <_>
          26 14 8 5 2.</_></rects>
      <tilted>0</tilted></_>
    <_>
      <rects>
        <_>
          18 30 22 2 -1.</_>
        <_>
          29 30 11 2 2.</_></rects>
      <tilted>0</tilted></_>
    <_>
      <rects>
        <_>
          21 3 4 10 -1.</_>
        <_>
          21 8 4 5 2.</_></rects>
      <tilted>0</tilted></_>
    <_>
      <rects>
        <_>
          27 10 12 15 -1.</_>
        <_>
          33 10 6 15 2.</_></rects>
      <tilted>0</tilted></_></features></cascade>
</opencv_storage>
