<?xml version="1.0"?>
<opencv_storage>
<cascade>
  <stageType>BOOST</stageType>
  <featureType>HAAR</featureType>
  <height>40</height>
  <width>40</width>
  <stageParams>
    <boostType>GAB</boostType>
    <minHitRate>9.9500000476837158e-01</minHitRate>
    <maxFalseAlarm>5.0000000000000000e-01</maxFalseAlarm>
    <weightTrimRate>9.4999999999999996e-01</weightTrimRate>
    <maxDepth>1</maxDepth>
    <maxWeakCount>100</maxWeakCount></stageParams>
  <featureParams>
    <maxCatCount>0</maxCatCount>
    <featSize>1</featSize>
    <mode>BASIC</mode></featureParams>
  <stageNum>10</stageNum>
  <stages>
    <!-- stage 0 -->
    <_>
      <maxWeakCount>1</maxWeakCount>
      <stageThreshold>1.</stageThreshold>
      <weakClassifiers>
        <_>
          <internalNodes>
            0 -1 1 5.1722675561904907e-03</internalNodes>
          <leafValues>
            1. -1.</leafValues></_></weakClassifiers></_>
    <!-- stage 1 -->
    <_>
      <maxWeakCount>1</maxWeakCount>
      <stageThreshold>1.</stageThreshold>
      <weakClassifiers>
        <_>
          <internalNodes>
            0 -1 2 -1.1156200198456645e-03</internalNodes>
          <leafValues>
            1. -1.</leafValues></_></weakClassifiers></_>
    <!-- stage 2 -->
    <_>
      <maxWeakCount>1</maxWeakCount>
      <stageThreshold>1.</stageThreshold>
      <weakClassifiers>
        <_>
          <internalNodes>
            0 -1 0 -1.5230366261675954e-03</internalNodes>
          <leafValues>
            -1. 1.</leafValues></_></weakClassifiers></_>
    <!-- stage 3 -->
    <_>
      <maxWeakCount>2</maxWeakCount>
      <stageThreshold>1.8679218366742134e-02</stageThreshold>
      <weakClassifiers>
        <_>
          <internalNodes>
            0 -1 20 -5.6539033539593220e-03</internalNodes>
          <leafValues>
            9.3388432264328003e-01 -8.5245901346206665e-01</leafValues></_>
        <_>
          <internalNodes>
            0 -1 14 2.6635343674570322e-03</internalNodes>
          <leafValues>
            -9.1520506143569946e-01 8.9041388034820557e-01</leafValues></_></weakClassifiers></_>
    <!-- stage 4 -->
    <_>
      <maxWeakCount>2</maxWeakCount>
      <stageThreshold>-1.9066335633397102e-02</stageThreshold>
      <weakClassifiers>
        <_>
          <internalNodes>
            0 -1 6 1.5300763770937920e-02</internalNodes>
          <leafValues>
            -8.5123968124389648e-01 9.2592591047286987e-01</leafValues></_>
        <_>
          <internalNodes>
            0 -1 4 7.7297147363424301e-03</internalNodes>
          <leafValues>
            -9.2523390054702759e-01 8.3217334747314453e-01</leafValues></_></weakClassifiers></_>
    <!-- stage 5 -->
    <_>
      <maxWeakCount>2</maxWeakCount>
      <stageThreshold>-5.6873686611652374e-02</stageThreshold>
      <weakClassifiers>
        <_>
          <internalNodes>
            0 -1 13 -1.3433130457997322e-02</internalNodes>
          <leafValues>
            9.1020405292510986e-01 -8.4873950481414795e-01</leafValues></_>
        <_>
          <internalNodes>
            0 -1 8 -1.2110695242881775e-02</internalNodes>
          <leafValues>
            7.9186582565307617e-01 -9.2421281337738037e-01</leafValues></_></weakClassifiers></_>
    <!-- stage 6 -->
    <_>
      <maxWeakCount>3</maxWeakCount>
      <stageThreshold>-7.4400144815444946e-01</stageThreshold>
      <weakClassifiers>
        <_>
          <internalNodes>
            0 -1 21 -3.7308400496840477e-03</internalNodes>
          <leafValues>
            8.3399212360382080e-01 -8.0180180072784424e-01</leafValues></_>
        <_>
          <internalNodes>
            0 -1 11 -7.3122801259160042e-03</internalNodes>
          <leafValues>
            8.9726597070693970e-01 -6.6460686922073364e-01</leafValues></_>
        <_>
          <internalNodes>
            0 -1 16 8.5446360753849149e-04</internalNodes>
          <leafValues>
            -9.0578401088714600e-01 7.2240722179412842e-01</leafValues></_></weakClassifiers></_>
    <!-- stage 7 -->
    <_>
      <maxWeakCount>3</maxWeakCount>
      <stageThreshold>-8.2405018806457520e-01</stageThreshold>
      <weakClassifiers>
        <_>
          <internalNodes>
            0 -1 10 -1.3304146938025951e-02</internalNodes>
          <leafValues>
            8.5425102710723877e-01 -7.6068377494812012e-01</leafValues></_>
        <_>
          <internalNodes>
            0 -1 19 -9.2612830922007561e-03</internalNodes>
          <leafValues>
            8.0130517482757568e-01 -7.1755540370941162e-01</leafValues></_>
        <_>
          <internalNodes>
            0 -1 3 1.0937185026705265e-02</internalNodes>
          <leafValues>
            -8.6467158794403076e-01 7.2419524192810059e-01</leafValues></_></weakClassifiers></_>
    <!-- stage 8 -->
    <_>
      <maxWeakCount>4</maxWeakCount>
      <stageThreshold>-2.4124006927013397e-01</stageThreshold>
      <weakClassifiers>
        <_>
          <internalNodes>
            0 -1 15 1.1005238629877567e-02</internalNodes>
          <leafValues>
            -7.1186441183090210e-01 8.3739835023880005e-01</leafValues></_>
        <_>
          <internalNodes>
            0 -1 5 -9.1989263892173767e-03</internalNodes>
          <leafValues>
            8.6449688673019409e-01 -6.6368716955184937e-01</leafValues></_>
        <_>
          <internalNodes>
            0 -1 9 8.8144224137067795e-03</internalNodes>
          <leafValues>
            -8.9445137977600098e-01 5.7653069496154785e-01</leafValues></_>
        <_>
          <internalNodes>
            0 -1 12 4.6614842722192407e-04</internalNodes>
          <leafValues>
            -8.5269433259963989e-01 5.5778080224990845e-01</leafValues></_></weakClassifiers></_>
    <!-- stage 9 -->
    <_>
      <maxWeakCount>3</maxWeakCount>
      <stageThreshold>-7.7243268489837646e-01</stageThreshold>
      <weakClassifiers>
        <_>
          <internalNodes>
            0 -1 7 5.6449756957590580e-03</internalNodes>
          <leafValues>
            -8.8118809461593628e-01 8.0228137969970703e-01</leafValues></_>
        <_>
          <internalNodes>
            0 -1 17 -3.1109703704714775e-02</internalNodes>
          <leafValues>
            9.3490964174270630e-01 -6.1792415380477905e-01</leafValues></_>
        <_>
          <internalNodes>
            0 -1 18 -3.3495630486868322e-04</internalNodes>
          <leafValues>
            7.2667956352233887e-01 -7.8848046064376831e-01</leafValues></_></weakClassifiers></_></stages>
  <features>
    <_>
      <rects>
        <_>
          0 0 2 2 -1.</_>
        <_>
          0 0 1 1 2.</_>
        <_>
          1 1 1 1 2.</_></rects>
      <tilted>0</tilted></_>
    <_>
      <rects>
        <_>
          0 0 2 8 -1.</_>
        <_>
          0 0 1 4 2.</_>
        <_>
          1 4 1 4 2.</_></rects>
      <tilted>0</tilted></_>
    <_>
      <rects>
        <_>
          0 0 3 9 -1.</_>
        <_>
          0 3 3 3 2.</_></rects>
      <tilted>0</tilted></_>
    <_>
      <rects>
        <_>
          5 27 8 10 -1.</_>
        <_>
          9 27 4 10 2.</_></rects>
      <tilted>0</tilted></_>
    <_>
      <rects>
        <_>
          7 24 8 8 -1.</_>
        <_>
          11 24 4 8 2.</_></rects>
      <tilted>0</tilted></_>
    <_>
      <rects>
        <_>
          9 22 6 16 -1.</_>
        <_>
          9 22 3 8 2.</_>
        <_>
          12 30 3 8 2.</_></rects>
      <tilted>0</tilted></_>
    <_>
      <rects>
        <_>
          10 17 6 14 -1.</_>
        <_>
          10 24 6 7 2.</_></rects>
      <tilted>0</tilted></_>
    <_>
      <rects>
        <_>
          10 23 22 6 -1.</_>
        <_>
          10 26 22 3 2.</_></rects>
      <tilted>0</tilted></_>
    <_>
      <rects>
        <_>
          11 15 8 18 -1.</_>
        <_>
          11 15 4 9 2.</_>
        <_>
          15 24 4 9 2.</_></rects>
      <tilted>0</tilted></_>
    <_>
      <rects>
        <_>
          12 9 5 20 -1.</_>
        <_>
          12 19 5 10 2.</_></rects>
      <tilted>0</tilted></_>
    <_>
      <rects>
        <_>
          12 14 10 10 -1.</_>
        <_>
          12 14 5 5 2.</_>
        <_>
          17 19 5 5 2.</_></rects>
      <tilted>0</tilted></_>
    <_>
      <rects>
        <_>
          15 10 4 18 -1.</_>
        <_>
          15 10 2 9 2.</_>
        <_>
          17 19 2 9 2.</_></rects>
      <tilted>0</tilted></_>
    <_>
      <rects>
        <_>
          15 12 9 2 -1.</_>
        <_>
          15 13 9 1 2.</_></rects>
      <tilted>0</tilted></_>
    <_>
      <rects>
        <_>
          18 5 10 12 -1.</_>
        <_>
          18 5 5 6 2.</_>
        <_>
          23 11 5 6 2.</_></rects>
      <tilted>0</tilted></_>
    <_>
      <rects>
        <_>
          19 5 1 14 -1.</_>
        <_>
          19 12 1 7 2.</_></rects>
      <tilted>0</tilted></_>
    <_>
      <rects>
        <_>
          19 13 8 12 -1.</_>
        <_>
          19 13 4 6 2.</_>
        <_>
          23 19 4 6 2.</_></rects>
      <tilted>0</tilted></_>
    <_>
      <rects>
        <_>
          19 28 14 4 -1.</_>
        <_>
          19 30 14 2 2.</_></rects>
      <tilted>0</tilted></_>
    <_>
      <rects>
        <_>
          19 30 19 8 -1.</_>
        <_>
          19 34 19 4 2.</_></rects>
      <tilted>0</tilted></_>
    <_>
      <rects>
        <_>
          21 29 4 1 -1.</_>
        <_>
          23 29 2 1 2.</_></rects>
      <tilted>0</tilted></_>
    <_>
      <rects>
        <_>
          26 12 6 18 -1.</_>
        <_>
          26 12 3 9 2.</_>
        <_>
          29 21 3 9 2.</_></rects>
      <tilted>0</tilted></_>
    <_>
      <rects>
        <_>
          28 28 6 8 -1.</_>
        <_>
          31 28 3 8 2.</_></rects>
      <tilted>0</tilted></_>
    <_>
      <rects>
        <_>
          28 29 2 10 -1.</_>
        <_>
          28 34 2 5 2.</_></rects>
      <tilted>0</tilted></_></features></cascade>
</opencv_storage>
