<?xml version="1.0"?>
<opencv_storage>
<cascade>
  <stageType>BOOST</stageType>
  <featureType>HAAR</featureType>
  <height>40</height>
  <width>40</width>
  <stageParams>
    <boostType>GAB</boostType>
    <minHitRate>9.9500000476837158e-01</minHitRate>
    <maxFalseAlarm>5.0000000000000000e-01</maxFalseAlarm>
    <weightTrimRate>9.4999999999999996e-01</weightTrimRate>
    <maxDepth>1</maxDepth>
    <maxWeakCount>100</maxWeakCount></stageParams>
  <featureParams>
    <maxCatCount>0</maxCatCount>
    <featSize>1</featSize>
    <mode>BASIC</mode></featureParams>
  <stageNum>10</stageNum>
  <stages>
    <!-- stage 0 -->
    <_>
      <maxWeakCount>1</maxWeakCount>
      <stageThreshold>1.</stageThreshold>
      <weakClassifiers>
        <_>
          <internalNodes>
            0 -1 2 5.3580254316329956e-03</internalNodes>
          <leafValues>
            1. -1.</leafValues></_></weakClassifiers></_>
    <!-- stage 1 -->
    <_>
      <maxWeakCount>1</maxWeakCount>
      <stageThreshold>1.</stageThreshold>
      <weakClassifiers>
        <_>
          <internalNodes>
            0 -1 1 -3.8755688001401722e-04</internalNodes>
          <leafValues>
            1. -1.</leafValues></_></weakClassifiers></_>
    <!-- stage 2 -->
    <_>
      <maxWeakCount>1</maxWeakCount>
      <stageThreshold>1.</stageThreshold>
      <weakClassifiers>
        <_>
          <internalNodes>
            0 -1 0 -1.4705208595842123e-03</internalNodes>
          <leafValues>
            -1. 1.</leafValues></_></weakClassifiers></_>
    <!-- stage 3 -->
    <_>
      <maxWeakCount>2</maxWeakCount>
      <stageThreshold>-8.9728467166423798e-02</stageThreshold>
      <weakClassifiers>
        <_>
          <internalNodes>
            0 -1 16 5.4840799421072006e-03</internalNodes>
          <leafValues>
            -9.3457943201065063e-01 8.6019414663314819e-01</leafValues></_>
        <_>
          <internalNodes>
            0 -1 17 -2.5153676979243755e-03</internalNodes>
          <leafValues>
            8.4485095739364624e-01 -8.1913936138153076e-01</leafValues></_></weakClassifiers></_>
    <!-- stage 4 -->
    <_>
      <maxWeakCount>2</maxWeakCount>
      <stageThreshold>7.1748591959476471e-02</stageThreshold>
      <weakClassifiers>
        <_>
          <internalNodes>
            0 -1 4 -8.1508830189704895e-03</internalNodes>
          <leafValues>
            9.0233546495437622e-01 -7.0542633533477783e-01</leafValues></_>
        <_>
          <internalNodes>
            0 -1 21 2.6806411333382130e-03</internalNodes>
          <leafValues>
            -8.3058685064315796e-01 8.1407308578491211e-01</leafValues></_></weakClassifiers></_>
    <!-- stage 5 -->
    <_>
      <maxWeakCount>3</maxWeakCount>
      <stageThreshold>-8.4138298034667969e-01</stageThreshold>
      <weakClassifiers>
        <_>
          <internalNodes>
            0 -1 19 9.5439925789833069e-03</internalNodes>
          <leafValues>
            -7.6763486862182617e-01 8.7704920768737793e-01</leafValues></_>
        <_>
          <internalNodes>
            0 -1 23 -2.7508309576660395e-03</internalNodes>
          <leafValues>
            7.8668010234832764e-01 -7.1397680044174194e-01</leafValues></_>
        <_>
          <internalNodes>
            0 -1 10 -5.6004533544182777e-03</internalNodes>
          <leafValues>
            6.7290627956390381e-01 -8.6042821407318115e-01</leafValues></_></weakClassifiers></_>
    <!-- stage 6 -->
    <_>
      <maxWeakCount>3</maxWeakCount>
      <stageThreshold>-7.2438389062881470e-01</stageThreshold>
      <weakClassifiers>
        <_>
          <internalNodes>
            0 -1 11 9.7322659566998482e-03</internalNodes>
          <leafValues>
            -6.7871487140655518e-01 8.5833334922790527e-01</leafValues></_>
        <_>
          <internalNodes>
            0 -1 22 -3.1116730533540249e-03</internalNodes>
          <leafValues>
            7.1833127737045288e-01 -8.0651849508285522e-01</leafValues></_>
        <_>
          <internalNodes>
            0 -1 15 8.9868891518563032e-04</internalNodes>
          <leafValues>
            -7.5594180822372437e-01 7.6084947586059570e-01</leafValues></_></weakClassifiers></_>
    <!-- stage 7 -->
    <_>
      <maxWeakCount>2</maxWeakCount>
      <stageThreshold>3.6780338734388351e-02</stageThreshold>
      <weakClassifiers>
        <_>
          <internalNodes>
            0 -1 8 -1.3887800276279449e-02</internalNodes>
          <leafValues>
            8.7473005056381226e-01 -6.0902255773544312e-01</leafValues></_>
        <_>
          <internalNodes>
            0 -1 18 -1.2029878562316298e-03</internalNodes>
          <leafValues>
            6.4580291509628296e-01 -8.2957339286804199e-01</leafValues></_></weakClassifiers></_>
    <!-- stage 8 -->
    <_>
      <maxWeakCount>4</maxWeakCount>
      <stageThreshold>-1.4085732698440552e+00</stageThreshold>
      <weakClassifiers>
        <_>
          <internalNodes>
            0 -1 7 8.1911431625485420e-03</internalNodes>
          <leafValues>
            -8.9887642860412598e-01 7.3139744997024536e-01</leafValues></_>
        <_>
          <internalNodes>
            0 -1 6 -5.1003184169530869e-02</internalNodes>
          <leafValues>
            8.4167164564132690e-01 -6.0929089784622192e-01</leafValues></_>
        <_>
          <internalNodes>
            0 -1 13 -3.9588669314980507e-03</internalNodes>
          <leafValues>
            6.5841734409332275e-01 -7.7038294076919556e-01</leafValues></_>
        <_>
          <internalNodes>
            0 -1 9 -3.2156398519873619e-03</internalNodes>
          <leafValues>
            6.2475365400314331e-01 -7.6029688119888306e-01</leafValues></_></weakClassifiers></_>
    <!-- stage 9 -->
    <_>
      <maxWeakCount>5</maxWeakCount>
      <stageThreshold>-6.2935709953308105e-01</stageThreshold>
      <weakClassifiers>
        <_>
          <internalNodes>
            0 -1 14 3.4442245960235596e-03</internalNodes>
          <leafValues>
            -6.3179916143417358e-01 8.0408161878585815e-01</leafValues></_>
        <_>
          <internalNodes>
            0 -1 12 1.6955668106675148e-03</internalNodes>
          <leafValues>
            -7.9808747768402100e-01 6.2042856216430664e-01</leafValues></_>
        <_>
          <internalNodes>
            0 -1 20 -2.5634158402681351e-02</internalNodes>
          <leafValues>
            7.5520348548889160e-01 -6.1297893524169922e-01</leafValues></_>
        <_>
          <internalNodes>
            0 -1 3 -2.6013024151325226e-02</internalNodes>
          <leafValues>
            6.0515570640563965e-01 -6.9648516178131104e-01</leafValues></_>
        <_>
          <internalNodes>
            0 -1 5 3.9406210184097290e-02</internalNodes>
          <leafValues>
            -5.5982965230941772e-01 7.4968546628952026e-01</leafValues></_></weakClassifiers></_></stages>
  <features>
    <_>
      <rects>
        <_>
          0 0 2 2 -1.</_>
        <_>
          0 0 1 1 2.</_>
        <_>
          1 1 1 1 2.</_></rects>
      <tilted>0</tilted></_>
    <_>
      <rects>
        <_>
          0 0 1 9 -1.</_>
        <_>
          0 3 1 3 2.</_></rects>
      <tilted>0</tilted></_>
    <_>
      <rects>
        <_>
          0 0 2 8 -1.</_>
        <_>
          0 0 1 4 2.</_>
        <_>
          1 4 1 4 2.</_></rects>
      <tilted>0</tilted></_>
    <_>
      <rects>
        <_>
          0 31 33 6 -1.</_>
        <_>
          0 34 33 3 2.</_></rects>
      <tilted>0</tilted></_>
    <_>
      <rects>
        <_>
          4 30 10 10 -1.</_>
        <_>
          4 30 5 5 2.</_>
        <_>
          9 35 5 5 2.</_></rects>
      <tilted>0</tilted></_>
    <_>
      <rects>
        <_>
          8 4 14 18 -1.</_>
        <_>
          8 4 7 9 2.</_>
        <_>
          15 13 7 9 2.</_></rects>
      <tilted>0</tilted></_>
    <_>
      <rects>
        <_>
          8 30 32 8 -1.</_>
        <_>
          8 34 32 4 2.</_></rects>
      <tilted>0</tilted></_>
    <_>
      <rects>
        <_>
          9 26 24 6 -1.</_>
        <_>
          9 29 24 3 2.</_></rects>
      <tilted>0</tilted></_>
    <_>
      <rects>
        <_>
          10 18 8 12 -1.</_>
        <_>
          10 18 4 6 2.</_>
        <_>
          14 24 4 6 2.</_></rects>
      <tilted>0</tilted></_>
    <_>
      <rects>
        <_>
          11 17 14 6 -1.</_>
        <_>
          11 17 7 3 2.</_>
        <_>
          18 20 7 3 2.</_></rects>
      <tilted>0</tilted></_>
    <_>
      <rects>
        <_>
          12 14 6 26 -1.</_>
        <_>
          12 14 3 13 2.</_>
        <_>
          15 27 3 13 2.</_></rects>
      <tilted>0</tilted></_>
    <_>
      <rects>
        <_>
          12 14 8 6 -1.</_>
        <_>
          16 14 4 6 2.</_></rects>
      <tilted>0</tilted></_>
    <_>
      <rects>
        <_>
          14 13 5 6 -1.</_>
        <_>
          14 16 5 3 2.</_></rects>
      <tilted>0</tilted></_>
    <_>
      <rects>
        <_>
          15 25 6 14 -1.</_>
        <_>
          15 25 3 7 2.</_>
        <_>
          18 32 3 7 2.</_></rects>
      <tilted>0</tilted></_>
    <_>
      <rects>
        <_>
          16 24 4 7 -1.</_>
        <_>
          18 24 2 7 2.</_></rects>
      <tilted>0</tilted></_>
    <_>
      <rects>
        <_>
          16 27 1 6 -1.</_>
        <_>
          16 30 1 3 2.</_></rects>
      <tilted>0</tilted></_>
    <_>
      <rects>
        <_>
          17 6 5 10 -1.</_>
        <_>
          17 11 5 5 2.</_></rects>
      <tilted>0</tilted></_>
    <_>
      <rects>
        <_>
          17 20 8 2 -1.</_>
        <_>
          21 20 4 2 2.</_></rects>
      <tilted>0</tilted></_>
    <_>
      <rects>
        <_>
          21 15 6 2 -1.</_>
        <_>
          24 15 3 2 2.</_></rects>
      <tilted>0</tilted></_>
    <_>
      <rects>
        <_>
          21 15 8 12 -1.</_>
        <_>
          21 15 4 6 2.</_>
        <_>
          25 21 4 6 2.</_></rects>
      <tilted>0</tilted></_>
    <_>
      <rects>
        <_>
          27 25 10 10 -1.</_>
        <_>
          32 25 5 10 2.</_></rects>
      <tilted>0</tilted></_>
    <_>
      <rects>
        <_>
          28 20 2 10 -1.</_>
        <_>
          28 25 2 5 2.</_></rects>
      <tilted>0</tilted></_>
    <_>
      <rects>
        <_>
          28 29 8 3 -1.</_>
        <_>
          32 29 4 3 2.</_></rects>
      <tilted>0</tilted></_>
    <_>
      <rects>
        <_>
          28 30 2 8 -1.</_>
        <_>
          28 34 2 4 2.</_></rects>
      <tilted>0</tilted></_></features></cascade>
</opencv_storage>
