<?xml version="1.0"?>
<opencv_storage>
<cascade>
  <stageType>BOOST</stageType>
  <featureType>HAAR</featureType>
  <height>40</height>
  <width>40</width>
  <stageParams>
    <boostType>GAB</boostType>
    <minHitRate>9.9500000476837158e-01</minHitRate>
    <maxFalseAlarm>5.0000000000000000e-01</maxFalseAlarm>
    <weightTrimRate>9.4999999999999996e-01</weightTrimRate>
    <maxDepth>1</maxDepth>
    <maxWeakCount>100</maxWeakCount></stageParams>
  <featureParams>
    <maxCatCount>0</maxCatCount>
    <featSize>1</featSize>
    <mode>BASIC</mode></featureParams>
  <stageNum>10</stageNum>
  <stages>
    <!-- stage 0 -->
    <_>
      <maxWeakCount>1</maxWeakCount>
      <stageThreshold>1.</stageThreshold>
      <weakClassifiers>
        <_>
          <internalNodes>
            0 -1 0 6.2413611449301243e-03</internalNodes>
          <leafValues>
            1. -1.</leafValues></_></weakClassifiers></_>
    <!-- stage 1 -->
    <_>
      <maxWeakCount>1</maxWeakCount>
      <stageThreshold>1.</stageThreshold>
      <weakClassifiers>
        <_>
          <internalNodes>
            0 -1 1 -9.7625708440318704e-04</internalNodes>
          <leafValues>
            1. -1.</leafValues></_></weakClassifiers></_>
    <!-- stage 2 -->
    <_>
      <maxWeakCount>1</maxWeakCount>
      <stageThreshold>1.</stageThreshold>
      <weakClassifiers>
        <_>
          <internalNodes>
            0 -1 2 6.4105652272701263e-03</internalNodes>
          <leafValues>
            1. -1.</leafValues></_></weakClassifiers></_>
    <!-- stage 3 -->
    <_>
      <maxWeakCount>2</maxWeakCount>
      <stageThreshold>3.4761171787977219e-02</stageThreshold>
      <weakClassifiers>
        <_>
          <internalNodes>
            0 -1 22 -2.0455133169889450e-02</internalNodes>
          <leafValues>
            9.5485329627990723e-01 -5.6351792812347412e-01</leafValues></_>
        <_>
          <internalNodes>
            0 -1 14 2.0497804507613182e-03</internalNodes>
          <leafValues>
            -9.2009210586547852e-01 6.4875352382659912e-01</leafValues></_></weakClassifiers></_>
    <!-- stage 4 -->
    <_>
      <maxWeakCount>5</maxWeakCount>
      <stageThreshold>-1.1388469934463501e+00</stageThreshold>
      <weakClassifiers>
        <_>
          <internalNodes>
            0 -1 35 -6.4582470804452896e-03</internalNodes>
          <leafValues>
            8.9934355020523071e-01 -5.4948806762695313e-01</leafValues></_>
        <_>
          <internalNodes>
            0 -1 30 -1.7257279250770807e-03</internalNodes>
          <leafValues>
            7.2070902585983276e-01 -6.0783088207244873e-01</leafValues></_>
        <_>
          <internalNodes>
            0 -1 16 -2.7291884180158377e-03</internalNodes>
          <leafValues>
            5.0374084711074829e-01 -6.8734365701675415e-01</leafValues></_>
        <_>
          <internalNodes>
            0 -1 21 -9.8459277069196105e-06</internalNodes>
          <leafValues>
            3.5198652744293213e-01 -8.4708374738693237e-01</leafValues></_>
        <_>
          <internalNodes>
            0 -1 11 -1.1704104952514172e-02</internalNodes>
          <leafValues>
            -9.6339070796966553e-01 3.5382905602455139e-01</leafValues></_></weakClassifiers></_>
    <!-- stage 5 -->
    <_>
      <maxWeakCount>5</maxWeakCount>
      <stageThreshold>-7.3633670806884766e-01</stageThreshold>
      <weakClassifiers>
        <_>
          <internalNodes>
            0 -1 23 -2.8439460322260857e-02</internalNodes>
          <leafValues>
            8.9592760801315308e-01 -4.7402596473693848e-01</leafValues></_>
        <_>
          <internalNodes>
            0 -1 18 -5.6155677884817123e-04</internalNodes>
          <leafValues>
            6.0041302442550659e-01 -8.1341993808746338e-01</leafValues></_>
        <_>
          <internalNodes>
            0 -1 32 -5.1799835637211800e-03</internalNodes>
          <leafValues>
            7.2735762596130371e-01 -5.0853890180587769e-01</leafValues></_>
        <_>
          <internalNodes>
            0 -1 29 2.0266668871045113e-03</internalNodes>
          <leafValues>
            -4.6342587471008301e-01 6.2649363279342651e-01</leafValues></_>
        <_>
          <internalNodes>
            0 -1 12 2.3938567028380930e-04</internalNodes>
          <leafValues>
            -7.8025579452514648e-01 4.3315446376800537e-01</leafValues></_></weakClassifiers></_>
    <!-- stage 6 -->
    <_>
      <maxWeakCount>5</maxWeakCount>
      <stageThreshold>-6.5342205762863159e-01</stageThreshold>
      <weakClassifiers>
        <_>
          <internalNodes>
            0 -1 27 -2.0176516845822334e-02</internalNodes>
          <leafValues>
            8.3406114578247070e-01 -4.5205479860305786e-01</leafValues></_>
        <_>
          <internalNodes>
            0 -1 20 -1.0700724087655544e-03</internalNodes>
          <leafValues>
            6.1646878719329834e-01 -5.5785900354385376e-01</leafValues></_>
        <_>
          <internalNodes>
            0 -1 28 -2.5944445282220840e-02</internalNodes>
          <leafValues>
            7.9585254192352295e-01 -4.5078232884407043e-01</leafValues></_>
        <_>
          <internalNodes>
            0 -1 4 -4.1311467066407204e-03</internalNodes>
          <leafValues>
            4.2835572361946106e-01 -7.7188986539840698e-01</leafValues></_>
        <_>
          <internalNodes>
            0 -1 31 -4.9874128308147192e-04</internalNodes>
          <leafValues>
            3.7891831994056702e-01 -7.1588218212127686e-01</leafValues></_></weakClassifiers></_>
    <!-- stage 7 -->
    <_>
      <maxWeakCount>5</maxWeakCount>
      <stageThreshold>-2.5052016973495483e-01</stageThreshold>
      <weakClassifiers>
        <_>
          <internalNodes>
            0 -1 5 6.2447758391499519e-03</internalNodes>
          <leafValues>
            -5.1079136133193970e-01 8.3050847053527832e-01</leafValues></_>
        <_>
          <internalNodes>
            0 -1 37 -1.5166762750595808e-04</internalNodes>
          <leafValues>
            5.6080806255340576e-01 -5.8610934019088745e-01</leafValues></_>
        <_>
          <internalNodes>
            0 -1 25 -1.3854925055056810e-03</internalNodes>
          <leafValues>
            3.7630811333656311e-01 -8.0754661560058594e-01</leafValues></_>
        <_>
          <internalNodes>
            0 -1 13 3.7024417542852461e-04</internalNodes>
          <leafValues>
            -8.1025344133377075e-01 2.9922059178352356e-01</leafValues></_>
        <_>
          <internalNodes>
            0 -1 8 1.5535116195678711e-02</internalNodes>
          <leafValues>
            2.0778915286064148e-01 -8.9840477705001831e-01</leafValues></_></weakClassifiers></_>
    <!-- stage 8 -->
    <_>
      <maxWeakCount>6</maxWeakCount>
      <stageThreshold>-7.6175111532211304e-01</stageThreshold>
      <weakClassifiers>
        <_>
          <internalNodes>
            0 -1 26 1.9821479916572571e-02</internalNodes>
          <leafValues>
            -2.6486486196517944e-01 9.1578948497772217e-01</leafValues></_>
        <_>
          <internalNodes>
            0 -1 9 1.4965301379561424e-03</internalNodes>
          <leafValues>
            -8.6966788768768311e-01 4.4850796461105347e-01</leafValues></_>
        <_>
          <internalNodes>
            0 -1 34 -8.9547235984355211e-04</internalNodes>
          <leafValues>
            4.5098388195037842e-01 -6.6236108541488647e-01</leafValues></_>
        <_>
          <internalNodes>
            0 -1 6 -8.7626642198301852e-05</internalNodes>
          <leafValues>
            3.5955074429512024e-01 -7.9234755039215088e-01</leafValues></_>
        <_>
          <internalNodes>
            0 -1 17 1.1612721718847752e-03</internalNodes>
          <leafValues>
            2.2045361995697021e-01 -9.2871588468551636e-01</leafValues></_>
        <_>
          <internalNodes>
            0 -1 10 -4.3536326847970486e-04</internalNodes>
          <leafValues>
            -7.0314961671829224e-01 2.8886082768440247e-01</leafValues></_></weakClassifiers></_>
    <!-- stage 9 -->
    <_>
      <maxWeakCount>7</maxWeakCount>
      <stageThreshold>-1.0046687126159668e+00</stageThreshold>
      <weakClassifiers>
        <_>
          <internalNodes>
            0 -1 36 2.5535547174513340e-03</internalNodes>
          <leafValues>
            -5.3125000000000000e-01 7.8137654066085815e-01</leafValues></_>
        <_>
          <internalNodes>
            0 -1 24 -1.1334831826388836e-02</internalNodes>
          <leafValues>
            7.5562632083892822e-01 -3.2881301641464233e-01</leafValues></_>
        <_>
          <internalNodes>
            0 -1 19 6.6455756314098835e-04</internalNodes>
          <leafValues>
            -9.4259279966354370e-01 3.3625316619873047e-01</leafValues></_>
        <_>
          <internalNodes>
            0 -1 15 4.8342000809498131e-05</internalNodes>
          <leafValues>
            -7.3706150054931641e-01 3.0143380165100098e-01</leafValues></_>
        <_>
          <internalNodes>
            0 -1 33 1.4276962727308273e-02</internalNodes>
          <leafValues>
            -3.2051038742065430e-01 8.1549674272537231e-01</leafValues></_>
        <_>
          <internalNodes>
            0 -1 7 5.3928830311633646e-05</internalNodes>
          <leafValues>
            3.2238855957984924e-01 -7.9828745126724243e-01</leafValues></_>
        <_>
          <internalNodes>
            0 -1 3 6.3085407018661499e-03</internalNodes>
          <leafValues>
            2.5432449579238892e-01 -8.1042200326919556e-01</leafValues></_></weakClassifiers></_></stages>
  <features>
    <_>
      <rects>
        <_>
          0 0 2 8 -1.</_>
        <_>
          0 0 1 4 2.</_>
        <_>
          1 4 1 4 2.</_></rects>
      <tilted>0</tilted></_>
    <_>
      <rects>
        <_>
          0 0 2 9 -1.</_>
        <_>
          0 3 2 3 2.</_></rects>
      <tilted>0</tilted></_>
    <_>
      <rects>
        <_>
          0 1 2 8 -1.</_>
        <_>
          0 1 1 4 2.</_>
        <_>
          1 5 1 4 2.</_></rects>
      <tilted>0</tilted></_>
    <_>
      <rects>
        <_>
          1 16 22 8 -1.</_>
        <_>
          1 20 22 4 2.</_></rects>
      <tilted>0</tilted></_>
    <_>
      <rects>
        <_>
          3 30 14 8 -1.</_>
        <_>
          3 34 14 4 2.</_></rects>
      <tilted>0</tilted></_>
    <_>
      <rects>
        <_>
          6 28 6 8 -1.</_>
        <_>
          9 28 3 8 2.</_></rects>
      <tilted>0</tilted></_>
    <_>
      <rects>
        <_>
          7 29 20 2 -1.</_>
        <_>
          7 29 10 1 2.</_>
        <_>
          17 30 10 1 2.</_></rects>
      <tilted>0</tilted></_>
    <_>
      <rects>
        <_>
          8 11 1 2 -1.</_>
        <_>
          8 12 1 1 2.</_></rects>
      <tilted>0</tilted></_>
    <_>
      <rects>
        <_>
          8 21 23 12 -1.</_>
        <_>
          8 27 23 6 2.</_></rects>
      <tilted>0</tilted></_>
    <_>
      <rects>
        <_>
          9 23 13 8 -1.</_>
        <_>
          9 27 13 4 2.</_></rects>
      <tilted>0</tilted></_>
    <_>
      <rects>
        <_>
          9 23 23 4 -1.</_>
        <_>
          9 25 23 2 2.</_></rects>
      <tilted>0</tilted></_>
    <_>
      <rects>
        <_>
          10 17 15 16 -1.</_>
        <_>
          10 25 15 8 2.</_></rects>
      <tilted>0</tilted></_>
    <_>
      <rects>
        <_>
          10 26 7 6 -1.</_>
        <_>
          10 29 7 3 2.</_></rects>
      <tilted>0</tilted></_>
    <_>
      <rects>
        <_>
          11 14 8 20 -1.</_>
        <_>
          11 24 8 10 2.</_></rects>
      <tilted>0</tilted></_>
    <_>
      <rects>
        <_>
          11 19 7 12 -1.</_>
        <_>
          11 25 7 6 2.</_></rects>
      <tilted>0</tilted></_>
    <_>
      <rects>
        <_>
          11 23 6 2 -1.</_>
        <_>
          11 24 6 1 2.</_></rects>
      <tilted>0</tilted></_>
    <_>
      <rects>
        <_>
          11 27 18 4 -1.</_>
        <_>
          11 27 9 2 2.</_>
        <_>
          20 29 9 2 2.</_></rects>
      <tilted>0</tilted></_>
    <_>
      <rects>
        <_>
          11 27 23 2 -1.</_>
        <_>
          11 28 23 1 2.</_></rects>
      <tilted>0</tilted></_>
    <_>
      <rects>
        <_>
          12 25 8 8 -1.</_>
        <_>
          16 25 4 8 2.</_></rects>
      <tilted>0</tilted></_>
    <_>
      <rects>
        <_>
          13 9 12 16 -1.</_>
        <_>
          19 9 6 16 2.</_></rects>
      <tilted>0</tilted></_>
    <_>
      <rects>
        <_>
          14 17 4 8 -1.</_>
        <_>
          14 17 2 4 2.</_>
        <_>
          16 21 2 4 2.</_></rects>
      <tilted>0</tilted></_>
    <_>
      <rects>
        <_>
          15 19 13 14 -1.</_>
        <_>
          15 26 13 7 2.</_></rects>
      <tilted>0</tilted></_>
    <_>
      <rects>
        <_>
          15 22 12 12 -1.</_>
        <_>
          15 22 6 6 2.</_>
        <_>
          21 28 6 6 2.</_></rects>
      <tilted>0</tilted></_>
    <_>
      <rects>
        <_>
          16 22 12 12 -1.</_>
        <_>
          16 22 6 6 2.</_>
        <_>
          22 28 6 6 2.</_></rects>
      <tilted>0</tilted></_>
    <_>
      <rects>
        <_>
          17 6 10 10 -1.</_>
        <_>
          17 6 5 5 2.</_>
        <_>
          22 11 5 5 2.</_></rects>
      <tilted>0</tilted></_>
    <_>
      <rects>
        <_>
          17 10 4 18 -1.</_>
        <_>
          17 19 4 9 2.</_></rects>
      <tilted>0</tilted></_>
    <_>
      <rects>
        <_>
          17 14 10 10 -1.</_>
        <_>
          17 14 5 5 2.</_>
        <_>
          22 19 5 5 2.</_></rects>
      <tilted>0</tilted></_>
    <_>
      <rects>
        <_>
          17 21 8 16 -1.</_>
        <_>
          17 21 4 8 2.</_>
        <_>
          21 29 4 8 2.</_></rects>
      <tilted>0</tilted></_>
    <_>
      <rects>
        <_>
          19 4 14 18 -1.</_>
        <_>
          19 4 7 9 2.</_>
        <_>
          26 13 7 9 2.</_></rects>
      <tilted>0</tilted></_>
    <_>
      <rects>
        <_>
          19 9 4 6 -1.</_>
        <_>
          19 12 4 3 2.</_></rects>
      <tilted>0</tilted></_>
    <_>
      <rects>
        <_>
          19 15 10 3 -1.</_>
        <_>
          24 15 5 3 2.</_></rects>
      <tilted>0</tilted></_>
    <_>
      <rects>
        <_>
          20 28 11 2 -1.</_>
        <_>
          20 29 11 1 2.</_></rects>
      <tilted>0</tilted></_>
    <_>
      <rects>
        <_>
          24 12 6 12 -1.</_>
        <_>
          24 12 3 6 2.</_>
        <_>
          27 18 3 6 2.</_></rects>
      <tilted>0</tilted></_>
    <_>
      <rects>
        <_>
          24 24 8 8 -1.</_>
        <_>
          24 24 4 4 2.</_>
        <_>
          28 28 4 4 2.</_></rects>
      <tilted>0</tilted></_>
    <_>
      <rects>
        <_>
          25 18 4 6 -1.</_>
        <_>
          27 18 2 6 2.</_></rects>
      <tilted>0</tilted></_>
    <_>
      <rects>
        <_>
          25 21 2 12 -1.</_>
        <_>
          25 27 2 6 2.</_></rects>
      <tilted>0</tilted></_>
    <_>
      <rects>
        <_>
          26 28 6 7 -1.</_>
        <_>
          29 28 3 7 2.</_></rects>
      <tilted>0</tilted></_>
    <_>
      <rects>
        <_>
          28 26 4 1 -1.</_>
        <_>
          30 26 2 1 2.</_></rects>
      <tilted>0</tilted></_></features></cascade>
</opencv_storage>
