<?xml version="1.0"?>
<opencv_storage>
<stage7>
  <maxWeakCount>5</maxWeakCount>
  <stageThreshold>-2.5052016973495483e-01</stageThreshold>
  <weakClassifiers>
    <_>
      <internalNodes>
        0 -1 391322 6.2447758391499519e-03</internalNodes>
      <leafValues>
        -5.1079136133193970e-01 8.3050847053527832e-01</leafValues></_>
    <_>
      <internalNodes>
        0 -1 1145234 -1.5166762750595808e-04</internalNodes>
      <leafValues>
        5.6080806255340576e-01 -5.8610934019088745e-01</leafValues></_>
    <_>
      <internalNodes>
        0 -1 845646 -1.3854925055056810e-03</internalNodes>
      <leafValues>
        3.7630811333656311e-01 -8.0754661560058594e-01</leafValues></_>
    <_>
      <internalNodes>
        0 -1 614175 3.7024417542852461e-04</internalNodes>
      <leafValues>
        -8.1025344133377075e-01 2.9922059178352356e-01</leafValues></_>
    <_>
      <internalNodes>
        0 -1 485034 1.5535116195678711e-02</internalNodes>
      <leafValues>
        2.0778915286064148e-01 -8.9840477705001831e-01</leafValues></_></weakClassifiers></stage7>
</opencv_storage>
