<?xml version="1.0"?>
<opencv_storage>
<stage8>
  <maxWeakCount>6</maxWeakCount>
  <stageThreshold>-7.6175111532211304e-01</stageThreshold>
  <weakClassifiers>
    <_>
      <internalNodes>
        0 -1 850480 1.9821479916572571e-02</internalNodes>
      <leafValues>
        -2.6486486196517944e-01 9.1578948497772217e-01</leafValues></_>
    <_>
      <internalNodes>
        0 -1 534207 1.4965301379561424e-03</internalNodes>
      <leafValues>
        -8.6966788768768311e-01 4.4850796461105347e-01</leafValues></_>
    <_>
      <internalNodes>
        0 -1 1081965 -8.9547235984355211e-04</internalNodes>
      <leafValues>
        4.5098388195037842e-01 -6.6236108541488647e-01</leafValues></_>
    <_>
      <internalNodes>
        0 -1 442773 -8.7626642198301852e-05</internalNodes>
      <leafValues>
        3.5955074429512024e-01 -7.9234755039215088e-01</leafValues></_>
    <_>
      <internalNodes>
        0 -1 627950 1.1612721718847752e-03</internalNodes>
      <leafValues>
        2.2045361995697021e-01 -9.2871588468551636e-01</leafValues></_>
    <_>
      <internalNodes>
        0 -1 534401 -4.3536326847970486e-04</internalNodes>
      <leafValues>
        -7.0314961671829224e-01 2.8886082768440247e-01</leafValues></_></weakClassifiers></stage8>
</opencv_storage>
