<?xml version="1.0"?>
<opencv_storage>
<cascade>
  <stageType>BOOST</stageType>
  <featureType>HAAR</featureType>
  <height>40</height>
  <width>40</width>
  <stageParams>
    <boostType>GAB</boostType>
    <minHitRate>9.9500000476837158e-01</minHitRate>
    <maxFalseAlarm>5.0000000000000000e-01</maxFalseAlarm>
    <weightTrimRate>9.4999999999999996e-01</weightTrimRate>
    <maxDepth>1</maxDepth>
    <maxWeakCount>100</maxWeakCount></stageParams>
  <featureParams>
    <maxCatCount>0</maxCatCount>
    <featSize>1</featSize>
    <mode>BASIC</mode></featureParams>
  <stageNum>10</stageNum>
  <stages>
    <!-- stage 0 -->
    <_>
      <maxWeakCount>1</maxWeakCount>
      <stageThreshold>1.</stageThreshold>
      <weakClassifiers>
        <_>
          <internalNodes>
            0 -1 2 6.2712547369301319e-03</internalNodes>
          <leafValues>
            1. -1.</leafValues></_></weakClassifiers></_>
    <!-- stage 1 -->
    <_>
      <maxWeakCount>1</maxWeakCount>
      <stageThreshold>1.</stageThreshold>
      <weakClassifiers>
        <_>
          <internalNodes>
            0 -1 1 -8.2107886672019958e-02</internalNodes>
          <leafValues>
            1. -1.</leafValues></_></weakClassifiers></_>
    <!-- stage 2 -->
    <_>
      <maxWeakCount>1</maxWeakCount>
      <stageThreshold>1.</stageThreshold>
      <weakClassifiers>
        <_>
          <internalNodes>
            0 -1 0 -1.8225484527647495e-03</internalNodes>
          <leafValues>
            -1. 1.</leafValues></_></weakClassifiers></_>
    <!-- stage 3 -->
    <_>
      <maxWeakCount>4</maxWeakCount>
      <stageThreshold>-2.7187046408653259e-01</stageThreshold>
      <weakClassifiers>
        <_>
          <internalNodes>
            0 -1 11 -2.3373859003186226e-03</internalNodes>
          <leafValues>
            7.5285172462463379e-01 -6.5178573131561279e-01</leafValues></_>
        <_>
          <internalNodes>
            0 -1 10 -3.3330483711324632e-04</internalNodes>
          <leafValues>
            6.2414795160293579e-01 -7.2240751981735229e-01</leafValues></_>
        <_>
          <internalNodes>
            0 -1 30 -4.9343053251504898e-04</internalNodes>
          <leafValues>
            6.6850143671035767e-01 -6.0527795553207397e-01</leafValues></_>
        <_>
          <internalNodes>
            0 -1 21 -8.5954219102859497e-03</internalNodes>
          <leafValues>
            -8.5736763477325439e-01 4.3382132053375244e-01</leafValues></_></weakClassifiers></_>
    <!-- stage 4 -->
    <_>
      <maxWeakCount>3</maxWeakCount>
      <stageThreshold>-6.6483956575393677e-01</stageThreshold>
      <weakClassifiers>
        <_>
          <internalNodes>
            0 -1 15 -6.0220970772206783e-04</internalNodes>
          <leafValues>
            -8.9261746406555176e-01 6.3727122545242310e-01</leafValues></_>
        <_>
          <internalNodes>
            0 -1 23 5.8320967946201563e-04</internalNodes>
          <leafValues>
            -7.9069989919662476e-01 5.0678431987762451e-01</leafValues></_>
        <_>
          <internalNodes>
            0 -1 6 -1.1917673982679844e-02</internalNodes>
          <leafValues>
            7.6495915651321411e-01 -5.1141089200973511e-01</leafValues></_></weakClassifiers></_>
    <!-- stage 5 -->
    <_>
      <maxWeakCount>4</maxWeakCount>
      <stageThreshold>-4.1670045256614685e-01</stageThreshold>
      <weakClassifiers>
        <_>
          <internalNodes>
            0 -1 29 5.1260122563689947e-04</internalNodes>
          <leafValues>
            -7.2727274894714355e-01 6.5853661298751831e-01</leafValues></_>
        <_>
          <internalNodes>
            0 -1 9 2.1259074565023184e-03</internalNodes>
          <leafValues>
            -6.2727272510528564e-01 6.1527472734451294e-01</leafValues></_>
        <_>
          <internalNodes>
            0 -1 20 2.6799584156833589e-04</internalNodes>
          <leafValues>
            4.0688884258270264e-01 -9.2189109325408936e-01</leafValues></_>
        <_>
          <internalNodes>
            0 -1 12 -1.0064088273793459e-03</internalNodes>
          <leafValues>
            5.3095614910125732e-01 -6.4942657947540283e-01</leafValues></_></weakClassifiers></_>
    <!-- stage 6 -->
    <_>
      <maxWeakCount>4</maxWeakCount>
      <stageThreshold>-3.0643013119697571e-01</stageThreshold>
      <weakClassifiers>
        <_>
          <internalNodes>
            0 -1 24 1.6233819769695401e-04</internalNodes>
          <leafValues>
            -6.8965518474578857e-01 6.4236110448837280e-01</leafValues></_>
        <_>
          <internalNodes>
            0 -1 25 -6.6606322070583701e-04</internalNodes>
          <leafValues>
            -9.2412871122360229e-01 4.1472083330154419e-01</leafValues></_>
        <_>
          <internalNodes>
            0 -1 19 -1.9424513448029757e-04</internalNodes>
          <leafValues>
            5.1491886377334595e-01 -6.9517070055007935e-01</leafValues></_>
        <_>
          <internalNodes>
            0 -1 4 7.0428093895316124e-03</internalNodes>
          <leafValues>
            -5.1900303363800049e-01 6.6367489099502563e-01</leafValues></_></weakClassifiers></_>
    <!-- stage 7 -->
    <_>
      <maxWeakCount>4</maxWeakCount>
      <stageThreshold>-1.5469802916049957e-01</stageThreshold>
      <weakClassifiers>
        <_>
          <internalNodes>
            0 -1 17 -2.7697879704646766e-04</internalNodes>
          <leafValues>
            6.9174313545227051e-01 -6.1951220035552979e-01</leafValues></_>
        <_>
          <internalNodes>
            0 -1 18 8.6363987065851688e-04</internalNodes>
          <leafValues>
            3.6974945664405823e-01 -9.5869249105453491e-01</leafValues></_>
        <_>
          <internalNodes>
            0 -1 5 5.3061597049236298e-02</internalNodes>
          <leafValues>
            -3.7312707304954529e-01 9.1848152875900269e-01</leafValues></_>
        <_>
          <internalNodes>
            0 -1 26 1.2789755419362336e-04</internalNodes>
          <leafValues>
            -6.8275034427642822e-01 4.8537844419479370e-01</leafValues></_></weakClassifiers></_>
    <!-- stage 8 -->
    <_>
      <maxWeakCount>5</maxWeakCount>
      <stageThreshold>-5.5196136236190796e-01</stageThreshold>
      <weakClassifiers>
        <_>
          <internalNodes>
            0 -1 13 -1.2298088404349983e-04</internalNodes>
          <leafValues>
            -8.5294115543365479e-01 5.9609121084213257e-01</leafValues></_>
        <_>
          <internalNodes>
            0 -1 22 -3.6106675397604704e-03</internalNodes>
          <leafValues>
            6.6775834560394287e-01 -4.6081838011741638e-01</leafValues></_>
        <_>
          <internalNodes>
            0 -1 8 -2.7050805510953069e-04</internalNodes>
          <leafValues>
            4.5772615075111389e-01 -7.1044456958770752e-01</leafValues></_>
        <_>
          <internalNodes>
            0 -1 3 1.0463349521160126e-01</internalNodes>
          <leafValues>
            -3.3037659525871277e-01 9.2001730203628540e-01</leafValues></_>
        <_>
          <internalNodes>
            0 -1 27 -1.3215048238635063e-04</internalNodes>
          <leafValues>
            -8.9680695533752441e-01 4.2048656940460205e-01</leafValues></_></weakClassifiers></_>
    <!-- stage 9 -->
    <_>
      <maxWeakCount>4</maxWeakCount>
      <stageThreshold>-3.2791423797607422e-01</stageThreshold>
      <weakClassifiers>
        <_>
          <internalNodes>
            0 -1 16 -6.1824358999729156e-04</internalNodes>
          <leafValues>
            -9.0322577953338623e-01 5.7827478647232056e-01</leafValues></_>
        <_>
          <internalNodes>
            0 -1 28 2.3352680727839470e-05</internalNodes>
          <leafValues>
            -6.5252727270126343e-01 4.7658804059028625e-01</leafValues></_>
        <_>
          <internalNodes>
            0 -1 7 9.4542820006608963e-03</internalNodes>
          <leafValues>
            -5.0880938768386841e-01 7.9030883312225342e-01</leafValues></_>
        <_>
          <internalNodes>
            0 -1 14 -9.5523544587194920e-05</internalNodes>
          <leafValues>
            4.3752998113632202e-01 -8.5364276170730591e-01</leafValues></_></weakClassifiers></_></stages>
  <features>
    <_>
      <rects>
        <_>
          0 0 2 2 -1.</_>
        <_>
          0 0 1 1 2.</_>
        <_>
          1 1 1 1 2.</_></rects>
      <tilted>0</tilted></_>
    <_>
      <rects>
        <_>
          0 0 33 25 -1.</_>
        <_>
          11 0 11 25 2.</_></rects>
      <tilted>0</tilted></_>
    <_>
      <rects>
        <_>
          0 1 2 6 -1.</_>
        <_>
          0 1 1 3 2.</_>
        <_>
          1 4 1 3 2.</_></rects>
      <tilted>0</tilted></_>
    <_>
      <rects>
        <_>
          0 8 16 23 -1.</_>
        <_>
          8 8 8 23 2.</_></rects>
      <tilted>0</tilted></_>
    <_>
      <rects>
        <_>
          1 19 8 5 -1.</_>
        <_>
          5 19 4 5 2.</_></rects>
      <tilted>0</tilted></_>
    <_>
      <rects>
        <_>
          4 28 18 9 -1.</_>
        <_>
          13 28 9 9 2.</_></rects>
      <tilted>0</tilted></_>
    <_>
      <rects>
        <_>
          5 11 12 10 -1.</_>
        <_>
          5 11 6 5 2.</_>
        <_>
          11 16 6 5 2.</_></rects>
      <tilted>0</tilted></_>
    <_>
      <rects>
        <_>
          6 2 20 10 -1.</_>
        <_>
          6 7 20 5 2.</_></rects>
      <tilted>0</tilted></_>
    <_>
      <rects>
        <_>
          7 16 4 6 -1.</_>
        <_>
          7 16 2 3 2.</_>
        <_>
          9 19 2 3 2.</_></rects>
      <tilted>0</tilted></_>
    <_>
      <rects>
        <_>
          7 21 6 8 -1.</_>
        <_>
          7 21 3 4 2.</_>
        <_>
          10 25 3 4 2.</_></rects>
      <tilted>0</tilted></_>
    <_>
      <rects>
        <_>
          8 14 4 6 -1.</_>
        <_>
          8 14 2 3 2.</_>
        <_>
          10 17 2 3 2.</_></rects>
      <tilted>0</tilted></_>
    <_>
      <rects>
        <_>
          8 14 12 13 -1.</_>
        <_>
          14 14 6 13 2.</_></rects>
      <tilted>0</tilted></_>
    <_>
      <rects>
        <_>
          10 12 6 6 -1.</_>
        <_>
          10 12 3 3 2.</_>
        <_>
          13 15 3 3 2.</_></rects>
      <tilted>0</tilted></_>
    <_>
      <rects>
        <_>
          10 23 7 2 -1.</_>
        <_>
          10 24 7 1 2.</_></rects>
      <tilted>0</tilted></_>
    <_>
      <rects>
        <_>
          11 15 2 10 -1.</_>
        <_>
          12 15 1 10 2.</_></rects>
      <tilted>0</tilted></_>
    <_>
      <rects>
        <_>
          11 25 16 4 -1.</_>
        <_>
          11 27 16 2 2.</_></rects>
      <tilted>0</tilted></_>
    <_>
      <rects>
        <_>
          12 15 14 4 -1.</_>
        <_>
          12 15 7 2 2.</_>
        <_>
          19 17 7 2 2.</_></rects>
      <tilted>0</tilted></_>
    <_>
      <rects>
        <_>
          12 27 10 2 -1.</_>
        <_>
          17 27 5 2 2.</_></rects>
      <tilted>0</tilted></_>
    <_>
      <rects>
        <_>
          13 19 22 2 -1.</_>
        <_>
          13 19 11 1 2.</_>
        <_>
          24 20 11 1 2.</_></rects>
      <tilted>0</tilted></_>
    <_>
      <rects>
        <_>
          16 7 4 4 -1.</_>
        <_>
          16 7 2 2 2.</_>
        <_>
          18 9 2 2 2.</_></rects>
      <tilted>0</tilted></_>
    <_>
      <rects>
        <_>
          18 12 10 8 -1.</_>
        <_>
          18 12 5 4 2.</_>
        <_>
          23 16 5 4 2.</_></rects>
      <tilted>0</tilted></_>
    <_>
      <rects>
        <_>
          19 12 7 22 -1.</_>
        <_>
          19 23 7 11 2.</_></rects>
      <tilted>0</tilted></_>
    <_>
      <rects>
        <_>
          21 27 8 8 -1.</_>
        <_>
          21 27 4 4 2.</_>
        <_>
          25 31 4 4 2.</_></rects>
      <tilted>0</tilted></_>
    <_>
      <rects>
        <_>
          22 19 8 10 -1.</_>
        <_>
          22 19 4 5 2.</_>
        <_>
          26 24 4 5 2.</_></rects>
      <tilted>0</tilted></_>
    <_>
      <rects>
        <_>
          23 18 6 12 -1.</_>
        <_>
          23 18 3 6 2.</_>
        <_>
          26 24 3 6 2.</_></rects>
      <tilted>0</tilted></_>
    <_>
      <rects>
        <_>
          24 12 4 14 -1.</_>
        <_>
          26 12 2 14 2.</_></rects>
      <tilted>0</tilted></_>
    <_>
      <rects>
        <_>
          25 12 6 4 -1.</_>
        <_>
          25 12 3 2 2.</_>
        <_>
          28 14 3 2 2.</_></rects>
      <tilted>0</tilted></_>
    <_>
      <rects>
        <_>
          27 15 2 9 -1.</_>
        <_>
          28 15 1 9 2.</_></rects>
      <tilted>0</tilted></_>
    <_>
      <rects>
        <_>
          27 19 2 8 -1.</_>
        <_>
          27 19 1 4 2.</_>
        <_>
          28 23 1 4 2.</_></rects>
      <tilted>0</tilted></_>
    <_>
      <rects>
        <_>
          28 18 6 4 -1.</_>
        <_>
          31 18 3 4 2.</_></rects>
      <tilted>0</tilted></_>
    <_>
      <rects>
        <_>
          35 19 4 2 -1.</_>
        <_>
          37 19 2 2 2.</_></rects>
      <tilted>0</tilted></_></features></cascade>
</opencv_storage>
