<?xml version="1.0"?>
<opencv_storage>
<cascade>
  <stageType>BOOST</stageType>
  <featureType>HAAR</featureType>
  <height>40</height>
  <width>40</width>
  <stageParams>
    <boostType>GAB</boostType>
    <minHitRate>9.9500000476837158e-01</minHitRate>
    <maxFalseAlarm>5.0000000000000000e-01</maxFalseAlarm>
    <weightTrimRate>9.4999999999999996e-01</weightTrimRate>
    <maxDepth>1</maxDepth>
    <maxWeakCount>100</maxWeakCount></stageParams>
  <featureParams>
    <maxCatCount>0</maxCatCount>
    <featSize>1</featSize>
    <mode>BASIC</mode></featureParams>
  <stageNum>10</stageNum>
  <stages>
    <!-- stage 0 -->
    <_>
      <maxWeakCount>1</maxWeakCount>
      <stageThreshold>1.</stageThreshold>
      <weakClassifiers>
        <_>
          <internalNodes>
            0 -1 1 5.9278095141053200e-03</internalNodes>
          <leafValues>
            1. -1.</leafValues></_></weakClassifiers></_>
    <!-- stage 1 -->
    <_>
      <maxWeakCount>1</maxWeakCount>
      <stageThreshold>1.</stageThreshold>
      <weakClassifiers>
        <_>
          <internalNodes>
            0 -1 2 -7.4368633329868317e-02</internalNodes>
          <leafValues>
            -1. 1.</leafValues></_></weakClassifiers></_>
    <!-- stage 2 -->
    <_>
      <maxWeakCount>1</maxWeakCount>
      <stageThreshold>1.</stageThreshold>
      <weakClassifiers>
        <_>
          <internalNodes>
            0 -1 0 2.5191530585289001e-03</internalNodes>
          <leafValues>
            1. -1.</leafValues></_></weakClassifiers></_>
    <!-- stage 3 -->
    <_>
      <maxWeakCount>2</maxWeakCount>
      <stageThreshold>-6.3987798988819122e-02</stageThreshold>
      <weakClassifiers>
        <_>
          <internalNodes>
            0 -1 18 1.0380834341049194e-02</internalNodes>
          <leafValues>
            -8.4435796737670898e-01 9.4726169109344482e-01</leafValues></_>
        <_>
          <internalNodes>
            0 -1 13 -2.0435648038983345e-03</internalNodes>
          <leafValues>
            7.8037017583847046e-01 -9.5052611827850342e-01</leafValues></_></weakClassifiers></_>
    <!-- stage 4 -->
    <_>
      <maxWeakCount>4</maxWeakCount>
      <stageThreshold>-2.2911475598812103e-01</stageThreshold>
      <weakClassifiers>
        <_>
          <internalNodes>
            0 -1 25 5.9818737208843231e-03</internalNodes>
          <leafValues>
            -8.9519649744033813e-01 8.7332051992416382e-01</leafValues></_>
        <_>
          <internalNodes>
            0 -1 20 -1.0262876749038696e-02</internalNodes>
          <leafValues>
            7.6261520385742188e-01 -7.8334105014801025e-01</leafValues></_>
        <_>
          <internalNodes>
            0 -1 10 1.8778537632897496e-03</internalNodes>
          <leafValues>
            -8.4653633832931519e-01 6.6102683544158936e-01</leafValues></_>
        <_>
          <internalNodes>
            0 -1 28 -1.7405519261956215e-02</internalNodes>
          <leafValues>
            7.8839594125747681e-01 -7.1192717552185059e-01</leafValues></_></weakClassifiers></_>
    <!-- stage 5 -->
    <_>
      <maxWeakCount>4</maxWeakCount>
      <stageThreshold>-7.6488614082336426e-01</stageThreshold>
      <weakClassifiers>
        <_>
          <internalNodes>
            0 -1 9 -6.3550281338393688e-03</internalNodes>
          <leafValues>
            8.0597013235092163e-01 -8.5046726465225220e-01</leafValues></_>
        <_>
          <internalNodes>
            0 -1 29 4.0417555719614029e-03</internalNodes>
          <leafValues>
            -8.4600538015365601e-01 6.1329638957977295e-01</leafValues></_>
        <_>
          <internalNodes>
            0 -1 32 -2.6043584512080997e-05</internalNodes>
          <leafValues>
            4.3380558490753174e-01 -9.3348175287246704e-01</leafValues></_>
        <_>
          <internalNodes>
            0 -1 3 -4.6437352895736694e-02</internalNodes>
          <leafValues>
            -7.4915951490402222e-01 4.9778097867965698e-01</leafValues></_></weakClassifiers></_>
    <!-- stage 6 -->
    <_>
      <maxWeakCount>4</maxWeakCount>
      <stageThreshold>-4.1817152500152588e-01</stageThreshold>
      <weakClassifiers>
        <_>
          <internalNodes>
            0 -1 6 8.9803226292133331e-03</internalNodes>
          <leafValues>
            -6.1654132604598999e-01 8.5537189245223999e-01</leafValues></_>
        <_>
          <internalNodes>
            0 -1 15 3.0379658564925194e-03</internalNodes>
          <leafValues>
            -8.2740777730941772e-01 6.2596189975738525e-01</leafValues></_>
        <_>
          <internalNodes>
            0 -1 27 -1.2640095083042979e-03</internalNodes>
          <leafValues>
            5.4677027463912964e-01 -7.6572555303573608e-01</leafValues></_>
        <_>
          <internalNodes>
            0 -1 12 -4.1372011764906347e-05</internalNodes>
          <leafValues>
            -9.4687652587890625e-01 4.7900739312171936e-01</leafValues></_></weakClassifiers></_>
    <!-- stage 7 -->
    <_>
      <maxWeakCount>4</maxWeakCount>
      <stageThreshold>-2.1834850311279297e-01</stageThreshold>
      <weakClassifiers>
        <_>
          <internalNodes>
            0 -1 11 -1.9586592912673950e-02</internalNodes>
          <leafValues>
            8.0876493453979492e-01 -6.2903225421905518e-01</leafValues></_>
        <_>
          <internalNodes>
            0 -1 16 2.1243365481495857e-03</internalNodes>
          <leafValues>
            -9.2597210407257080e-01 5.9659159183502197e-01</leafValues></_>
        <_>
          <internalNodes>
            0 -1 23 -4.3050535023212433e-02</internalNodes>
          <leafValues>
            8.8818323612213135e-01 -5.7493013143539429e-01</leafValues></_>
        <_>
          <internalNodes>
            0 -1 22 -5.7095522060990334e-04</internalNodes>
          <leafValues>
            4.7378876805305481e-01 -9.5180690288543701e-01</leafValues></_></weakClassifiers></_>
    <!-- stage 8 -->
    <_>
      <maxWeakCount>6</maxWeakCount>
      <stageThreshold>-6.0087841749191284e-01</stageThreshold>
      <weakClassifiers>
        <_>
          <internalNodes>
            0 -1 17 -2.8042003512382507e-02</internalNodes>
          <leafValues>
            8.1288981437683105e-01 -5.2416354417800903e-01</leafValues></_>
        <_>
          <internalNodes>
            0 -1 30 2.2859233431518078e-03</internalNodes>
          <leafValues>
            -7.3326116800308228e-01 6.1128503084182739e-01</leafValues></_>
        <_>
          <internalNodes>
            0 -1 8 -1.6664793656673282e-04</internalNodes>
          <leafValues>
            3.5214281082153320e-01 -9.6866321563720703e-01</leafValues></_>
        <_>
          <internalNodes>
            0 -1 19 -1.9658639212138951e-04</internalNodes>
          <leafValues>
            -9.1016340255737305e-01 3.8637834787368774e-01</leafValues></_>
        <_>
          <internalNodes>
            0 -1 4 6.1490960419178009e-02</internalNodes>
          <leafValues>
            -4.8008263111114502e-01 7.9098510742187500e-01</leafValues></_>
        <_>
          <internalNodes>
            0 -1 31 1.3156228233128786e-03</internalNodes>
          <leafValues>
            3.9810776710510254e-01 -9.0059769153594971e-01</leafValues></_></weakClassifiers></_>
    <!-- stage 9 -->
    <_>
      <maxWeakCount>6</maxWeakCount>
      <stageThreshold>-1.0148630142211914e+00</stageThreshold>
      <weakClassifiers>
        <_>
          <internalNodes>
            0 -1 26 -3.7428280338644981e-03</internalNodes>
          <leafValues>
            -7.9661017656326294e-01 6.8237346410751343e-01</leafValues></_>
        <_>
          <internalNodes>
            0 -1 14 8.0152926966547966e-03</internalNodes>
          <leafValues>
            -6.9274395704269409e-01 6.4091694355010986e-01</leafValues></_>
        <_>
          <internalNodes>
            0 -1 21 -2.0322143100202084e-03</internalNodes>
          <leafValues>
            4.3399086594581604e-01 -9.3742120265960693e-01</leafValues></_>
        <_>
          <internalNodes>
            0 -1 7 3.7495564902201295e-04</internalNodes>
          <leafValues>
            -6.7343819141387939e-01 4.6473497152328491e-01</leafValues></_>
        <_>
          <internalNodes>
            0 -1 5 -4.9678133800625801e-03</internalNodes>
          <leafValues>
            -8.7828570604324341e-01 3.9269375801086426e-01</leafValues></_>
        <_>
          <internalNodes>
            0 -1 24 -1.4836127869784832e-02</internalNodes>
          <leafValues>
            -9.6297150850296021e-01 3.2124471664428711e-01</leafValues></_></weakClassifiers></_></stages>
  <features>
    <_>
      <rects>
        <_>
          0 0 2 6 -1.</_>
        <_>
          0 0 1 3 2.</_>
        <_>
          1 3 1 3 2.</_></rects>
      <tilted>0</tilted></_>
    <_>
      <rects>
        <_>
          0 0 2 8 -1.</_>
        <_>
          0 0 1 4 2.</_>
        <_>
          1 4 1 4 2.</_></rects>
      <tilted>0</tilted></_>
    <_>
      <rects>
        <_>
          0 0 16 22 -1.</_>
        <_>
          0 0 8 11 2.</_>
        <_>
          8 11 8 11 2.</_></rects>
      <tilted>0</tilted></_>
    <_>
      <rects>
        <_>
          1 28 39 3 -1.</_>
        <_>
          14 28 13 3 2.</_></rects>
      <tilted>0</tilted></_>
    <_>
      <rects>
        <_>
          2 2 22 12 -1.</_>
        <_>
          2 2 11 6 2.</_>
        <_>
          13 8 11 6 2.</_></rects>
      <tilted>0</tilted></_>
    <_>
      <rects>
        <_>
          2 17 23 14 -1.</_>
        <_>
          2 24 23 7 2.</_></rects>
      <tilted>0</tilted></_>
    <_>
      <rects>
        <_>
          5 19 6 10 -1.</_>
        <_>
          8 19 3 10 2.</_></rects>
      <tilted>0</tilted></_>
    <_>
      <rects>
        <_>
          5 22 4 1 -1.</_>
        <_>
          7 22 2 1 2.</_></rects>
      <tilted>0</tilted></_>
    <_>
      <rects>
        <_>
          6 25 6 4 -1.</_>
        <_>
          6 27 6 2 2.</_></rects>
      <tilted>0</tilted></_>
    <_>
      <rects>
        <_>
          7 10 10 10 -1.</_>
        <_>
          7 10 5 5 2.</_>
        <_>
          12 15 5 5 2.</_></rects>
      <tilted>0</tilted></_>
    <_>
      <rects>
        <_>
          7 21 4 9 -1.</_>
        <_>
          9 21 2 9 2.</_></rects>
      <tilted>0</tilted></_>
    <_>
      <rects>
        <_>
          8 8 10 16 -1.</_>
        <_>
          8 8 5 8 2.</_>
        <_>
          13 16 5 8 2.</_></rects>
      <tilted>0</tilted></_>
    <_>
      <rects>
        <_>
          8 16 4 4 -1.</_>
        <_>
          8 18 4 2 2.</_></rects>
      <tilted>0</tilted></_>
    <_>
      <rects>
        <_>
          8 20 14 5 -1.</_>
        <_>
          15 20 7 5 2.</_></rects>
      <tilted>0</tilted></_>
    <_>
      <rects>
        <_>
          10 6 9 6 -1.</_>
        <_>
          10 9 9 3 2.</_></rects>
      <tilted>0</tilted></_>
    <_>
      <rects>
        <_>
          10 7 12 4 -1.</_>
        <_>
          16 7 6 4 2.</_></rects>
      <tilted>0</tilted></_>
    <_>
      <rects>
        <_>
          10 30 10 6 -1.</_>
        <_>
          15 30 5 6 2.</_></rects>
      <tilted>0</tilted></_>
    <_>
      <rects>
        <_>
          11 29 18 8 -1.</_>
        <_>
          11 33 18 4 2.</_></rects>
      <tilted>0</tilted></_>
    <_>
      <rects>
        <_>
          13 6 17 6 -1.</_>
        <_>
          13 9 17 3 2.</_></rects>
      <tilted>0</tilted></_>
    <_>
      <rects>
        <_>
          13 23 3 6 -1.</_>
        <_>
          13 26 3 3 2.</_></rects>
      <tilted>0</tilted></_>
    <_>
      <rects>
        <_>
          13 29 14 8 -1.</_>
        <_>
          13 33 14 4 2.</_></rects>
      <tilted>0</tilted></_>
    <_>
      <rects>
        <_>
          15 11 18 16 -1.</_>
        <_>
          15 19 18 8 2.</_></rects>
      <tilted>0</tilted></_>
    <_>
      <rects>
        <_>
          15 24 20 10 -1.</_>
        <_>
          25 24 10 10 2.</_></rects>
      <tilted>0</tilted></_>
    <_>
      <rects>
        <_>
          16 4 24 8 -1.</_>
        <_>
          16 4 12 4 2.</_>
        <_>
          28 8 12 4 2.</_></rects>
      <tilted>0</tilted></_>
    <_>
      <rects>
        <_>
          16 6 16 30 -1.</_>
        <_>
          16 6 8 15 2.</_>
        <_>
          24 21 8 15 2.</_></rects>
      <tilted>0</tilted></_>
    <_>
      <rects>
        <_>
          17 5 9 6 -1.</_>
        <_>
          17 8 9 3 2.</_></rects>
      <tilted>0</tilted></_>
    <_>
      <rects>
        <_>
          18 15 20 8 -1.</_>
        <_>
          18 19 20 4 2.</_></rects>
      <tilted>0</tilted></_>
    <_>
      <rects>
        <_>
          18 27 18 4 -1.</_>
        <_>
          18 27 9 2 2.</_>
        <_>
          27 29 9 2 2.</_></rects>
      <tilted>0</tilted></_>
    <_>
      <rects>
        <_>
          20 4 16 10 -1.</_>
        <_>
          20 4 8 5 2.</_>
        <_>
          28 9 8 5 2.</_></rects>
      <tilted>0</tilted></_>
    <_>
      <rects>
        <_>
          21 19 6 14 -1.</_>
        <_>
          21 26 6 7 2.</_></rects>
      <tilted>0</tilted></_>
    <_>
      <rects>
        <_>
          23 11 12 6 -1.</_>
        <_>
          23 11 6 3 2.</_>
        <_>
          29 14 6 3 2.</_></rects>
      <tilted>0</tilted></_>
    <_>
      <rects>
        <_>
          23 18 7 6 -1.</_>
        <_>
          23 21 7 3 2.</_></rects>
      <tilted>0</tilted></_>
    <_>
      <rects>
        <_>
          26 9 2 6 -1.</_>
        <_>
          27 9 1 6 2.</_></rects>
      <tilted>0</tilted></_></features></cascade>
</opencv_storage>
