<?xml version="1.0"?>
<opencv_storage>
<cascade>
  <stageType>BOOST</stageType>
  <featureType>HAAR</featureType>
  <height>40</height>
  <width>40</width>
  <stageParams>
    <boostType>GAB</boostType>
    <minHitRate>9.9500000476837158e-01</minHitRate>
    <maxFalseAlarm>5.0000000000000000e-01</maxFalseAlarm>
    <weightTrimRate>9.4999999999999996e-01</weightTrimRate>
    <maxDepth>1</maxDepth>
    <maxWeakCount>100</maxWeakCount></stageParams>
  <featureParams>
    <maxCatCount>0</maxCatCount>
    <featSize>1</featSize>
    <mode>BASIC</mode></featureParams>
  <stageNum>10</stageNum>
  <stages>
    <!-- stage 0 -->
    <_>
      <maxWeakCount>1</maxWeakCount>
      <stageThreshold>1.</stageThreshold>
      <weakClassifiers>
        <_>
          <internalNodes>
            0 -1 1 6.2167253345251083e-03</internalNodes>
          <leafValues>
            1. -1.</leafValues></_></weakClassifiers></_>
    <!-- stage 1 -->
    <_>
      <maxWeakCount>1</maxWeakCount>
      <stageThreshold>1.</stageThreshold>
      <weakClassifiers>
        <_>
          <internalNodes>
            0 -1 2 1.4251461625099182e-01</internalNodes>
          <leafValues>
            1. -1.</leafValues></_></weakClassifiers></_>
    <!-- stage 2 -->
    <_>
      <maxWeakCount>1</maxWeakCount>
      <stageThreshold>1.</stageThreshold>
      <weakClassifiers>
        <_>
          <internalNodes>
            0 -1 0 -1.6287381295114756e-03</internalNodes>
          <leafValues>
            -1. 1.</leafValues></_></weakClassifiers></_>
    <!-- stage 3 -->
    <_>
      <maxWeakCount>3</maxWeakCount>
      <stageThreshold>-8.9205521345138550e-01</stageThreshold>
      <weakClassifiers>
        <_>
          <internalNodes>
            0 -1 11 -1.1286111548542976e-02</internalNodes>
          <leafValues>
            8.8145315647125244e-01 -9.2951542139053345e-01</leafValues></_>
        <_>
          <internalNodes>
            0 -1 22 2.7360104024410248e-02</internalNodes>
          <leafValues>
            -7.0898205041885376e-01 9.5268553495407104e-01</leafValues></_>
        <_>
          <internalNodes>
            0 -1 7 9.2794969677925110e-03</internalNodes>
          <leafValues>
            -9.0024334192276001e-01 7.4644225835800171e-01</leafValues></_></weakClassifiers></_>
    <!-- stage 4 -->
    <_>
      <maxWeakCount>3</maxWeakCount>
      <stageThreshold>-7.6358741521835327e-01</stageThreshold>
      <weakClassifiers>
        <_>
          <internalNodes>
            0 -1 25 1.4009475708007813e-02</internalNodes>
          <leafValues>
            -7.9574465751647949e-01 8.4854370355606079e-01</leafValues></_>
        <_>
          <internalNodes>
            0 -1 20 2.0839383359998465e-03</internalNodes>
          <leafValues>
            -7.9782348871231079e-01 7.6834309101104736e-01</leafValues></_>
        <_>
          <internalNodes>
            0 -1 5 8.1090740859508514e-03</internalNodes>
          <leafValues>
            -5.8436930179595947e-01 8.2998073101043701e-01</leafValues></_></weakClassifiers></_>
    <!-- stage 5 -->
    <_>
      <maxWeakCount>5</maxWeakCount>
      <stageThreshold>-1.1524382829666138e+00</stageThreshold>
      <weakClassifiers>
        <_>
          <internalNodes>
            0 -1 14 -2.3048644885420799e-02</internalNodes>
          <leafValues>
            8.6234819889068604e-01 -6.8750000000000000e-01</leafValues></_>
        <_>
          <internalNodes>
            0 -1 27 2.7029695920646191e-03</internalNodes>
          <leafValues>
            -7.2122544050216675e-01 7.3083001375198364e-01</leafValues></_>
        <_>
          <internalNodes>
            0 -1 12 -4.6421468257904053e-02</internalNodes>
          <leafValues>
            6.0996580123901367e-01 -6.6906034946441650e-01</leafValues></_>
        <_>
          <internalNodes>
            0 -1 18 -4.1232532821595669e-03</internalNodes>
          <leafValues>
            4.9517884850502014e-01 -8.3511430025100708e-01</leafValues></_>
        <_>
          <internalNodes>
            0 -1 3 4.3297363445162773e-03</internalNodes>
          <leafValues>
            -8.7860316038131714e-01 4.3016865849494934e-01</leafValues></_></weakClassifiers></_>
    <!-- stage 6 -->
    <_>
      <maxWeakCount>3</maxWeakCount>
      <stageThreshold>-4.9602690339088440e-01</stageThreshold>
      <weakClassifiers>
        <_>
          <internalNodes>
            0 -1 16 -1.6141636297106743e-02</internalNodes>
          <leafValues>
            8.7018257379531860e-01 -6.9649803638458252e-01</leafValues></_>
        <_>
          <internalNodes>
            0 -1 28 -1.7455952474847436e-03</internalNodes>
          <leafValues>
            7.1444821357727051e-01 -6.8219780921936035e-01</leafValues></_>
        <_>
          <internalNodes>
            0 -1 13 -2.0547589287161827e-02</internalNodes>
          <leafValues>
            8.8266897201538086e-01 -4.8489263653755188e-01</leafValues></_></weakClassifiers></_>
    <!-- stage 7 -->
    <_>
      <maxWeakCount>4</maxWeakCount>
      <stageThreshold>-1.2656877040863037e+00</stageThreshold>
      <weakClassifiers>
        <_>
          <internalNodes>
            0 -1 19 2.3676801472902298e-02</internalNodes>
          <leafValues>
            -5.6013745069503784e-01 8.9978212118148804e-01</leafValues></_>
        <_>
          <internalNodes>
            0 -1 9 -6.6186473704874516e-03</internalNodes>
          <leafValues>
            6.3061088323593140e-01 -9.1129219532012939e-01</leafValues></_>
        <_>
          <internalNodes>
            0 -1 26 -1.2091048061847687e-02</internalNodes>
          <leafValues>
            -6.4564532041549683e-01 7.1219569444656372e-01</leafValues></_>
        <_>
          <internalNodes>
            0 -1 4 6.8519301712512970e-03</internalNodes>
          <leafValues>
            -6.9051581621170044e-01 6.0665541887283325e-01</leafValues></_></weakClassifiers></_>
    <!-- stage 8 -->
    <_>
      <maxWeakCount>4</maxWeakCount>
      <stageThreshold>-4.1974249482154846e-01</stageThreshold>
      <weakClassifiers>
        <_>
          <internalNodes>
            0 -1 8 2.0136186853051186e-02</internalNodes>
          <leafValues>
            -8.3414632081985474e-01 7.7247709035873413e-01</leafValues></_>
        <_>
          <internalNodes>
            0 -1 23 2.6105508208274841e-02</internalNodes>
          <leafValues>
            -5.8953446149826050e-01 8.0472368001937866e-01</leafValues></_>
        <_>
          <internalNodes>
            0 -1 17 -6.3782779034227133e-04</internalNodes>
          <leafValues>
            5.2363187074661255e-01 -8.0262994766235352e-01</leafValues></_>
        <_>
          <internalNodes>
            0 -1 15 1.0846665827557445e-03</internalNodes>
          <leafValues>
            -7.6454150676727295e-01 4.8030641674995422e-01</leafValues></_></weakClassifiers></_>
    <!-- stage 9 -->
    <_>
      <maxWeakCount>4</maxWeakCount>
      <stageThreshold>-1.3793671131134033e+00</stageThreshold>
      <weakClassifiers>
        <_>
          <internalNodes>
            0 -1 24 2.7685547247529030e-02</internalNodes>
          <leafValues>
            -7.0370370149612427e-01 7.5280898809432983e-01</leafValues></_>
        <_>
          <internalNodes>
            0 -1 6 -3.0777819454669952e-02</internalNodes>
          <leafValues>
            8.7586528062820435e-01 -5.0468009710311890e-01</leafValues></_>
        <_>
          <internalNodes>
            0 -1 21 5.5419339332729578e-04</internalNodes>
          <leafValues>
            -7.9598617553710938e-01 5.6112414598464966e-01</leafValues></_>
        <_>
          <internalNodes>
            0 -1 10 3.0769514851272106e-03</internalNodes>
          <leafValues>
            -8.3150976896286011e-01 4.1063758730888367e-01</leafValues></_></weakClassifiers></_></stages>
  <features>
    <_>
      <rects>
        <_>
          0 0 2 2 -1.</_>
        <_>
          0 0 1 1 2.</_>
        <_>
          1 1 1 1 2.</_></rects>
      <tilted>0</tilted></_>
    <_>
      <rects>
        <_>
          0 0 2 8 -1.</_>
        <_>
          0 0 1 4 2.</_>
        <_>
          1 4 1 4 2.</_></rects>
      <tilted>0</tilted></_>
    <_>
      <rects>
        <_>
          0 1 20 10 -1.</_>
        <_>
          10 1 10 10 2.</_></rects>
      <tilted>0</tilted></_>
    <_>
      <rects>
        <_>
          0 22 18 10 -1.</_>
        <_>
          0 22 9 5 2.</_>
        <_>
          9 27 9 5 2.</_></rects>
      <tilted>0</tilted></_>
    <_>
      <rects>
        <_>
          5 29 8 7 -1.</_>
        <_>
          9 29 4 7 2.</_></rects>
      <tilted>0</tilted></_>
    <_>
      <rects>
        <_>
          6 28 8 5 -1.</_>
        <_>
          10 28 4 5 2.</_></rects>
      <tilted>0</tilted></_>
    <_>
      <rects>
        <_>
          7 32 27 6 -1.</_>
        <_>
          7 35 27 3 2.</_></rects>
      <tilted>0</tilted></_>
    <_>
      <rects>
        <_>
          8 21 16 14 -1.</_>
        <_>
          8 28 16 7 2.</_></rects>
      <tilted>0</tilted></_>
    <_>
      <rects>
        <_>
          9 22 14 12 -1.</_>
        <_>
          9 28 14 6 2.</_></rects>
      <tilted>0</tilted></_>
    <_>
      <rects>
        <_>
          10 22 14 5 -1.</_>
        <_>
          17 22 7 5 2.</_></rects>
      <tilted>0</tilted></_>
    <_>
      <rects>
        <_>
          10 23 6 8 -1.</_>
        <_>
          10 27 6 4 2.</_></rects>
      <tilted>0</tilted></_>
    <_>
      <rects>
        <_>
          11 23 12 7 -1.</_>
        <_>
          17 23 6 7 2.</_></rects>
      <tilted>0</tilted></_>
    <_>
      <rects>
        <_>
          11 28 21 3 -1.</_>
        <_>
          18 28 7 3 2.</_></rects>
      <tilted>0</tilted></_>
    <_>
      <rects>
        <_>
          11 32 15 6 -1.</_>
        <_>
          11 35 15 3 2.</_></rects>
      <tilted>0</tilted></_>
    <_>
      <rects>
        <_>
          12 11 10 18 -1.</_>
        <_>
          12 11 5 9 2.</_>
        <_>
          17 20 5 9 2.</_></rects>
      <tilted>0</tilted></_>
    <_>
      <rects>
        <_>
          12 12 4 18 -1.</_>
        <_>
          12 21 4 9 2.</_></rects>
      <tilted>0</tilted></_>
    <_>
      <rects>
        <_>
          13 23 8 8 -1.</_>
        <_>
          17 23 4 8 2.</_></rects>
      <tilted>0</tilted></_>
    <_>
      <rects>
        <_>
          15 17 9 2 -1.</_>
        <_>
          15 18 9 1 2.</_></rects>
      <tilted>0</tilted></_>
    <_>
      <rects>
        <_>
          17 15 12 6 -1.</_>
        <_>
          17 18 12 3 2.</_></rects>
      <tilted>0</tilted></_>
    <_>
      <rects>
        <_>
          18 11 10 14 -1.</_>
        <_>
          18 11 5 7 2.</_>
        <_>
          23 18 5 7 2.</_></rects>
      <tilted>0</tilted></_>
    <_>
      <rects>
        <_>
          19 8 4 8 -1.</_>
        <_>
          19 12 4 4 2.</_></rects>
      <tilted>0</tilted></_>
    <_>
      <rects>
        <_>
          19 9 3 4 -1.</_>
        <_>
          19 11 3 2 2.</_></rects>
      <tilted>0</tilted></_>
    <_>
      <rects>
        <_>
          19 10 10 18 -1.</_>
        <_>
          19 10 5 9 2.</_>
        <_>
          24 19 5 9 2.</_></rects>
      <tilted>0</tilted></_>
    <_>
      <rects>
        <_>
          19 13 10 14 -1.</_>
        <_>
          19 13 5 7 2.</_>
        <_>
          24 20 5 7 2.</_></rects>
      <tilted>0</tilted></_>
    <_>
      <rects>
        <_>
          19 20 10 12 -1.</_>
        <_>
          24 20 5 12 2.</_></rects>
      <tilted>0</tilted></_>
    <_>
      <rects>
        <_>
          20 20 8 10 -1.</_>
        <_>
          24 20 4 10 2.</_></rects>
      <tilted>0</tilted></_>
    <_>
      <rects>
        <_>
          21 7 2 18 -1.</_>
        <_>
          21 13 2 6 2.</_></rects>
      <tilted>0</tilted></_>
    <_>
      <rects>
        <_>
          28 30 8 10 -1.</_>
        <_>
          28 30 4 5 2.</_>
        <_>
          32 35 4 5 2.</_></rects>
      <tilted>0</tilted></_>
    <_>
      <rects>
        <_>
          29 26 4 10 -1.</_>
        <_>
          31 26 2 10 2.</_></rects>
      <tilted>0</tilted></_></features></cascade>
</opencv_storage>
