<?xml version="1.0"?>
<opencv_storage>
<cascade>
  <stageType>BOOST</stageType>
  <featureType>HAAR</featureType>
  <height>40</height>
  <width>40</width>
  <stageParams>
    <boostType>GAB</boostType>
    <minHitRate>9.9500000476837158e-01</minHitRate>
    <maxFalseAlarm>5.0000000000000000e-01</maxFalseAlarm>
    <weightTrimRate>9.4999999999999996e-01</weightTrimRate>
    <maxDepth>1</maxDepth>
    <maxWeakCount>100</maxWeakCount></stageParams>
  <featureParams>
    <maxCatCount>0</maxCatCount>
    <featSize>1</featSize>
    <mode>BASIC</mode></featureParams>
  <stageNum>10</stageNum>
  <stages>
    <!-- stage 0 -->
    <_>
      <maxWeakCount>1</maxWeakCount>
      <stageThreshold>1.</stageThreshold>
      <weakClassifiers>
        <_>
          <internalNodes>
            0 -1 1 -1.9824516493827105e-03</internalNodes>
          <leafValues>
            -1. 1.</leafValues></_></weakClassifiers></_>
    <!-- stage 1 -->
    <_>
      <maxWeakCount>1</maxWeakCount>
      <stageThreshold>1.</stageThreshold>
      <weakClassifiers>
        <_>
          <internalNodes>
            0 -1 1 -1.6577801434323192e-03</internalNodes>
          <leafValues>
            -1. 1.</leafValues></_></weakClassifiers></_>
    <!-- stage 2 -->
    <_>
      <maxWeakCount>1</maxWeakCount>
      <stageThreshold>1.</stageThreshold>
      <weakClassifiers>
        <_>
          <internalNodes>
            0 -1 0 -1.7543465364724398e-03</internalNodes>
          <leafValues>
            -1. 1.</leafValues></_></weakClassifiers></_>
    <!-- stage 3 -->
    <_>
      <maxWeakCount>2</maxWeakCount>
      <stageThreshold>-6.4744263887405396e-02</stageThreshold>
      <weakClassifiers>
        <_>
          <internalNodes>
            0 -1 18 -2.3171912878751755e-02</internalNodes>
          <leafValues>
            9.0769231319427490e-01 -9.3220341205596924e-01</leafValues></_>
        <_>
          <internalNodes>
            0 -1 14 6.7599140107631683e-02</internalNodes>
          <leafValues>
            -9.4528150558471680e-01 8.6745911836624146e-01</leafValues></_></weakClassifiers></_>
    <!-- stage 4 -->
    <_>
      <maxWeakCount>2</maxWeakCount>
      <stageThreshold>-9.9603734910488129e-02</stageThreshold>
      <weakClassifiers>
        <_>
          <internalNodes>
            0 -1 21 -1.9068691879510880e-02</internalNodes>
          <leafValues>
            8.1280785799026489e-01 -8.7577641010284424e-01</leafValues></_>
        <_>
          <internalNodes>
            0 -1 11 1.3552543707191944e-02</internalNodes>
          <leafValues>
            -8.8077813386917114e-01 7.7617263793945313e-01</leafValues></_></weakClassifiers></_>
    <!-- stage 5 -->
    <_>
      <maxWeakCount>2</maxWeakCount>
      <stageThreshold>-1.1522873491048813e-01</stageThreshold>
      <weakClassifiers>
        <_>
          <internalNodes>
            0 -1 13 -3.5855837166309357e-02</internalNodes>
          <leafValues>
            8.1407034397125244e-01 -7.9881656169891357e-01</leafValues></_>
        <_>
          <internalNodes>
            0 -1 6 3.6847285926342010e-02</internalNodes>
          <leafValues>
            -8.6490738391876221e-01 6.8358784914016724e-01</leafValues></_></weakClassifiers></_>
    <!-- stage 6 -->
    <_>
      <maxWeakCount>4</maxWeakCount>
      <stageThreshold>-1.2760677933692932e-01</stageThreshold>
      <weakClassifiers>
        <_>
          <internalNodes>
            0 -1 3 -3.7326719611883163e-03</internalNodes>
          <leafValues>
            8.3684211969375610e-01 -6.8983960151672363e-01</leafValues></_>
        <_>
          <internalNodes>
            0 -1 22 6.5147673012688756e-04</internalNodes>
          <leafValues>
            -7.3550021648406982e-01 7.2100287675857544e-01</leafValues></_>
        <_>
          <internalNodes>
            0 -1 4 -5.3735632449388504e-02</internalNodes>
          <leafValues>
            6.2598258256912231e-01 -8.1347316503524780e-01</leafValues></_>
        <_>
          <internalNodes>
            0 -1 9 2.3446287959814072e-03</internalNodes>
          <leafValues>
            -7.5798094272613525e-01 6.7175042629241943e-01</leafValues></_></weakClassifiers></_>
    <!-- stage 7 -->
    <_>
      <maxWeakCount>3</maxWeakCount>
      <stageThreshold>-9.2231839895248413e-01</stageThreshold>
      <weakClassifiers>
        <_>
          <internalNodes>
            0 -1 7 1.7867162823677063e-02</internalNodes>
          <leafValues>
            -9.2187500000000000e-01 6.9931662082672119e-01</leafValues></_>
        <_>
          <internalNodes>
            0 -1 20 -4.0074825286865234e-02</internalNodes>
          <leafValues>
            5.9293437004089355e-01 -8.6162227392196655e-01</leafValues></_>
        <_>
          <internalNodes>
            0 -1 8 3.4211839083582163e-03</internalNodes>
          <leafValues>
            -7.6001274585723877e-01 6.7878502607345581e-01</leafValues></_></weakClassifiers></_>
    <!-- stage 8 -->
    <_>
      <maxWeakCount>4</maxWeakCount>
      <stageThreshold>-8.8655523955821991e-02</stageThreshold>
      <weakClassifiers>
        <_>
          <internalNodes>
            0 -1 10 -1.1444417759776115e-02</internalNodes>
          <leafValues>
            6.6741573810577393e-01 -8.8524591922760010e-01</leafValues></_>
        <_>
          <internalNodes>
            0 -1 2 -9.9869845435023308e-03</internalNodes>
          <leafValues>
            7.8071916103363037e-01 -4.9406969547271729e-01</leafValues></_>
        <_>
          <internalNodes>
            0 -1 17 1.7759434878826141e-02</internalNodes>
          <leafValues>
            -4.9352154135704041e-01 8.6693614721298218e-01</leafValues></_>
        <_>
          <internalNodes>
            0 -1 16 1.0104265529662371e-03</internalNodes>
          <leafValues>
            5.0939273834228516e-01 -9.0147715806961060e-01</leafValues></_></weakClassifiers></_>
    <!-- stage 9 -->
    <_>
      <maxWeakCount>4</maxWeakCount>
      <stageThreshold>-2.6926568150520325e-01</stageThreshold>
      <weakClassifiers>
        <_>
          <internalNodes>
            0 -1 5 -4.8860985785722733e-02</internalNodes>
          <leafValues>
            8.0736541748046875e-01 -4.4859811663627625e-01</leafValues></_>
        <_>
          <internalNodes>
            0 -1 19 -5.1546212285757065e-02</internalNodes>
          <leafValues>
            6.4178019762039185e-01 -6.4441114664077759e-01</leafValues></_>
        <_>
          <internalNodes>
            0 -1 15 -1.0513931047171354e-03</internalNodes>
          <leafValues>
            -8.2709980010986328e-01 4.2748576402664185e-01</leafValues></_>
        <_>
          <internalNodes>
            0 -1 12 -1.0548532009124756e-04</internalNodes>
          <leafValues>
            3.9725446701049805e-01 -8.5970574617385864e-01</leafValues></_></weakClassifiers></_></stages>
  <features>
    <_>
      <rects>
        <_>
          0 0 2 2 -1.</_>
        <_>
          0 0 1 1 2.</_>
        <_>
          1 1 1 1 2.</_></rects>
      <tilted>0</tilted></_>
    <_>
      <rects>
        <_>
          0 0 2 4 -1.</_>
        <_>
          0 0 1 2 2.</_>
        <_>
          1 2 1 2 2.</_></rects>
      <tilted>0</tilted></_>
    <_>
      <rects>
        <_>
          1 9 6 17 -1.</_>
        <_>
          4 9 3 17 2.</_></rects>
      <tilted>0</tilted></_>
    <_>
      <rects>
        <_>
          1 25 18 6 -1.</_>
        <_>
          10 25 9 6 2.</_></rects>
      <tilted>0</tilted></_>
    <_>
      <rects>
        <_>
          3 12 20 26 -1.</_>
        <_>
          3 12 10 13 2.</_>
        <_>
          13 25 10 13 2.</_></rects>
      <tilted>0</tilted></_>
    <_>
      <rects>
        <_>
          3 13 14 24 -1.</_>
        <_>
          3 13 7 12 2.</_>
        <_>
          10 25 7 12 2.</_></rects>
      <tilted>0</tilted></_>
    <_>
      <rects>
        <_>
          4 4 24 20 -1.</_>
        <_>
          4 4 12 10 2.</_>
        <_>
          16 14 12 10 2.</_></rects>
      <tilted>0</tilted></_>
    <_>
      <rects>
        <_>
          7 26 32 6 -1.</_>
        <_>
          23 26 16 6 2.</_></rects>
      <tilted>0</tilted></_>
    <_>
      <rects>
        <_>
          9 11 13 4 -1.</_>
        <_>
          9 13 13 2 2.</_></rects>
      <tilted>0</tilted></_>
    <_>
      <rects>
        <_>
          10 33 13 6 -1.</_>
        <_>
          10 36 13 3 2.</_></rects>
      <tilted>0</tilted></_>
    <_>
      <rects>
        <_>
          11 6 18 10 -1.</_>
        <_>
          20 6 9 10 2.</_></rects>
      <tilted>0</tilted></_>
    <_>
      <rects>
        <_>
          11 13 18 14 -1.</_>
        <_>
          11 13 9 7 2.</_>
        <_>
          20 20 9 7 2.</_></rects>
      <tilted>0</tilted></_>
    <_>
      <rects>
        <_>
          11 20 4 8 -1.</_>
        <_>
          11 20 2 4 2.</_>
        <_>
          13 24 2 4 2.</_></rects>
      <tilted>0</tilted></_>
    <_>
      <rects>
        <_>
          12 5 26 12 -1.</_>
        <_>
          12 5 13 6 2.</_>
        <_>
          25 11 13 6 2.</_></rects>
      <tilted>0</tilted></_>
    <_>
      <rects>
        <_>
          12 13 26 26 -1.</_>
        <_>
          12 13 13 13 2.</_>
        <_>
          25 26 13 13 2.</_></rects>
      <tilted>0</tilted></_>
    <_>
      <rects>
        <_>
          13 26 10 4 -1.</_>
        <_>
          13 26 5 2 2.</_>
        <_>
          18 28 5 2 2.</_></rects>
      <tilted>0</tilted></_>
    <_>
      <rects>
        <_>
          14 29 6 10 -1.</_>
        <_>
          17 29 3 10 2.</_></rects>
      <tilted>0</tilted></_>
    <_>
      <rects>
        <_>
          18 14 14 8 -1.</_>
        <_>
          18 14 7 4 2.</_>
        <_>
          25 18 7 4 2.</_></rects>
      <tilted>0</tilted></_>
    <_>
      <rects>
        <_>
          21 4 14 16 -1.</_>
        <_>
          21 4 7 8 2.</_>
        <_>
          28 12 7 8 2.</_></rects>
      <tilted>0</tilted></_>
    <_>
      <rects>
        <_>
          23 4 14 20 -1.</_>
        <_>
          23 4 7 10 2.</_>
        <_>
          30 14 7 10 2.</_></rects>
      <tilted>0</tilted></_>
    <_>
      <rects>
        <_>
          23 5 14 20 -1.</_>
        <_>
          23 5 7 10 2.</_>
        <_>
          30 15 7 10 2.</_></rects>
      <tilted>0</tilted></_>
    <_>
      <rects>
        <_>
          23 9 16 12 -1.</_>
        <_>
          23 9 8 6 2.</_>
        <_>
          31 15 8 6 2.</_></rects>
      <tilted>0</tilted></_>
    <_>
      <rects>
        <_>
          30 13 10 1 -1.</_>
        <_>
          35 13 5 1 2.</_></rects>
      <tilted>0</tilted></_></features></cascade>
</opencv_storage>
