<?xml version="1.0"?>
<opencv_storage>
<stage5>
  <maxWeakCount>5</maxWeakCount>
  <stageThreshold>-1.2344965934753418e+00</stageThreshold>
  <weakClassifiers>
    <_>
      <internalNodes>
        0 -1 645407 1.0191332548856735e-02</internalNodes>
      <leafValues>
        -8.7640452384948730e-01 7.7999997138977051e-01</leafValues></_>
    <_>
      <internalNodes>
        0 -1 958037 3.0266806483268738e-02</internalNodes>
      <leafValues>
        -8.0451017618179321e-01 7.6450020074844360e-01</leafValues></_>
    <_>
      <internalNodes>
        0 -1 1199456 -7.7273342758417130e-03</internalNodes>
      <leafValues>
        8.3007740974426270e-01 -6.4456844329833984e-01</leafValues></_>
    <_>
      <internalNodes>
        0 -1 1051336 2.5228710728697479e-04</internalNodes>
      <leafValues>
        -9.3211084604263306e-01 5.4572725296020508e-01</leafValues></_>
    <_>
      <internalNodes>
        0 -1 925183 -1.9808099605143070e-03</internalNodes>
      <leafValues>
        5.4525923728942871e-01 -8.8160651922225952e-01</leafValues></_></weakClassifiers></stage5>
</opencv_storage>
