<?xml version="1.0"?>
<opencv_storage>
<cascade>
  <stageType>BOOST</stageType>
  <featureType>HAAR</featureType>
  <height>40</height>
  <width>40</width>
  <stageParams>
    <boostType>GAB</boostType>
    <minHitRate>9.9500000476837158e-01</minHitRate>
    <maxFalseAlarm>5.0000000000000000e-01</maxFalseAlarm>
    <weightTrimRate>9.4999999999999996e-01</weightTrimRate>
    <maxDepth>1</maxDepth>
    <maxWeakCount>100</maxWeakCount></stageParams>
  <featureParams>
    <maxCatCount>0</maxCatCount>
    <featSize>1</featSize>
    <mode>BASIC</mode></featureParams>
  <stageNum>10</stageNum>
  <stages>
    <!-- stage 0 -->
    <_>
      <maxWeakCount>1</maxWeakCount>
      <stageThreshold>1.</stageThreshold>
      <weakClassifiers>
        <_>
          <internalNodes>
            0 -1 1 -2.0845341496169567e-03</internalNodes>
          <leafValues>
            -1. 1.</leafValues></_></weakClassifiers></_>
    <!-- stage 1 -->
    <_>
      <maxWeakCount>1</maxWeakCount>
      <stageThreshold>1.</stageThreshold>
      <weakClassifiers>
        <_>
          <internalNodes>
            0 -1 1 -1.7598627600818872e-03</internalNodes>
          <leafValues>
            -1. 1.</leafValues></_></weakClassifiers></_>
    <!-- stage 2 -->
    <_>
      <maxWeakCount>1</maxWeakCount>
      <stageThreshold>1.</stageThreshold>
      <weakClassifiers>
        <_>
          <internalNodes>
            0 -1 0 -1.3670085463672876e-03</internalNodes>
          <leafValues>
            -1. 1.</leafValues></_></weakClassifiers></_>
    <!-- stage 3 -->
    <_>
      <maxWeakCount>2</maxWeakCount>
      <stageThreshold>-4.4986311346292496e-02</stageThreshold>
      <weakClassifiers>
        <_>
          <internalNodes>
            0 -1 5 1.5861906111240387e-02</internalNodes>
          <leafValues>
            -9.7752809524536133e-01 9.3814432621002197e-01</leafValues></_>
        <_>
          <internalNodes>
            0 -1 17 -1.1295184493064880e-02</internalNodes>
          <leafValues>
            9.3254178762435913e-01 -9.6639990806579590e-01</leafValues></_></weakClassifiers></_>
    <!-- stage 4 -->
    <_>
      <maxWeakCount>2</maxWeakCount>
      <stageThreshold>-6.4892522990703583e-02</stageThreshold>
      <weakClassifiers>
        <_>
          <internalNodes>
            0 -1 6 1.7047744244337082e-02</internalNodes>
          <leafValues>
            -9.7777777910232544e-01 9.4818651676177979e-01</leafValues></_>
        <_>
          <internalNodes>
            0 -1 9 3.1068859621882439e-02</internalNodes>
          <leafValues>
            -9.4735723733901978e-01 9.1288524866104126e-01</leafValues></_></weakClassifiers></_>
    <!-- stage 5 -->
    <_>
      <maxWeakCount>3</maxWeakCount>
      <stageThreshold>-8.4035629034042358e-01</stageThreshold>
      <weakClassifiers>
        <_>
          <internalNodes>
            0 -1 4 1.8798103556036949e-02</internalNodes>
          <leafValues>
            -9.1111111640930176e-01 9.1709846258163452e-01</leafValues></_>
        <_>
          <internalNodes>
            0 -1 2 -2.2547016851603985e-03</internalNodes>
          <leafValues>
            9.1980677843093872e-01 -7.6370310783386230e-01</leafValues></_>
        <_>
          <internalNodes>
            0 -1 11 5.1876725628972054e-03</internalNodes>
          <leafValues>
            -8.4905195236206055e-01 8.3744263648986816e-01</leafValues></_></weakClassifiers></_>
    <!-- stage 6 -->
    <_>
      <maxWeakCount>2</maxWeakCount>
      <stageThreshold>4.6558897010982037e-03</stageThreshold>
      <weakClassifiers>
        <_>
          <internalNodes>
            0 -1 10 -1.6299024224281311e-02</internalNodes>
          <leafValues>
            -8.7096774578094482e-01 9.2631578445434570e-01</leafValues></_>
        <_>
          <internalNodes>
            0 -1 18 -3.6342968232929707e-03</internalNodes>
          <leafValues>
            8.7562364339828491e-01 -8.2202088832855225e-01</leafValues></_></weakClassifiers></_>
    <!-- stage 7 -->
    <_>
      <maxWeakCount>2</maxWeakCount>
      <stageThreshold>-1.9464722275733948e-01</stageThreshold>
      <weakClassifiers>
        <_>
          <internalNodes>
            0 -1 13 1.5161832794547081e-02</internalNodes>
          <leafValues>
            -9.2500001192092896e-01 8.3251231908798218e-01</leafValues></_>
        <_>
          <internalNodes>
            0 -1 8 -2.4502348154783249e-02</internalNodes>
          <leafValues>
            7.3035275936126709e-01 -9.8455798625946045e-01</leafValues></_></weakClassifiers></_>
    <!-- stage 8 -->
    <_>
      <maxWeakCount>4</maxWeakCount>
      <stageThreshold>-2.3227915167808533e-01</stageThreshold>
      <weakClassifiers>
        <_>
          <internalNodes>
            0 -1 14 4.6753678470849991e-03</internalNodes>
          <leafValues>
            -7.2916668653488159e-01 8.8235294818878174e-01</leafValues></_>
        <_>
          <internalNodes>
            0 -1 12 2.5309398770332336e-03</internalNodes>
          <leafValues>
            -9.2068874835968018e-01 7.1250528097152710e-01</leafValues></_>
        <_>
          <internalNodes>
            0 -1 16 -7.6807942241430283e-03</internalNodes>
          <leafValues>
            6.1633199453353882e-01 -9.2411804199218750e-01</leafValues></_>
        <_>
          <internalNodes>
            0 -1 20 -1.7558474792167544e-03</internalNodes>
          <leafValues>
            8.0124425888061523e-01 -7.4187183380126953e-01</leafValues></_></weakClassifiers></_>
    <!-- stage 9 -->
    <_>
      <maxWeakCount>4</maxWeakCount>
      <stageThreshold>-2.2632630169391632e-01</stageThreshold>
      <weakClassifiers>
        <_>
          <internalNodes>
            0 -1 3 3.1279943883419037e-02</internalNodes>
          <leafValues>
            -7.8260868787765503e-01 8.7434554100036621e-01</leafValues></_>
        <_>
          <internalNodes>
            0 -1 15 1.7944633960723877e-02</internalNodes>
          <leafValues>
            -8.0293506383895874e-01 7.8371572494506836e-01</leafValues></_>
        <_>
          <internalNodes>
            0 -1 7 5.4517714306712151e-03</internalNodes>
          <leafValues>
            -7.8462332487106323e-01 6.9647878408432007e-01</leafValues></_>
        <_>
          <internalNodes>
            0 -1 19 -2.8204643167555332e-03</internalNodes>
          <leafValues>
            6.6273868083953857e-01 -8.9910334348678589e-01</leafValues></_></weakClassifiers></_></stages>
  <features>
    <_>
      <rects>
        <_>
          0 0 2 2 -1.</_>
        <_>
          0 0 1 1 2.</_>
        <_>
          1 1 1 1 2.</_></rects>
      <tilted>0</tilted></_>
    <_>
      <rects>
        <_>
          0 0 2 4 -1.</_>
        <_>
          0 0 1 2 2.</_>
        <_>
          1 2 1 2 2.</_></rects>
      <tilted>0</tilted></_>
    <_>
      <rects>
        <_>
          2 8 16 1 -1.</_>
        <_>
          10 8 8 1 2.</_></rects>
      <tilted>0</tilted></_>
    <_>
      <rects>
        <_>
          3 6 10 22 -1.</_>
        <_>
          3 6 5 11 2.</_>
        <_>
          8 17 5 11 2.</_></rects>
      <tilted>0</tilted></_>
    <_>
      <rects>
        <_>
          4 7 8 22 -1.</_>
        <_>
          4 7 4 11 2.</_>
        <_>
          8 18 4 11 2.</_></rects>
      <tilted>0</tilted></_>
    <_>
      <rects>
        <_>
          5 5 24 8 -1.</_>
        <_>
          5 5 12 4 2.</_>
        <_>
          17 9 12 4 2.</_></rects>
      <tilted>0</tilted></_>
    <_>
      <rects>
        <_>
          7 16 15 10 -1.</_>
        <_>
          7 21 15 5 2.</_></rects>
      <tilted>0</tilted></_>
    <_>
      <rects>
        <_>
          8 5 4 26 -1.</_>
        <_>
          8 5 2 13 2.</_>
        <_>
          10 18 2 13 2.</_></rects>
      <tilted>0</tilted></_>
    <_>
      <rects>
        <_>
          8 23 32 5 -1.</_>
        <_>
          24 23 16 5 2.</_></rects>
      <tilted>0</tilted></_>
    <_>
      <rects>
        <_>
          11 25 28 12 -1.</_>
        <_>
          11 25 14 6 2.</_>
        <_>
          25 31 14 6 2.</_></rects>
      <tilted>0</tilted></_>
    <_>
      <rects>
        <_>
          12 10 24 3 -1.</_>
        <_>
          20 10 8 3 2.</_></rects>
      <tilted>0</tilted></_>
    <_>
      <rects>
        <_>
          16 32 12 3 -1.</_>
        <_>
          22 32 6 3 2.</_></rects>
      <tilted>0</tilted></_>
    <_>
      <rects>
        <_>
          18 7 13 4 -1.</_>
        <_>
          18 9 13 2 2.</_></rects>
      <tilted>0</tilted></_>
    <_>
      <rects>
        <_>
          18 13 8 19 -1.</_>
        <_>
          22 13 4 19 2.</_></rects>
      <tilted>0</tilted></_>
    <_>
      <rects>
        <_>
          18 20 4 6 -1.</_>
        <_>
          18 23 4 3 2.</_></rects>
      <tilted>0</tilted></_>
    <_>
      <rects>
        <_>
          19 2 6 32 -1.</_>
        <_>
          22 2 3 32 2.</_></rects>
      <tilted>0</tilted></_>
    <_>
      <rects>
        <_>
          20 25 16 2 -1.</_>
        <_>
          28 25 8 2 2.</_></rects>
      <tilted>0</tilted></_>
    <_>
      <rects>
        <_>
          24 8 8 12 -1.</_>
        <_>
          28 8 4 12 2.</_></rects>
      <tilted>0</tilted></_>
    <_>
      <rects>
        <_>
          26 5 8 6 -1.</_>
        <_>
          26 5 4 3 2.</_>
        <_>
          30 8 4 3 2.</_></rects>
      <tilted>0</tilted></_>
    <_>
      <rects>
        <_>
          27 10 3 12 -1.</_>
        <_>
          27 16 3 6 2.</_></rects>
      <tilted>0</tilted></_>
    <_>
      <rects>
        <_>
          28 3 3 6 -1.</_>
        <_>
          28 6 3 3 2.</_></rects>
      <tilted>0</tilted></_></features></cascade>
</opencv_storage>
