<?xml version="1.0"?>
<opencv_storage>
<cascade>
  <stageType>BOOST</stageType>
  <featureType>HAAR</featureType>
  <height>40</height>
  <width>40</width>
  <stageParams>
    <boostType>GAB</boostType>
    <minHitRate>9.9500000476837158e-01</minHitRate>
    <maxFalseAlarm>5.0000000000000000e-01</maxFalseAlarm>
    <weightTrimRate>9.4999999999999996e-01</weightTrimRate>
    <maxDepth>1</maxDepth>
    <maxWeakCount>100</maxWeakCount></stageParams>
  <featureParams>
    <maxCatCount>0</maxCatCount>
    <featSize>1</featSize>
    <mode>BASIC</mode></featureParams>
  <stageNum>9</stageNum>
  <stages>
    <!-- stage 0 -->
    <_>
      <maxWeakCount>1</maxWeakCount>
      <stageThreshold>1.</stageThreshold>
      <weakClassifiers>
        <_>
          <internalNodes>
            0 -1 2 -1.8893434898927808e-03</internalNodes>
          <leafValues>
            -1. 1.</leafValues></_></weakClassifiers></_>
    <!-- stage 1 -->
    <_>
      <maxWeakCount>1</maxWeakCount>
      <stageThreshold>1.</stageThreshold>
      <weakClassifiers>
        <_>
          <internalNodes>
            0 -1 1 -1.3405428035184741e-03</internalNodes>
          <leafValues>
            -1. 1.</leafValues></_></weakClassifiers></_>
    <!-- stage 2 -->
    <_>
      <maxWeakCount>1</maxWeakCount>
      <stageThreshold>1.</stageThreshold>
      <weakClassifiers>
        <_>
          <internalNodes>
            0 -1 0 -8.0120883649215102e-04</internalNodes>
          <leafValues>
            -1. 1.</leafValues></_></weakClassifiers></_>
    <!-- stage 3 -->
    <_>
      <maxWeakCount>2</maxWeakCount>
      <stageThreshold>5.9138312935829163e-03</stageThreshold>
      <weakClassifiers>
        <_>
          <internalNodes>
            0 -1 5 -2.8757864609360695e-02</internalNodes>
          <leafValues>
            9.7122299671173096e-01 -7.2455090284347534e-01</leafValues></_>
        <_>
          <internalNodes>
            0 -1 8 -4.8434203490614891e-03</internalNodes>
          <leafValues>
            8.0742418766021729e-01 -9.6530920267105103e-01</leafValues></_></weakClassifiers></_>
    <!-- stage 4 -->
    <_>
      <maxWeakCount>2</maxWeakCount>
      <stageThreshold>8.5253931581974030e-02</stageThreshold>
      <weakClassifiers>
        <_>
          <internalNodes>
            0 -1 9 1.4432134106755257e-02</internalNodes>
          <leafValues>
            -6.8421053886413574e-01 9.7080290317535400e-01</leafValues></_>
        <_>
          <internalNodes>
            0 -1 3 2.4548890069127083e-03</internalNodes>
          <leafValues>
            -1. 7.6946443319320679e-01</leafValues></_></weakClassifiers></_>
    <!-- stage 5 -->
    <_>
      <maxWeakCount>2</maxWeakCount>
      <stageThreshold>4.6871215105056763e-02</stageThreshold>
      <weakClassifiers>
        <_>
          <internalNodes>
            0 -1 14 -7.8154951333999634e-03</internalNodes>
          <leafValues>
            9.8540145158767700e-01 -7.0760232210159302e-01</leafValues></_>
        <_>
          <internalNodes>
            0 -1 7 2.0707624498754740e-03</internalNodes>
          <leafValues>
            7.8146570920944214e-01 -9.3853026628494263e-01</leafValues></_></weakClassifiers></_>
    <!-- stage 6 -->
    <_>
      <maxWeakCount>3</maxWeakCount>
      <stageThreshold>-7.1246963739395142e-01</stageThreshold>
      <weakClassifiers>
        <_>
          <internalNodes>
            0 -1 10 9.4249956309795380e-03</internalNodes>
          <leafValues>
            -6.7058825492858887e-01 9.5636361837387085e-01</leafValues></_>
        <_>
          <internalNodes>
            0 -1 11 -1.4790756627917290e-02</internalNodes>
          <leafValues>
            -7.2491186857223511e-01 8.6826068162918091e-01</leafValues></_>
        <_>
          <internalNodes>
            0 -1 15 1.3216615479905158e-04</internalNodes>
          <leafValues>
            -9.8605877161026001e-01 6.8303042650222778e-01</leafValues></_></weakClassifiers></_>
    <!-- stage 7 -->
    <_>
      <maxWeakCount>2</maxWeakCount>
      <stageThreshold>4.4868618249893188e-02</stageThreshold>
      <weakClassifiers>
        <_>
          <internalNodes>
            0 -1 12 -2.2255787625908852e-02</internalNodes>
          <leafValues>
            -7.7631580829620361e-01 9.1126281023025513e-01</leafValues></_>
        <_>
          <internalNodes>
            0 -1 6 1.4172274619340897e-02</internalNodes>
          <leafValues>
            -7.8327381610870361e-01 8.2118439674377441e-01</leafValues></_></weakClassifiers></_>
    <!-- stage 8 -->
    <_>
      <maxWeakCount>2</maxWeakCount>
      <stageThreshold>-6.7229680716991425e-02</stageThreshold>
      <weakClassifiers>
        <_>
          <internalNodes>
            0 -1 4 -3.8503937423229218e-02</internalNodes>
          <leafValues>
            8.8275861740112305e-01 -6.9032257795333862e-01</leafValues></_>
        <_>
          <internalNodes>
            0 -1 13 1.1055507638957351e-04</internalNodes>
          <leafValues>
            -1. 6.2309288978576660e-01</leafValues></_></weakClassifiers></_></stages>
  <features>
    <_>
      <rects>
        <_>
          0 0 2 1 -1.</_>
        <_>
          1 0 1 1 2.</_></rects>
      <tilted>0</tilted></_>
    <_>
      <rects>
        <_>
          0 0 2 2 -1.</_>
        <_>
          0 0 1 1 2.</_>
        <_>
          1 1 1 1 2.</_></rects>
      <tilted>0</tilted></_>
    <_>
      <rects>
        <_>
          0 0 2 4 -1.</_>
        <_>
          1 0 1 4 2.</_></rects>
      <tilted>0</tilted></_>
    <_>
      <rects>
        <_>
          11 15 9 20 -1.</_>
        <_>
          11 25 9 10 2.</_></rects>
      <tilted>0</tilted></_>
    <_>
      <rects>
        <_>
          11 29 21 10 -1.</_>
        <_>
          11 34 21 5 2.</_></rects>
      <tilted>0</tilted></_>
    <_>
      <rects>
        <_>
          12 15 12 14 -1.</_>
        <_>
          12 15 6 7 2.</_>
        <_>
          18 22 6 7 2.</_></rects>
      <tilted>0</tilted></_>
    <_>
      <rects>
        <_>
          12 22 10 18 -1.</_>
        <_>
          12 22 5 9 2.</_>
        <_>
          17 31 5 9 2.</_></rects>
      <tilted>0</tilted></_>
    <_>
      <rects>
        <_>
          15 11 11 26 -1.</_>
        <_>
          15 24 11 13 2.</_></rects>
      <tilted>0</tilted></_>
    <_>
      <rects>
        <_>
          17 7 14 10 -1.</_>
        <_>
          17 7 7 5 2.</_>
        <_>
          24 12 7 5 2.</_></rects>
      <tilted>0</tilted></_>
    <_>
      <rects>
        <_>
          17 23 5 10 -1.</_>
        <_>
          17 28 5 5 2.</_></rects>
      <tilted>0</tilted></_>
    <_>
      <rects>
        <_>
          18 23 3 10 -1.</_>
        <_>
          18 28 3 5 2.</_></rects>
      <tilted>0</tilted></_>
    <_>
      <rects>
        <_>
          20 4 2 24 -1.</_>
        <_>
          20 12 2 8 2.</_></rects>
      <tilted>0</tilted></_>
    <_>
      <rects>
        <_>
          21 6 3 24 -1.</_>
        <_>
          21 14 3 8 2.</_></rects>
      <tilted>0</tilted></_>
    <_>
      <rects>
        <_>
          22 16 5 4 -1.</_>
        <_>
          22 18 5 2 2.</_></rects>
      <tilted>0</tilted></_>
    <_>
      <rects>
        <_>
          22 18 3 12 -1.</_>
        <_>
          22 24 3 6 2.</_></rects>
      <tilted>0</tilted></_>
    <_>
      <rects>
        <_>
          27 17 2 14 -1.</_>
        <_>
          27 24 2 7 2.</_></rects>
      <tilted>0</tilted></_></features></cascade>
</opencv_storage>
