<?xml version="1.0"?>
<opencv_storage>
<cascade>
  <stageType>BOOST</stageType>
  <featureType>HAAR</featureType>
  <height>40</height>
  <width>40</width>
  <stageParams>
    <boostType>GAB</boostType>
    <minHitRate>9.9500000476837158e-01</minHitRate>
    <maxFalseAlarm>5.0000000000000000e-01</maxFalseAlarm>
    <weightTrimRate>9.4999999999999996e-01</weightTrimRate>
    <maxDepth>1</maxDepth>
    <maxWeakCount>100</maxWeakCount></stageParams>
  <featureParams>
    <maxCatCount>0</maxCatCount>
    <featSize>1</featSize>
    <mode>BASIC</mode></featureParams>
  <stageNum>10</stageNum>
  <stages>
    <!-- stage 0 -->
    <_>
      <maxWeakCount>1</maxWeakCount>
      <stageThreshold>1.</stageThreshold>
      <weakClassifiers>
        <_>
          <internalNodes>
            0 -1 2 5.1533794030547142e-03</internalNodes>
          <leafValues>
            1. -1.</leafValues></_></weakClassifiers></_>
    <!-- stage 1 -->
    <_>
      <maxWeakCount>1</maxWeakCount>
      <stageThreshold>1.</stageThreshold>
      <weakClassifiers>
        <_>
          <internalNodes>
            0 -1 1 2.5136820040643215e-03</internalNodes>
          <leafValues>
            1. -1.</leafValues></_></weakClassifiers></_>
    <!-- stage 2 -->
    <_>
      <maxWeakCount>1</maxWeakCount>
      <stageThreshold>1.</stageThreshold>
      <weakClassifiers>
        <_>
          <internalNodes>
            0 -1 0 -1.5324476407840848e-03</internalNodes>
          <leafValues>
            -1. 1.</leafValues></_></weakClassifiers></_>
    <!-- stage 3 -->
    <_>
      <maxWeakCount>3</maxWeakCount>
      <stageThreshold>-9.7239494323730469e-01</stageThreshold>
      <weakClassifiers>
        <_>
          <internalNodes>
            0 -1 16 6.6788834519684315e-03</internalNodes>
          <leafValues>
            -9.4771242141723633e-01 8.6058980226516724e-01</leafValues></_>
        <_>
          <internalNodes>
            0 -1 19 8.0933105200529099e-03</internalNodes>
          <leafValues>
            -8.1228178739547729e-01 8.9360398054122925e-01</leafValues></_>
        <_>
          <internalNodes>
            0 -1 9 1.0598473250865936e-02</internalNodes>
          <leafValues>
            -9.3241119384765625e-01 7.8759926557540894e-01</leafValues></_></weakClassifiers></_>
    <!-- stage 4 -->
    <_>
      <maxWeakCount>2</maxWeakCount>
      <stageThreshold>-2.9495483636856079e-01</stageThreshold>
      <weakClassifiers>
        <_>
          <internalNodes>
            0 -1 7 -9.1128144413232803e-03</internalNodes>
          <leafValues>
            8.4084880352020264e-01 -9.4630873203277588e-01</leafValues></_>
        <_>
          <internalNodes>
            0 -1 13 1.2303595431149006e-03</internalNodes>
          <leafValues>
            -9.9068176746368408e-01 6.5135389566421509e-01</leafValues></_></weakClassifiers></_>
    <!-- stage 5 -->
    <_>
      <maxWeakCount>3</maxWeakCount>
      <stageThreshold>-3.9735591411590576e-01</stageThreshold>
      <weakClassifiers>
        <_>
          <internalNodes>
            0 -1 21 8.4620490670204163e-03</internalNodes>
          <leafValues>
            -7.8181821107864380e-01 8.4487533569335938e-01</leafValues></_>
        <_>
          <internalNodes>
            0 -1 4 -1.8904417753219604e-02</internalNodes>
          <leafValues>
            9.4898438453674316e-01 -5.0328719615936279e-01</leafValues></_>
        <_>
          <internalNodes>
            0 -1 5 6.9356277585029602e-02</internalNodes>
          <leafValues>
            -5.4588460922241211e-01 8.8774949312210083e-01</leafValues></_></weakClassifiers></_>
    <!-- stage 6 -->
    <_>
      <maxWeakCount>3</maxWeakCount>
      <stageThreshold>-9.8920434713363647e-01</stageThreshold>
      <weakClassifiers>
        <_>
          <internalNodes>
            0 -1 18 -1.5055509284138680e-03</internalNodes>
          <leafValues>
            8.2887703180313110e-01 -8.8157892227172852e-01</leafValues></_>
        <_>
          <internalNodes>
            0 -1 12 2.2907163947820663e-03</internalNodes>
          <leafValues>
            -6.5809851884841919e-01 7.9495894908905029e-01</leafValues></_>
        <_>
          <internalNodes>
            0 -1 8 -2.1573677659034729e-03</internalNodes>
          <leafValues>
            5.5047309398651123e-01 -9.9391281604766846e-01</leafValues></_></weakClassifiers></_>
    <!-- stage 7 -->
    <_>
      <maxWeakCount>4</maxWeakCount>
      <stageThreshold>-3.1910768151283264e-01</stageThreshold>
      <weakClassifiers>
        <_>
          <internalNodes>
            0 -1 22 -1.5090489760041237e-03</internalNodes>
          <leafValues>
            7.6227390766143799e-01 -8.5611510276794434e-01</leafValues></_>
        <_>
          <internalNodes>
            0 -1 10 -6.8906665546819568e-06</internalNodes>
          <leafValues>
            -9.4182986021041870e-01 6.0353559255599976e-01</leafValues></_>
        <_>
          <internalNodes>
            0 -1 6 -4.3314024806022644e-02</internalNodes>
          <leafValues>
            8.8573175668716431e-01 -5.7919442653656006e-01</leafValues></_>
        <_>
          <internalNodes>
            0 -1 14 2.5039986940100789e-04</internalNodes>
          <leafValues>
            -1. 5.1266622543334961e-01</leafValues></_></weakClassifiers></_>
    <!-- stage 8 -->
    <_>
      <maxWeakCount>3</maxWeakCount>
      <stageThreshold>-8.6211723089218140e-01</stageThreshold>
      <weakClassifiers>
        <_>
          <internalNodes>
            0 -1 20 1.7590448260307312e-02</internalNodes>
          <leafValues>
            -5.2195119857788086e-01 8.8161993026733398e-01</leafValues></_>
        <_>
          <internalNodes>
            0 -1 23 -3.6529861390590668e-03</internalNodes>
          <leafValues>
            5.8223307132720947e-01 -9.4208306074142456e-01</leafValues></_>
        <_>
          <internalNodes>
            0 -1 15 9.3690253561362624e-04</internalNodes>
          <leafValues>
            4.6035459637641907e-01 -9.2239910364151001e-01</leafValues></_></weakClassifiers></_>
    <!-- stage 9 -->
    <_>
      <maxWeakCount>3</maxWeakCount>
      <stageThreshold>-4.0502911806106567e-01</stageThreshold>
      <weakClassifiers>
        <_>
          <internalNodes>
            0 -1 3 -3.5792011767625809e-02</internalNodes>
          <leafValues>
            9.2517006397247314e-01 -4.1379311680793762e-01</leafValues></_>
        <_>
          <internalNodes>
            0 -1 17 -1.0416796430945396e-03</internalNodes>
          <leafValues>
            6.3455313444137573e-01 -8.1571137905120850e-01</leafValues></_>
        <_>
          <internalNodes>
            0 -1 11 -2.5954950600862503e-02</internalNodes>
          <leafValues>
            8.2447534799575806e-01 -5.1076412200927734e-01</leafValues></_></weakClassifiers></_></stages>
  <features>
    <_>
      <rects>
        <_>
          0 0 2 2 -1.</_>
        <_>
          0 0 1 1 2.</_>
        <_>
          1 1 1 1 2.</_></rects>
      <tilted>0</tilted></_>
    <_>
      <rects>
        <_>
          0 0 1 4 -1.</_>
        <_>
          0 2 1 2 2.</_></rects>
      <tilted>0</tilted></_>
    <_>
      <rects>
        <_>
          0 0 2 8 -1.</_>
        <_>
          0 0 1 4 2.</_>
        <_>
          1 4 1 4 2.</_></rects>
      <tilted>0</tilted></_>
    <_>
      <rects>
        <_>
          8 21 12 12 -1.</_>
        <_>
          8 21 6 6 2.</_>
        <_>
          14 27 6 6 2.</_></rects>
      <tilted>0</tilted></_>
    <_>
      <rects>
        <_>
          8 23 10 10 -1.</_>
        <_>
          8 23 5 5 2.</_>
        <_>
          13 28 5 5 2.</_></rects>
      <tilted>0</tilted></_>
    <_>
      <rects>
        <_>
          9 1 14 26 -1.</_>
        <_>
          9 1 7 13 2.</_>
        <_>
          16 14 7 13 2.</_></rects>
      <tilted>0</tilted></_>
    <_>
      <rects>
        <_>
          9 19 10 16 -1.</_>
        <_>
          9 19 5 8 2.</_>
        <_>
          14 27 5 8 2.</_></rects>
      <tilted>0</tilted></_>
    <_>
      <rects>
        <_>
          9 22 10 12 -1.</_>
        <_>
          9 22 5 6 2.</_>
        <_>
          14 28 5 6 2.</_></rects>
      <tilted>0</tilted></_>
    <_>
      <rects>
        <_>
          9 30 14 5 -1.</_>
        <_>
          16 30 7 5 2.</_></rects>
      <tilted>0</tilted></_>
    <_>
      <rects>
        <_>
          11 6 12 12 -1.</_>
        <_>
          11 6 6 6 2.</_>
        <_>
          17 12 6 6 2.</_></rects>
      <tilted>0</tilted></_>
    <_>
      <rects>
        <_>
          12 20 11 6 -1.</_>
        <_>
          12 23 11 3 2.</_></rects>
      <tilted>0</tilted></_>
    <_>
      <rects>
        <_>
          12 26 15 6 -1.</_>
        <_>
          12 29 15 3 2.</_></rects>
      <tilted>0</tilted></_>
    <_>
      <rects>
        <_>
          15 12 4 6 -1.</_>
        <_>
          17 12 2 6 2.</_></rects>
      <tilted>0</tilted></_>
    <_>
      <rects>
        <_>
          16 16 12 6 -1.</_>
        <_>
          16 19 12 3 2.</_></rects>
      <tilted>0</tilted></_>
    <_>
      <rects>
        <_>
          17 15 2 20 -1.</_>
        <_>
          18 15 1 20 2.</_></rects>
      <tilted>0</tilted></_>
    <_>
      <rects>
        <_>
          17 20 4 6 -1.</_>
        <_>
          17 23 4 3 2.</_></rects>
      <tilted>0</tilted></_>
    <_>
      <rects>
        <_>
          18 5 4 14 -1.</_>
        <_>
          18 12 4 7 2.</_></rects>
      <tilted>0</tilted></_>
    <_>
      <rects>
        <_>
          21 11 4 7 -1.</_>
        <_>
          23 11 2 7 2.</_></rects>
      <tilted>0</tilted></_>
    <_>
      <rects>
        <_>
          22 13 4 7 -1.</_>
        <_>
          24 13 2 7 2.</_></rects>
      <tilted>0</tilted></_>
    <_>
      <rects>
        <_>
          23 19 8 14 -1.</_>
        <_>
          23 19 4 7 2.</_>
        <_>
          27 26 4 7 2.</_></rects>
      <tilted>0</tilted></_>
    <_>
      <rects>
        <_>
          23 22 10 10 -1.</_>
        <_>
          23 22 5 5 2.</_>
        <_>
          28 27 5 5 2.</_></rects>
      <tilted>0</tilted></_>
    <_>
      <rects>
        <_>
          23 23 10 10 -1.</_>
        <_>
          23 23 5 5 2.</_>
        <_>
          28 28 5 5 2.</_></rects>
      <tilted>0</tilted></_>
    <_>
      <rects>
        <_>
          24 16 4 7 -1.</_>
        <_>
          26 16 2 7 2.</_></rects>
      <tilted>0</tilted></_>
    <_>
      <rects>
        <_>
          25 24 7 14 -1.</_>
        <_>
          25 31 7 7 2.</_></rects>
      <tilted>0</tilted></_></features></cascade>
</opencv_storage>
