<?xml version="1.0"?>
<opencv_storage>
<cascade>
  <stageType>BOOST</stageType>
  <featureType>HAAR</featureType>
  <height>40</height>
  <width>40</width>
  <stageParams>
    <boostType>GAB</boostType>
    <minHitRate>9.9500000476837158e-01</minHitRate>
    <maxFalseAlarm>5.0000000000000000e-01</maxFalseAlarm>
    <weightTrimRate>9.4999999999999996e-01</weightTrimRate>
    <maxDepth>1</maxDepth>
    <maxWeakCount>100</maxWeakCount></stageParams>
  <featureParams>
    <maxCatCount>0</maxCatCount>
    <featSize>1</featSize>
    <mode>BASIC</mode></featureParams>
  <stageNum>10</stageNum>
  <stages>
    <!-- stage 0 -->
    <_>
      <maxWeakCount>1</maxWeakCount>
      <stageThreshold>1.</stageThreshold>
      <weakClassifiers>
        <_>
          <internalNodes>
            0 -1 2 6.0648415237665176e-03</internalNodes>
          <leafValues>
            1. -1.</leafValues></_></weakClassifiers></_>
    <!-- stage 1 -->
    <_>
      <maxWeakCount>1</maxWeakCount>
      <stageThreshold>1.</stageThreshold>
      <weakClassifiers>
        <_>
          <internalNodes>
            0 -1 1 1.0577357560396194e-01</internalNodes>
          <leafValues>
            1. -1.</leafValues></_></weakClassifiers></_>
    <!-- stage 2 -->
    <_>
      <maxWeakCount>1</maxWeakCount>
      <stageThreshold>1.</stageThreshold>
      <weakClassifiers>
        <_>
          <internalNodes>
            0 -1 0 6.1542666517198086e-03</internalNodes>
          <leafValues>
            1. -1.</leafValues></_></weakClassifiers></_>
    <!-- stage 3 -->
    <_>
      <maxWeakCount>2</maxWeakCount>
      <stageThreshold>-1.0887802392244339e-01</stageThreshold>
      <weakClassifiers>
        <_>
          <internalNodes>
            0 -1 16 8.9301280677318573e-03</internalNodes>
          <leafValues>
            -8.6008232831954956e-01 9.0532547235488892e-01</leafValues></_>
        <_>
          <internalNodes>
            0 -1 18 -1.2654168531298637e-02</internalNodes>
          <leafValues>
            7.5120425224304199e-01 -9.7377389669418335e-01</leafValues></_></weakClassifiers></_>
    <!-- stage 4 -->
    <_>
      <maxWeakCount>3</maxWeakCount>
      <stageThreshold>-6.7268419265747070e-01</stageThreshold>
      <weakClassifiers>
        <_>
          <internalNodes>
            0 -1 10 3.3947732299566269e-02</internalNodes>
          <leafValues>
            -7.5094342231750488e-01 9.2577320337295532e-01</leafValues></_>
        <_>
          <internalNodes>
            0 -1 12 9.9084153771400452e-03</internalNodes>
          <leafValues>
            -8.4543704986572266e-01 7.8104048967361450e-01</leafValues></_>
        <_>
          <internalNodes>
            0 -1 15 -1.2589715421199799e-02</internalNodes>
          <leafValues>
            9.2369627952575684e-01 -6.2145000696182251e-01</leafValues></_></weakClassifiers></_>
    <!-- stage 5 -->
    <_>
      <maxWeakCount>3</maxWeakCount>
      <stageThreshold>-6.4127701520919800e-01</stageThreshold>
      <weakClassifiers>
        <_>
          <internalNodes>
            0 -1 24 -1.2812662869691849e-02</internalNodes>
          <leafValues>
            8.2341653108596802e-01 -7.8165936470031738e-01</leafValues></_>
        <_>
          <internalNodes>
            0 -1 3 -1.1979399248957634e-02</internalNodes>
          <leafValues>
            8.0464738607406616e-01 -7.3170727491378784e-01</leafValues></_>
        <_>
          <internalNodes>
            0 -1 7 6.1747066676616669e-02</internalNodes>
          <leafValues>
            -5.4140847921371460e-01 8.7208968400955200e-01</leafValues></_></weakClassifiers></_>
    <!-- stage 6 -->
    <_>
      <maxWeakCount>2</maxWeakCount>
      <stageThreshold>8.4553271532058716e-02</stageThreshold>
      <weakClassifiers>
        <_>
          <internalNodes>
            0 -1 13 2.6581615209579468e-02</internalNodes>
          <leafValues>
            -7.0609319210052490e-01 9.4904458522796631e-01</leafValues></_>
        <_>
          <internalNodes>
            0 -1 20 4.7824149951338768e-03</internalNodes>
          <leafValues>
            -6.9856160879135132e-01 7.9064643383026123e-01</leafValues></_></weakClassifiers></_>
    <!-- stage 7 -->
    <_>
      <maxWeakCount>5</maxWeakCount>
      <stageThreshold>-8.2743358612060547e-01</stageThreshold>
      <weakClassifiers>
        <_>
          <internalNodes>
            0 -1 8 -3.3420801162719727e-02</internalNodes>
          <leafValues>
            8.7268996238708496e-01 -6.6539925336837769e-01</leafValues></_>
        <_>
          <internalNodes>
            0 -1 11 2.1789500024169683e-03</internalNodes>
          <leafValues>
            -8.3940595388412476e-01 6.4213365316390991e-01</leafValues></_>
        <_>
          <internalNodes>
            0 -1 23 -3.1981345266103745e-02</internalNodes>
          <leafValues>
            8.1167501211166382e-01 -6.1091393232345581e-01</leafValues></_>
        <_>
          <internalNodes>
            0 -1 6 9.9142724648118019e-03</internalNodes>
          <leafValues>
            -5.8801782131195068e-01 8.0882477760314941e-01</leafValues></_>
        <_>
          <internalNodes>
            0 -1 17 -1.1768173426389694e-03</internalNodes>
          <leafValues>
            4.5371443033218384e-01 -9.8859918117523193e-01</leafValues></_></weakClassifiers></_>
    <!-- stage 8 -->
    <_>
      <maxWeakCount>4</maxWeakCount>
      <stageThreshold>-2.4855259060859680e-01</stageThreshold>
      <weakClassifiers>
        <_>
          <internalNodes>
            0 -1 19 -2.4195186793804169e-02</internalNodes>
          <leafValues>
            8.0821919441223145e-01 -6.8200838565826416e-01</leafValues></_>
        <_>
          <internalNodes>
            0 -1 14 2.7075456455349922e-02</internalNodes>
          <leafValues>
            -6.3448697328567505e-01 7.2177028656005859e-01</leafValues></_>
        <_>
          <internalNodes>
            0 -1 9 3.9325721561908722e-02</internalNodes>
          <leafValues>
            -6.0159331560134888e-01 6.9877243041992188e-01</leafValues></_>
        <_>
          <internalNodes>
            0 -1 22 -5.6795420823618770e-04</internalNodes>
          <leafValues>
            4.0014198422431946e-01 -9.8708695173263550e-01</leafValues></_></weakClassifiers></_>
    <!-- stage 9 -->
    <_>
      <maxWeakCount>4</maxWeakCount>
      <stageThreshold>-5.0975561141967773e-01</stageThreshold>
      <weakClassifiers>
        <_>
          <internalNodes>
            0 -1 25 -4.3300203979015350e-03</internalNodes>
          <leafValues>
            7.6383763551712036e-01 -7.8846156597137451e-01</leafValues></_>
        <_>
          <internalNodes>
            0 -1 4 -5.6320326402783394e-03</internalNodes>
          <leafValues>
            6.4986532926559448e-01 -8.4378135204315186e-01</leafValues></_>
        <_>
          <internalNodes>
            0 -1 21 1.8944252282381058e-02</internalNodes>
          <leafValues>
            -7.9811316728591919e-01 5.2257645130157471e-01</leafValues></_>
        <_>
          <internalNodes>
            0 -1 5 4.3322579003870487e-03</internalNodes>
          <leafValues>
            -6.8354499340057373e-01 5.9991085529327393e-01</leafValues></_></weakClassifiers></_></stages>
  <features>
    <_>
      <rects>
        <_>
          0 0 2 10 -1.</_>
        <_>
          0 0 1 5 2.</_>
        <_>
          1 5 1 5 2.</_></rects>
      <tilted>0</tilted></_>
    <_>
      <rects>
        <_>
          0 0 16 11 -1.</_>
        <_>
          8 0 8 11 2.</_></rects>
      <tilted>0</tilted></_>
    <_>
      <rects>
        <_>
          0 1 2 6 -1.</_>
        <_>
          0 1 1 3 2.</_>
        <_>
          1 4 1 3 2.</_></rects>
      <tilted>0</tilted></_>
    <_>
      <rects>
        <_>
          1 15 8 15 -1.</_>
        <_>
          5 15 4 15 2.</_></rects>
      <tilted>0</tilted></_>
    <_>
      <rects>
        <_>
          1 25 10 7 -1.</_>
        <_>
          6 25 5 7 2.</_></rects>
      <tilted>0</tilted></_>
    <_>
      <rects>
        <_>
          2 11 14 6 -1.</_>
        <_>
          2 11 7 3 2.</_>
        <_>
          9 14 7 3 2.</_></rects>
      <tilted>0</tilted></_>
    <_>
      <rects>
        <_>
          3 9 12 10 -1.</_>
        <_>
          3 9 6 5 2.</_>
        <_>
          9 14 6 5 2.</_></rects>
      <tilted>0</tilted></_>
    <_>
      <rects>
        <_>
          5 2 20 14 -1.</_>
        <_>
          5 2 10 7 2.</_>
        <_>
          15 9 10 7 2.</_></rects>
      <tilted>0</tilted></_>
    <_>
      <rects>
        <_>
          5 13 14 24 -1.</_>
        <_>
          5 13 7 12 2.</_>
        <_>
          12 25 7 12 2.</_></rects>
      <tilted>0</tilted></_>
    <_>
      <rects>
        <_>
          6 2 14 18 -1.</_>
        <_>
          6 2 7 9 2.</_>
        <_>
          13 11 7 9 2.</_></rects>
      <tilted>0</tilted></_>
    <_>
      <rects>
        <_>
          6 3 20 12 -1.</_>
        <_>
          6 3 10 6 2.</_>
        <_>
          16 9 10 6 2.</_></rects>
      <tilted>0</tilted></_>
    <_>
      <rects>
        <_>
          8 22 8 18 -1.</_>
        <_>
          8 31 8 9 2.</_></rects>
      <tilted>0</tilted></_>
    <_>
      <rects>
        <_>
          13 21 10 9 -1.</_>
        <_>
          18 21 5 9 2.</_></rects>
      <tilted>0</tilted></_>
    <_>
      <rects>
        <_>
          15 21 8 14 -1.</_>
        <_>
          19 21 4 14 2.</_></rects>
      <tilted>0</tilted></_>
    <_>
      <rects>
        <_>
          16 1 6 31 -1.</_>
        <_>
          19 1 3 31 2.</_></rects>
      <tilted>0</tilted></_>
    <_>
      <rects>
        <_>
          16 6 20 6 -1.</_>
        <_>
          16 6 10 3 2.</_>
        <_>
          26 9 10 3 2.</_></rects>
      <tilted>0</tilted></_>
    <_>
      <rects>
        <_>
          16 6 12 8 -1.</_>
        <_>
          16 10 12 4 2.</_></rects>
      <tilted>0</tilted></_>
    <_>
      <rects>
        <_>
          16 20 20 1 -1.</_>
        <_>
          26 20 10 1 2.</_></rects>
      <tilted>0</tilted></_>
    <_>
      <rects>
        <_>
          17 9 16 10 -1.</_>
        <_>
          25 9 8 10 2.</_></rects>
      <tilted>0</tilted></_>
    <_>
      <rects>
        <_>
          19 2 14 12 -1.</_>
        <_>
          19 2 7 6 2.</_>
        <_>
          26 8 7 6 2.</_></rects>
      <tilted>0</tilted></_>
    <_>
      <rects>
        <_>
          20 31 12 8 -1.</_>
        <_>
          20 31 6 4 2.</_>
        <_>
          26 35 6 4 2.</_></rects>
      <tilted>0</tilted></_>
    <_>
      <rects>
        <_>
          23 14 14 24 -1.</_>
        <_>
          23 14 7 12 2.</_>
        <_>
          30 26 7 12 2.</_></rects>
      <tilted>0</tilted></_>
    <_>
      <rects>
        <_>
          24 7 4 8 -1.</_>
        <_>
          26 7 2 8 2.</_></rects>
      <tilted>0</tilted></_>
    <_>
      <rects>
        <_>
          25 5 12 14 -1.</_>
        <_>
          25 5 6 7 2.</_>
        <_>
          31 12 6 7 2.</_></rects>
      <tilted>0</tilted></_>
    <_>
      <rects>
        <_>
          25 6 12 12 -1.</_>
        <_>
          25 6 6 6 2.</_>
        <_>
          31 12 6 6 2.</_></rects>
      <tilted>0</tilted></_>
    <_>
      <rects>
        <_>
          26 12 2 16 -1.</_>
        <_>
          26 20 2 8 2.</_></rects>
      <tilted>0</tilted></_></features></cascade>
</opencv_storage>
