<?xml version="1.0"?>
<opencv_storage>
<stage9>
  <maxWeakCount>6</maxWeakCount>
  <stageThreshold>-1.1313858032226563e+00</stageThreshold>
  <weakClassifiers>
    <_>
      <internalNodes>
        0 -1 577241 -2.6537716388702393e-02</internalNodes>
      <leafValues>
        9.2558139562606812e-01 -4.6250000596046448e-01</leafValues></_>
    <_>
      <internalNodes>
        0 -1 533607 1.0887591633945704e-03</internalNodes>
      <leafValues>
        -8.1567192077636719e-01 5.9101217985153198e-01</leafValues></_>
    <_>
      <internalNodes>
        0 -1 802788 3.2161884009838104e-02</internalNodes>
      <leafValues>
        -5.4990994930267334e-01 7.0734864473342896e-01</leafValues></_>
    <_>
      <internalNodes>
        0 -1 605923 3.9665964432060719e-03</internalNodes>
      <leafValues>
        -5.6001186370849609e-01 6.1442470550537109e-01</leafValues></_>
    <_>
      <internalNodes>
        0 -1 391848 -5.3368352353572845e-02</internalNodes>
      <leafValues>
        6.5627425909042358e-01 -5.1695400476455688e-01</leafValues></_>
    <_>
      <internalNodes>
        0 -1 815141 3.2949901651591063e-04</internalNodes>
      <leafValues>
        -7.5592261552810669e-01 5.1640331745147705e-01</leafValues></_></weakClassifiers></stage9>
</opencv_storage>
