<?xml version="1.0"?>
<opencv_storage>
<cascade>
  <stageType>BOOST</stageType>
  <featureType>HAAR</featureType>
  <height>40</height>
  <width>40</width>
  <stageParams>
    <boostType>GAB</boostType>
    <minHitRate>9.9500000476837158e-01</minHitRate>
    <maxFalseAlarm>5.0000000000000000e-01</maxFalseAlarm>
    <weightTrimRate>9.4999999999999996e-01</weightTrimRate>
    <maxDepth>1</maxDepth>
    <maxWeakCount>100</maxWeakCount></stageParams>
  <featureParams>
    <maxCatCount>0</maxCatCount>
    <featSize>1</featSize>
    <mode>BASIC</mode></featureParams>
  <stageNum>10</stageNum>
  <stages>
    <!-- stage 0 -->
    <_>
      <maxWeakCount>1</maxWeakCount>
      <stageThreshold>1.</stageThreshold>
      <weakClassifiers>
        <_>
          <internalNodes>
            0 -1 1 6.4149335958063602e-03</internalNodes>
          <leafValues>
            1. -1.</leafValues></_></weakClassifiers></_>
    <!-- stage 1 -->
    <_>
      <maxWeakCount>1</maxWeakCount>
      <stageThreshold>1.</stageThreshold>
      <weakClassifiers>
        <_>
          <internalNodes>
            0 -1 0 1.1323437094688416e-01</internalNodes>
          <leafValues>
            1. -1.</leafValues></_></weakClassifiers></_>
    <!-- stage 2 -->
    <_>
      <maxWeakCount>1</maxWeakCount>
      <stageThreshold>1.</stageThreshold>
      <weakClassifiers>
        <_>
          <internalNodes>
            0 -1 2 -6.6435877233743668e-03</internalNodes>
          <leafValues>
            -1. 1.</leafValues></_></weakClassifiers></_>
    <!-- stage 3 -->
    <_>
      <maxWeakCount>3</maxWeakCount>
      <stageThreshold>-1.0005786418914795e+00</stageThreshold>
      <weakClassifiers>
        <_>
          <internalNodes>
            0 -1 22 -2.5164626538753510e-02</internalNodes>
          <leafValues>
            9.1975927352905273e-01 -8.2902586460113525e-01</leafValues></_>
        <_>
          <internalNodes>
            0 -1 9 2.2974129766225815e-02</internalNodes>
          <leafValues>
            -7.4522280693054199e-01 7.9002761840820313e-01</leafValues></_>
        <_>
          <internalNodes>
            0 -1 28 -1.2479491531848907e-02</internalNodes>
          <leafValues>
            -9.7514384984970093e-01 5.7367002964019775e-01</leafValues></_></weakClassifiers></_>
    <!-- stage 4 -->
    <_>
      <maxWeakCount>6</maxWeakCount>
      <stageThreshold>-1.5145462751388550e+00</stageThreshold>
      <weakClassifiers>
        <_>
          <internalNodes>
            0 -1 10 1.9534183666110039e-02</internalNodes>
          <leafValues>
            -8.2403433322906494e-01 8.5493230819702148e-01</leafValues></_>
        <_>
          <internalNodes>
            0 -1 26 -2.1404022350907326e-02</internalNodes>
          <leafValues>
            8.9164853096008301e-01 -4.9701192975044250e-01</leafValues></_>
        <_>
          <internalNodes>
            0 -1 13 -4.4973503099754453e-04</internalNodes>
          <leafValues>
            5.6133943796157837e-01 -9.2022091150283813e-01</leafValues></_>
        <_>
          <internalNodes>
            0 -1 4 1.2256811372935772e-02</internalNodes>
          <leafValues>
            -7.4449342489242554e-01 5.9304100275039673e-01</leafValues></_>
        <_>
          <internalNodes>
            0 -1 6 -2.5023879483342171e-02</internalNodes>
          <leafValues>
            7.9257100820541382e-01 -4.4533067941665649e-01</leafValues></_>
        <_>
          <internalNodes>
            0 -1 15 1.7296785954385996e-03</internalNodes>
          <leafValues>
            -8.6997103691101074e-01 4.3498465418815613e-01</leafValues></_></weakClassifiers></_>
    <!-- stage 5 -->
    <_>
      <maxWeakCount>5</maxWeakCount>
      <stageThreshold>-7.0093828439712524e-01</stageThreshold>
      <weakClassifiers>
        <_>
          <internalNodes>
            0 -1 22 -3.4883622080087662e-02</internalNodes>
          <leafValues>
            8.0999022722244263e-01 -6.8267226219177246e-01</leafValues></_>
        <_>
          <internalNodes>
            0 -1 8 1.4048092067241669e-02</internalNodes>
          <leafValues>
            -4.8775383830070496e-01 8.6463111639022827e-01</leafValues></_>
        <_>
          <internalNodes>
            0 -1 5 -2.8430972248315811e-02</internalNodes>
          <leafValues>
            7.7199363708496094e-01 -4.6247443556785583e-01</leafValues></_>
        <_>
          <internalNodes>
            0 -1 17 -1.0527499765157700e-01</internalNodes>
          <leafValues>
            -6.5019112825393677e-01 5.7172524929046631e-01</leafValues></_>
        <_>
          <internalNodes>
            0 -1 30 1.9076076569035649e-04</internalNodes>
          <leafValues>
            3.6023697257041931e-01 -8.8039565086364746e-01</leafValues></_></weakClassifiers></_>
    <!-- stage 6 -->
    <_>
      <maxWeakCount>4</maxWeakCount>
      <stageThreshold>-3.6340796947479248e-01</stageThreshold>
      <weakClassifiers>
        <_>
          <internalNodes>
            0 -1 29 -3.7882048636674881e-03</internalNodes>
          <leafValues>
            7.7820265293121338e-01 -6.9162994623184204e-01</leafValues></_>
        <_>
          <internalNodes>
            0 -1 3 2.1669380366802216e-02</internalNodes>
          <leafValues>
            -7.3871457576751709e-01 5.9789144992828369e-01</leafValues></_>
        <_>
          <internalNodes>
            0 -1 23 -3.0272047966718674e-02</internalNodes>
          <leafValues>
            -6.4199161529541016e-01 6.1147612333297729e-01</leafValues></_>
        <_>
          <internalNodes>
            0 -1 32 -1.6834089765325189e-03</internalNodes>
          <leafValues>
            -8.9557921886444092e-01 4.5546045899391174e-01</leafValues></_></weakClassifiers></_>
    <!-- stage 7 -->
    <_>
      <maxWeakCount>4</maxWeakCount>
      <stageThreshold>-2.4339573085308075e-01</stageThreshold>
      <weakClassifiers>
        <_>
          <internalNodes>
            0 -1 33 -5.1527917385101318e-03</internalNodes>
          <leafValues>
            8.0578511953353882e-01 -5.2631580829620361e-01</leafValues></_>
        <_>
          <internalNodes>
            0 -1 11 1.2566532939672470e-02</internalNodes>
          <leafValues>
            -5.2780681848526001e-01 7.7181899547576904e-01</leafValues></_>
        <_>
          <internalNodes>
            0 -1 19 -7.0915673859417439e-04</internalNodes>
          <leafValues>
            -9.1815280914306641e-01 4.9024081230163574e-01</leafValues></_>
        <_>
          <internalNodes>
            0 -1 31 -2.3202250304166228e-04</internalNodes>
          <leafValues>
            4.2925387620925903e-01 -9.1099011898040771e-01</leafValues></_></weakClassifiers></_>
    <!-- stage 8 -->
    <_>
      <maxWeakCount>6</maxWeakCount>
      <stageThreshold>-8.6158388853073120e-01</stageThreshold>
      <weakClassifiers>
        <_>
          <internalNodes>
            0 -1 24 6.9502391852438450e-05</internalNodes>
          <leafValues>
            6.5143823623657227e-01 -8.4905660152435303e-01</leafValues></_>
        <_>
          <internalNodes>
            0 -1 20 2.0218312740325928e-02</internalNodes>
          <leafValues>
            -4.5993360877037048e-01 8.1559264659881592e-01</leafValues></_>
        <_>
          <internalNodes>
            0 -1 16 -7.4285193113610148e-04</internalNodes>
          <leafValues>
            -9.7968173027038574e-01 4.1389286518096924e-01</leafValues></_>
        <_>
          <internalNodes>
            0 -1 7 2.3581136018037796e-02</internalNodes>
          <leafValues>
            -6.2456214427947998e-01 5.5648076534271240e-01</leafValues></_>
        <_>
          <internalNodes>
            0 -1 25 3.5718921571969986e-04</internalNodes>
          <leafValues>
            3.5770854353904724e-01 -9.7969877719879150e-01</leafValues></_>
        <_>
          <internalNodes>
            0 -1 12 -5.8488217182457447e-03</internalNodes>
          <leafValues>
            -9.3710017204284668e-01 3.0036705732345581e-01</leafValues></_></weakClassifiers></_>
    <!-- stage 9 -->
    <_>
      <maxWeakCount>5</maxWeakCount>
      <stageThreshold>-6.4832794666290283e-01</stageThreshold>
      <weakClassifiers>
        <_>
          <internalNodes>
            0 -1 18 -6.6667166538536549e-04</internalNodes>
          <leafValues>
            6.4705884456634521e-01 -8.7096774578094482e-01</leafValues></_>
        <_>
          <internalNodes>
            0 -1 27 -2.1641410421580076e-04</internalNodes>
          <leafValues>
            -8.2813918590545654e-01 5.2718955278396606e-01</leafValues></_>
        <_>
          <internalNodes>
            0 -1 21 5.5333792261080816e-05</internalNodes>
          <leafValues>
            -8.7169003486633301e-01 3.8258862495422363e-01</leafValues></_>
        <_>
          <internalNodes>
            0 -1 14 -7.9876308518578298e-06</internalNodes>
          <leafValues>
            -8.7503570318222046e-01 3.0317604541778564e-01</leafValues></_>
        <_>
          <internalNodes>
            0 -1 34 -1.0289377314620651e-05</internalNodes>
          <leafValues>
            -8.9701163768768311e-01 3.6501428484916687e-01</leafValues></_></weakClassifiers></_></stages>
  <features>
    <_>
      <rects>
        <_>
          0 0 16 12 -1.</_>
        <_>
          8 0 8 12 2.</_></rects>
      <tilted>0</tilted></_>
    <_>
      <rects>
        <_>
          0 1 2 6 -1.</_>
        <_>
          0 1 1 3 2.</_>
        <_>
          1 4 1 3 2.</_></rects>
      <tilted>0</tilted></_>
    <_>
      <rects>
        <_>
          0 1 10 2 -1.</_>
        <_>
          0 1 5 1 2.</_>
        <_>
          5 2 5 1 2.</_></rects>
      <tilted>0</tilted></_>
    <_>
      <rects>
        <_>
          0 4 20 12 -1.</_>
        <_>
          0 4 10 6 2.</_>
        <_>
          10 10 10 6 2.</_></rects>
      <tilted>0</tilted></_>
    <_>
      <rects>
        <_>
          1 5 12 18 -1.</_>
        <_>
          1 5 6 9 2.</_>
        <_>
          7 14 6 9 2.</_></rects>
      <tilted>0</tilted></_>
    <_>
      <rects>
        <_>
          2 28 22 12 -1.</_>
        <_>
          2 28 11 6 2.</_>
        <_>
          13 34 11 6 2.</_></rects>
      <tilted>0</tilted></_>
    <_>
      <rects>
        <_>
          2 29 24 10 -1.</_>
        <_>
          2 29 12 5 2.</_>
        <_>
          14 34 12 5 2.</_></rects>
      <tilted>0</tilted></_>
    <_>
      <rects>
        <_>
          4 4 24 8 -1.</_>
        <_>
          4 4 12 4 2.</_>
        <_>
          16 8 12 4 2.</_></rects>
      <tilted>0</tilted></_>
    <_>
      <rects>
        <_>
          4 5 6 20 -1.</_>
        <_>
          4 5 3 10 2.</_>
        <_>
          7 15 3 10 2.</_></rects>
      <tilted>0</tilted></_>
    <_>
      <rects>
        <_>
          5 1 20 14 -1.</_>
        <_>
          5 1 10 7 2.</_>
        <_>
          15 8 10 7 2.</_></rects>
      <tilted>0</tilted></_>
    <_>
      <rects>
        <_>
          5 2 20 12 -1.</_>
        <_>
          5 2 10 6 2.</_>
        <_>
          15 8 10 6 2.</_></rects>
      <tilted>0</tilted></_>
    <_>
      <rects>
        <_>
          5 4 6 18 -1.</_>
        <_>
          5 4 3 9 2.</_>
        <_>
          8 13 3 9 2.</_></rects>
      <tilted>0</tilted></_>
    <_>
      <rects>
        <_>
          7 17 24 18 -1.</_>
        <_>
          7 17 12 9 2.</_>
        <_>
          19 26 12 9 2.</_></rects>
      <tilted>0</tilted></_>
    <_>
      <rects>
        <_>
          9 16 21 8 -1.</_>
        <_>
          9 20 21 4 2.</_></rects>
      <tilted>0</tilted></_>
    <_>
      <rects>
        <_>
          10 29 6 5 -1.</_>
        <_>
          13 29 3 5 2.</_></rects>
      <tilted>0</tilted></_>
    <_>
      <rects>
        <_>
          14 2 6 18 -1.</_>
        <_>
          14 2 3 9 2.</_>
        <_>
          17 11 3 9 2.</_></rects>
      <tilted>0</tilted></_>
    <_>
      <rects>
        <_>
          14 19 8 15 -1.</_>
        <_>
          18 19 4 15 2.</_></rects>
      <tilted>0</tilted></_>
    <_>
      <rects>
        <_>
          15 2 10 24 -1.</_>
        <_>
          15 10 10 8 2.</_></rects>
      <tilted>0</tilted></_>
    <_>
      <rects>
        <_>
          16 10 15 12 -1.</_>
        <_>
          16 16 15 6 2.</_></rects>
      <tilted>0</tilted></_>
    <_>
      <rects>
        <_>
          16 19 9 16 -1.</_>
        <_>
          16 27 9 8 2.</_></rects>
      <tilted>0</tilted></_>
    <_>
      <rects>
        <_>
          16 30 24 8 -1.</_>
        <_>
          16 30 12 4 2.</_>
        <_>
          28 34 12 4 2.</_></rects>
      <tilted>0</tilted></_>
    <_>
      <rects>
        <_>
          17 6 2 16 -1.</_>
        <_>
          18 6 1 16 2.</_></rects>
      <tilted>0</tilted></_>
    <_>
      <rects>
        <_>
          18 2 20 12 -1.</_>
        <_>
          18 2 10 6 2.</_>
        <_>
          28 8 10 6 2.</_></rects>
      <tilted>0</tilted></_>
    <_>
      <rects>
        <_>
          18 22 6 18 -1.</_>
        <_>
          18 28 6 6 2.</_></rects>
      <tilted>0</tilted></_>
    <_>
      <rects>
        <_>
          19 8 8 27 -1.</_>
        <_>
          23 8 4 27 2.</_></rects>
      <tilted>0</tilted></_>
    <_>
      <rects>
        <_>
          19 20 13 6 -1.</_>
        <_>
          19 23 13 3 2.</_></rects>
      <tilted>0</tilted></_>
    <_>
      <rects>
        <_>
          20 4 16 8 -1.</_>
        <_>
          20 4 8 4 2.</_>
        <_>
          28 8 8 4 2.</_></rects>
      <tilted>0</tilted></_>
    <_>
      <rects>
        <_>
          21 15 14 6 -1.</_>
        <_>
          21 18 14 3 2.</_></rects>
      <tilted>0</tilted></_>
    <_>
      <rects>
        <_>
          23 6 6 26 -1.</_>
        <_>
          23 19 6 13 2.</_></rects>
      <tilted>0</tilted></_>
    <_>
      <rects>
        <_>
          23 7 16 4 -1.</_>
        <_>
          23 7 8 2 2.</_>
        <_>
          31 9 8 2 2.</_></rects>
      <tilted>0</tilted></_>
    <_>
      <rects>
        <_>
          23 29 8 7 -1.</_>
        <_>
          27 29 4 7 2.</_></rects>
      <tilted>0</tilted></_>
    <_>
      <rects>
        <_>
          24 10 4 28 -1.</_>
        <_>
          24 24 4 14 2.</_></rects>
      <tilted>0</tilted></_>
    <_>
      <rects>
        <_>
          25 8 4 18 -1.</_>
        <_>
          25 17 4 9 2.</_></rects>
      <tilted>0</tilted></_>
    <_>
      <rects>
        <_>
          31 7 6 12 -1.</_>
        <_>
          31 7 3 6 2.</_>
        <_>
          34 13 3 6 2.</_></rects>
      <tilted>0</tilted></_>
    <_>
      <rects>
        <_>
          34 17 1 2 -1.</_>
        <_>
          34 18 1 1 2.</_></rects>
      <tilted>0</tilted></_></features></cascade>
</opencv_storage>
