<?xml version="1.0"?>
<opencv_storage>
<stage5>
  <maxWeakCount>5</maxWeakCount>
  <stageThreshold>-7.0093828439712524e-01</stageThreshold>
  <weakClassifiers>
    <_>
      <internalNodes>
        0 -1 869022 -3.4883622080087662e-02</internalNodes>
      <leafValues>
        8.0999022722244263e-01 -6.8267226219177246e-01</leafValues></_>
    <_>
      <internalNodes>
        0 -1 248647 1.4048092067241669e-02</internalNodes>
      <leafValues>
        -4.8775383830070496e-01 8.6463111639022827e-01</leafValues></_>
    <_>
      <internalNodes>
        0 -1 174261 -2.8430972248315811e-02</internalNodes>
      <leafValues>
        7.7199363708496094e-01 -4.6247443556785583e-01</leafValues></_>
    <_>
      <internalNodes>
        0 -1 760379 -1.0527499765157700e-01</internalNodes>
      <leafValues>
        -6.5019112825393677e-01 5.7172524929046631e-01</leafValues></_>
    <_>
      <internalNodes>
        0 -1 1039976 1.9076076569035649e-04</internalNodes>
      <leafValues>
        3.6023697257041931e-01 -8.8039565086364746e-01</leafValues></_></weakClassifiers></stage5>
</opencv_storage>
