<?xml version="1.0"?>
<opencv_storage>
<stage8>
  <maxWeakCount>5</maxWeakCount>
  <stageThreshold>-6.5841066837310791e-01</stageThreshold>
  <weakClassifiers>
    <_>
      <internalNodes>
        0 -1 701396 6.0124439187347889e-04</internalNodes>
      <leafValues>
        -6.2962961196899414e-01 7.0370370149612427e-01</leafValues></_>
    <_>
      <internalNodes>
        0 -1 1079694 -1.9560506567358971e-02</internalNodes>
      <leafValues>
        4.5729291439056396e-01 -8.2102853059768677e-01</leafValues></_>
    <_>
      <internalNodes>
        0 -1 90702 1.5156076848506927e-01</internalNodes>
      <leafValues>
        -3.8748881220817566e-01 9.1368710994720459e-01</leafValues></_>
    <_>
      <internalNodes>
        0 -1 1003328 -5.8843586593866348e-03</internalNodes>
      <leafValues>
        7.0858520269393921e-01 -5.3422689437866211e-01</leafValues></_>
    <_>
      <internalNodes>
        0 -1 627930 -8.3406659541651607e-05</internalNodes>
      <leafValues>
        -8.5438406467437744e-01 4.3564176559448242e-01</leafValues></_></weakClassifiers></stage8>
</opencv_storage>
