<?xml version="1.0"?>
<opencv_storage>
<stage7>
  <maxWeakCount>5</maxWeakCount>
  <stageThreshold>-8.0189496278762817e-01</stageThreshold>
  <weakClassifiers>
    <_>
      <internalNodes>
        0 -1 880996 8.6638727225363255e-04</internalNodes>
      <leafValues>
        -7.8688526153564453e-01 7.0879119634628296e-01</leafValues></_>
    <_>
      <internalNodes>
        0 -1 1076560 -2.7994556352496147e-02</internalNodes>
      <leafValues>
        6.2056577205657959e-01 -7.2632032632827759e-01</leafValues></_>
    <_>
      <internalNodes>
        0 -1 335503 3.4525431692600250e-02</internalNodes>
      <leafValues>
        -4.4471246004104614e-01 8.4166461229324341e-01</leafValues></_>
    <_>
      <internalNodes>
        0 -1 1054318 -1.9670648500323296e-02</internalNodes>
      <leafValues>
        -5.5220425128936768e-01 7.4361962080001831e-01</leafValues></_>
    <_>
      <internalNodes>
        0 -1 1003074 4.0150599670596421e-04</internalNodes>
      <leafValues>
        -7.7348029613494873e-01 4.2185023427009583e-01</leafValues></_></weakClassifiers></stage7>
</opencv_storage>
