<?xml version="1.0"?>
<opencv_storage>
<stage6>
  <maxWeakCount>5</maxWeakCount>
  <stageThreshold>-7.5029128789901733e-01</stageThreshold>
  <weakClassifiers>
    <_>
      <internalNodes>
        0 -1 873155 -1.8051091581583023e-02</internalNodes>
      <leafValues>
        8.3171522617340088e-01 -5.3672313690185547e-01</leafValues></_>
    <_>
      <internalNodes>
        0 -1 372455 6.6334404982626438e-03</internalNodes>
      <leafValues>
        -6.3035571575164795e-01 7.0515972375869751e-01</leafValues></_>
    <_>
      <internalNodes>
        0 -1 1097477 -9.3310587108135223e-03</internalNodes>
      <leafValues>
        5.2895587682723999e-01 -7.2940742969512939e-01</leafValues></_>
    <_>
      <internalNodes>
        0 -1 870692 -6.7160166800022125e-02</internalNodes>
      <leafValues>
        7.1906173229217529e-01 -5.0470203161239624e-01</leafValues></_>
    <_>
      <internalNodes>
        0 -1 583356 -1.7028357251547277e-04</internalNodes>
      <leafValues>
        -8.5234546661376953e-01 3.9253371953964233e-01</leafValues></_></weakClassifiers></stage6>
</opencv_storage>
