<?xml version="1.0"?>
<opencv_storage>
<cascade>
  <stageType>BOOST</stageType>
  <featureType>HAAR</featureType>
  <height>40</height>
  <width>40</width>
  <stageParams>
    <boostType>GAB</boostType>
    <minHitRate>9.9500000476837158e-01</minHitRate>
    <maxFalseAlarm>5.0000000000000000e-01</maxFalseAlarm>
    <weightTrimRate>9.4999999999999996e-01</weightTrimRate>
    <maxDepth>1</maxDepth>
    <maxWeakCount>100</maxWeakCount></stageParams>
  <featureParams>
    <maxCatCount>0</maxCatCount>
    <featSize>1</featSize>
    <mode>BASIC</mode></featureParams>
  <stageNum>10</stageNum>
  <stages>
    <!-- stage 0 -->
    <_>
      <maxWeakCount>1</maxWeakCount>
      <stageThreshold>1.</stageThreshold>
      <weakClassifiers>
        <_>
          <internalNodes>
            0 -1 1 4.9395677633583546e-03</internalNodes>
          <leafValues>
            1. -1.</leafValues></_></weakClassifiers></_>
    <!-- stage 1 -->
    <_>
      <maxWeakCount>1</maxWeakCount>
      <stageThreshold>1.</stageThreshold>
      <weakClassifiers>
        <_>
          <internalNodes>
            0 -1 2 2.3372042179107666e-01</internalNodes>
          <leafValues>
            1. -1.</leafValues></_></weakClassifiers></_>
    <!-- stage 2 -->
    <_>
      <maxWeakCount>1</maxWeakCount>
      <stageThreshold>1.</stageThreshold>
      <weakClassifiers>
        <_>
          <internalNodes>
            0 -1 0 -1.9725961610674858e-03</internalNodes>
          <leafValues>
            -1. 1.</leafValues></_></weakClassifiers></_>
    <!-- stage 3 -->
    <_>
      <maxWeakCount>2</maxWeakCount>
      <stageThreshold>-1.1123749613761902e-01</stageThreshold>
      <weakClassifiers>
        <_>
          <internalNodes>
            0 -1 23 -4.2290255427360535e-02</internalNodes>
          <leafValues>
            9.1015625000000000e-01 -9.0756303071975708e-01</leafValues></_>
        <_>
          <internalNodes>
            0 -1 6 3.5259187221527100e-02</internalNodes>
          <leafValues>
            -9.1804838180541992e-01 7.9632550477981567e-01</leafValues></_></weakClassifiers></_>
    <!-- stage 4 -->
    <_>
      <maxWeakCount>4</maxWeakCount>
      <stageThreshold>-1.8906685709953308e-01</stageThreshold>
      <weakClassifiers>
        <_>
          <internalNodes>
            0 -1 13 -5.6300335563719273e-03</internalNodes>
          <leafValues>
            8.0340266227722168e-01 -7.9185521602630615e-01</leafValues></_>
        <_>
          <internalNodes>
            0 -1 8 -3.7749283015727997e-02</internalNodes>
          <leafValues>
            7.1218049526214600e-01 -7.7901864051818848e-01</leafValues></_>
        <_>
          <internalNodes>
            0 -1 12 -7.4246255680918694e-03</internalNodes>
          <leafValues>
            8.5191494226455688e-01 -6.1648184061050415e-01</leafValues></_>
        <_>
          <internalNodes>
            0 -1 15 3.0536542180925608e-03</internalNodes>
          <leafValues>
            -9.8504394292831421e-01 5.2989202737808228e-01</leafValues></_></weakClassifiers></_>
    <!-- stage 5 -->
    <_>
      <maxWeakCount>4</maxWeakCount>
      <stageThreshold>-3.5192865133285522e-01</stageThreshold>
      <weakClassifiers>
        <_>
          <internalNodes>
            0 -1 22 -6.0540221631526947e-02</internalNodes>
          <leafValues>
            8.2945734262466431e-01 -7.6068377494812012e-01</leafValues></_>
        <_>
          <internalNodes>
            0 -1 3 -2.2955117747187614e-03</internalNodes>
          <leafValues>
            7.2650319337844849e-01 -8.0207926034927368e-01</leafValues></_>
        <_>
          <internalNodes>
            0 -1 20 8.2886833697557449e-03</internalNodes>
          <leafValues>
            -9.0142405033111572e-01 5.6434249877929688e-01</leafValues></_>
        <_>
          <internalNodes>
            0 -1 9 -2.4333833716809750e-03</internalNodes>
          <leafValues>
            6.4649188518524170e-01 -8.6637890338897705e-01</leafValues></_></weakClassifiers></_>
    <!-- stage 6 -->
    <_>
      <maxWeakCount>4</maxWeakCount>
      <stageThreshold>-4.0280222892761230e-01</stageThreshold>
      <weakClassifiers>
        <_>
          <internalNodes>
            0 -1 7 2.4369556456804276e-02</internalNodes>
          <leafValues>
            -7.2511845827102661e-01 7.4768090248107910e-01</leafValues></_>
        <_>
          <internalNodes>
            0 -1 25 -3.2975770533084869e-02</internalNodes>
          <leafValues>
            7.2791647911071777e-01 -6.3487231731414795e-01</leafValues></_>
        <_>
          <internalNodes>
            0 -1 10 -3.8152476918185130e-05</internalNodes>
          <leafValues>
            -9.2214047908782959e-01 4.8389440774917603e-01</leafValues></_>
        <_>
          <internalNodes>
            0 -1 19 8.1141217378899455e-04</internalNodes>
          <leafValues>
            -7.3526132106781006e-01 5.1654028892517090e-01</leafValues></_></weakClassifiers></_>
    <!-- stage 7 -->
    <_>
      <maxWeakCount>2</maxWeakCount>
      <stageThreshold>-4.0317918173968792e-03</stageThreshold>
      <weakClassifiers>
        <_>
          <internalNodes>
            0 -1 5 1.0006217658519745e-01</internalNodes>
          <leafValues>
            -6.5638768672943115e-01 7.6290631294250488e-01</leafValues></_>
        <_>
          <internalNodes>
            0 -1 17 1.1466282885521650e-03</internalNodes>
          <leafValues>
            -7.2755539417266846e-01 6.5235584974288940e-01</leafValues></_></weakClassifiers></_>
    <!-- stage 8 -->
    <_>
      <maxWeakCount>4</maxWeakCount>
      <stageThreshold>-3.7755841016769409e-01</stageThreshold>
      <weakClassifiers>
        <_>
          <internalNodes>
            0 -1 16 1.2884133320767432e-04</internalNodes>
          <leafValues>
            -8.3749997615814209e-01 6.5084743499755859e-01</leafValues></_>
        <_>
          <internalNodes>
            0 -1 26 1.0137534700334072e-03</internalNodes>
          <leafValues>
            -6.7773956060409546e-01 6.6116625070571899e-01</leafValues></_>
        <_>
          <internalNodes>
            0 -1 18 2.7797981165349483e-03</internalNodes>
          <leafValues>
            -6.0321819782257080e-01 6.3087052106857300e-01</leafValues></_>
        <_>
          <internalNodes>
            0 -1 11 -2.2290344350039959e-03</internalNodes>
          <leafValues>
            4.0199357271194458e-01 -9.5846116542816162e-01</leafValues></_></weakClassifiers></_>
    <!-- stage 9 -->
    <_>
      <maxWeakCount>4</maxWeakCount>
      <stageThreshold>-1.2198367118835449e+00</stageThreshold>
      <weakClassifiers>
        <_>
          <internalNodes>
            0 -1 21 -5.2165046334266663e-02</internalNodes>
          <leafValues>
            7.0567375421524048e-01 -7.9569894075393677e-01</leafValues></_>
        <_>
          <internalNodes>
            0 -1 4 -3.9013594388961792e-02</internalNodes>
          <leafValues>
            8.3378815650939941e-01 -4.7275349497795105e-01</leafValues></_>
        <_>
          <internalNodes>
            0 -1 14 -2.6847133412957191e-03</internalNodes>
          <leafValues>
            5.7388883829116821e-01 -7.5420445203781128e-01</leafValues></_>
        <_>
          <internalNodes>
            0 -1 24 -1.5570828691124916e-03</internalNodes>
          <leafValues>
            5.3362095355987549e-01 -6.9855248928070068e-01</leafValues></_></weakClassifiers></_></stages>
  <features>
    <_>
      <rects>
        <_>
          0 0 2 2 -1.</_>
        <_>
          0 0 1 1 2.</_>
        <_>
          1 1 1 1 2.</_></rects>
      <tilted>0</tilted></_>
    <_>
      <rects>
        <_>
          0 0 2 8 -1.</_>
        <_>
          0 0 1 4 2.</_>
        <_>
          1 4 1 4 2.</_></rects>
      <tilted>0</tilted></_>
    <_>
      <rects>
        <_>
          0 0 20 27 -1.</_>
        <_>
          10 0 10 27 2.</_></rects>
      <tilted>0</tilted></_>
    <_>
      <rects>
        <_>
          0 23 14 7 -1.</_>
        <_>
          7 23 7 7 2.</_></rects>
      <tilted>0</tilted></_>
    <_>
      <rects>
        <_>
          1 27 28 10 -1.</_>
        <_>
          1 27 14 5 2.</_>
        <_>
          15 32 14 5 2.</_></rects>
      <tilted>0</tilted></_>
    <_>
      <rects>
        <_>
          3 3 26 28 -1.</_>
        <_>
          3 3 13 14 2.</_>
        <_>
          16 17 13 14 2.</_></rects>
      <tilted>0</tilted></_>
    <_>
      <rects>
        <_>
          3 10 28 16 -1.</_>
        <_>
          3 10 14 8 2.</_>
        <_>
          17 18 14 8 2.</_></rects>
      <tilted>0</tilted></_>
    <_>
      <rects>
        <_>
          4 5 16 16 -1.</_>
        <_>
          4 5 8 8 2.</_>
        <_>
          12 13 8 8 2.</_></rects>
      <tilted>0</tilted></_>
    <_>
      <rects>
        <_>
          5 22 24 18 -1.</_>
        <_>
          5 22 12 9 2.</_>
        <_>
          17 31 12 9 2.</_></rects>
      <tilted>0</tilted></_>
    <_>
      <rects>
        <_>
          7 16 14 12 -1.</_>
        <_>
          7 16 7 6 2.</_>
        <_>
          14 22 7 6 2.</_></rects>
      <tilted>0</tilted></_>
    <_>
      <rects>
        <_>
          9 30 6 8 -1.</_>
        <_>
          9 34 6 4 2.</_></rects>
      <tilted>0</tilted></_>
    <_>
      <rects>
        <_>
          12 3 1 32 -1.</_>
        <_>
          12 19 1 16 2.</_></rects>
      <tilted>0</tilted></_>
    <_>
      <rects>
        <_>
          13 2 18 4 -1.</_>
        <_>
          13 4 18 2 2.</_></rects>
      <tilted>0</tilted></_>
    <_>
      <rects>
        <_>
          15 6 12 14 -1.</_>
        <_>
          15 6 6 7 2.</_>
        <_>
          21 13 6 7 2.</_></rects>
      <tilted>0</tilted></_>
    <_>
      <rects>
        <_>
          16 11 10 8 -1.</_>
        <_>
          16 11 5 4 2.</_>
        <_>
          21 15 5 4 2.</_></rects>
      <tilted>0</tilted></_>
    <_>
      <rects>
        <_>
          17 10 6 24 -1.</_>
        <_>
          17 10 3 12 2.</_>
        <_>
          20 22 3 12 2.</_></rects>
      <tilted>0</tilted></_>
    <_>
      <rects>
        <_>
          17 22 4 1 -1.</_>
        <_>
          19 22 2 1 2.</_></rects>
      <tilted>0</tilted></_>
    <_>
      <rects>
        <_>
          18 19 6 4 -1.</_>
        <_>
          18 19 3 2 2.</_>
        <_>
          21 21 3 2 2.</_></rects>
      <tilted>0</tilted></_>
    <_>
      <rects>
        <_>
          20 16 3 6 -1.</_>
        <_>
          20 19 3 3 2.</_></rects>
      <tilted>0</tilted></_>
    <_>
      <rects>
        <_>
          20 25 6 2 -1.</_>
        <_>
          23 25 3 2 2.</_></rects>
      <tilted>0</tilted></_>
    <_>
      <rects>
        <_>
          22 17 16 12 -1.</_>
        <_>
          22 23 16 6 2.</_></rects>
      <tilted>0</tilted></_>
    <_>
      <rects>
        <_>
          23 4 16 24 -1.</_>
        <_>
          23 4 8 12 2.</_>
        <_>
          31 16 8 12 2.</_></rects>
      <tilted>0</tilted></_>
    <_>
      <rects>
        <_>
          23 4 16 26 -1.</_>
        <_>
          23 4 8 13 2.</_>
        <_>
          31 17 8 13 2.</_></rects>
      <tilted>0</tilted></_>
    <_>
      <rects>
        <_>
          25 4 14 28 -1.</_>
        <_>
          25 4 7 14 2.</_>
        <_>
          32 18 7 14 2.</_></rects>
      <tilted>0</tilted></_>
    <_>
      <rects>
        <_>
          27 4 6 4 -1.</_>
        <_>
          27 6 6 2 2.</_></rects>
      <tilted>0</tilted></_>
    <_>
      <rects>
        <_>
          28 5 10 22 -1.</_>
        <_>
          28 5 5 11 2.</_>
        <_>
          33 16 5 11 2.</_></rects>
      <tilted>0</tilted></_>
    <_>
      <rects>
        <_>
          33 10 6 2 -1.</_>
        <_>
          36 10 3 2 2.</_></rects>
      <tilted>0</tilted></_></features></cascade>
</opencv_storage>
