<?xml version="1.0"?>
<opencv_storage>
<cascade>
  <stageType>BOOST</stageType>
  <featureType>HAAR</featureType>
  <height>40</height>
  <width>40</width>
  <stageParams>
    <boostType>GAB</boostType>
    <minHitRate>9.9500000476837158e-01</minHitRate>
    <maxFalseAlarm>5.0000000000000000e-01</maxFalseAlarm>
    <weightTrimRate>9.4999999999999996e-01</weightTrimRate>
    <maxDepth>1</maxDepth>
    <maxWeakCount>100</maxWeakCount></stageParams>
  <featureParams>
    <maxCatCount>0</maxCatCount>
    <featSize>1</featSize>
    <mode>BASIC</mode></featureParams>
  <stageNum>10</stageNum>
  <stages>
    <!-- stage 0 -->
    <_>
      <maxWeakCount>1</maxWeakCount>
      <stageThreshold>1.</stageThreshold>
      <weakClassifiers>
        <_>
          <internalNodes>
            0 -1 2 5.5137667804956436e-03</internalNodes>
          <leafValues>
            1. -1.</leafValues></_></weakClassifiers></_>
    <!-- stage 1 -->
    <_>
      <maxWeakCount>1</maxWeakCount>
      <stageThreshold>1.</stageThreshold>
      <weakClassifiers>
        <_>
          <internalNodes>
            0 -1 1 -1.0315969120711088e-03</internalNodes>
          <leafValues>
            1. -1.</leafValues></_></weakClassifiers></_>
    <!-- stage 2 -->
    <_>
      <maxWeakCount>1</maxWeakCount>
      <stageThreshold>1.</stageThreshold>
      <weakClassifiers>
        <_>
          <internalNodes>
            0 -1 0 -1.4989004703238606e-03</internalNodes>
          <leafValues>
            -1. 1.</leafValues></_></weakClassifiers></_>
    <!-- stage 3 -->
    <_>
      <maxWeakCount>2</maxWeakCount>
      <stageThreshold>-1.0756014846265316e-02</stageThreshold>
      <weakClassifiers>
        <_>
          <internalNodes>
            0 -1 16 2.2120198234915733e-02</internalNodes>
          <leafValues>
            -9.4354838132858276e-01 9.6414345502853394e-01</leafValues></_>
        <_>
          <internalNodes>
            0 -1 9 1.3646430335938931e-02</internalNodes>
          <leafValues>
            -9.2208158969879150e-01 9.3279236555099487e-01</leafValues></_></weakClassifiers></_>
    <!-- stage 4 -->
    <_>
      <maxWeakCount>3</maxWeakCount>
      <stageThreshold>-9.0578317642211914e-01</stageThreshold>
      <weakClassifiers>
        <_>
          <internalNodes>
            0 -1 4 -2.0412445068359375e-02</internalNodes>
          <leafValues>
            9.1269838809967041e-01 -8.5365855693817139e-01</leafValues></_>
        <_>
          <internalNodes>
            0 -1 20 -7.0749432779848576e-03</internalNodes>
          <leafValues>
            8.5027116537094116e-01 -8.4722208976745605e-01</leafValues></_>
        <_>
          <internalNodes>
            0 -1 15 -1.0457285679876804e-02</internalNodes>
          <leafValues>
            7.9509741067886353e-01 -8.9155042171478271e-01</leafValues></_></weakClassifiers></_>
    <!-- stage 5 -->
    <_>
      <maxWeakCount>3</maxWeakCount>
      <stageThreshold>-9.2068940401077271e-01</stageThreshold>
      <weakClassifiers>
        <_>
          <internalNodes>
            0 -1 11 6.7343330010771751e-03</internalNodes>
          <leafValues>
            -8.9121341705322266e-01 9.0606653690338135e-01</leafValues></_>
        <_>
          <internalNodes>
            0 -1 14 -2.0207868888974190e-02</internalNodes>
          <leafValues>
            8.6060118675231934e-01 -8.7124413251876831e-01</leafValues></_>
        <_>
          <internalNodes>
            0 -1 12 -3.2705217599868774e-02</internalNodes>
          <leafValues>
            8.4176814556121826e-01 -7.7261322736740112e-01</leafValues></_></weakClassifiers></_>
    <!-- stage 6 -->
    <_>
      <maxWeakCount>2</maxWeakCount>
      <stageThreshold>-5.4626937955617905e-02</stageThreshold>
      <weakClassifiers>
        <_>
          <internalNodes>
            0 -1 19 -3.9872080087661743e-02</internalNodes>
          <leafValues>
            8.8053947687149048e-01 -8.9610391855239868e-01</leafValues></_>
        <_>
          <internalNodes>
            0 -1 10 1.3345688581466675e-02</internalNodes>
          <leafValues>
            -9.3350261449813843e-01 8.4147697687149048e-01</leafValues></_></weakClassifiers></_>
    <!-- stage 7 -->
    <_>
      <maxWeakCount>3</maxWeakCount>
      <stageThreshold>-8.4110593795776367e-01</stageThreshold>
      <weakClassifiers>
        <_>
          <internalNodes>
            0 -1 17 -1.2128962203860283e-02</internalNodes>
          <leafValues>
            8.9221554994583130e-01 -7.9116463661193848e-01</leafValues></_>
        <_>
          <internalNodes>
            0 -1 7 4.5683845877647400e-02</internalNodes>
          <leafValues>
            -6.9225400686264038e-01 8.6776041984558105e-01</leafValues></_>
        <_>
          <internalNodes>
            0 -1 3 7.3039010167121887e-03</internalNodes>
          <leafValues>
            -9.2874062061309814e-01 6.4231270551681519e-01</leafValues></_></weakClassifiers></_>
    <!-- stage 8 -->
    <_>
      <maxWeakCount>4</maxWeakCount>
      <stageThreshold>-4.2090538144111633e-01</stageThreshold>
      <weakClassifiers>
        <_>
          <internalNodes>
            0 -1 5 1.9397102296352386e-02</internalNodes>
          <leafValues>
            -8.5436892509460449e-01 7.8308820724487305e-01</leafValues></_>
        <_>
          <internalNodes>
            0 -1 6 8.7233288213610649e-03</internalNodes>
          <leafValues>
            -7.1436905860900879e-01 8.1998181343078613e-01</leafValues></_>
        <_>
          <internalNodes>
            0 -1 18 -4.2127710767090321e-03</internalNodes>
          <leafValues>
            6.2252306938171387e-01 -8.5323828458786011e-01</leafValues></_>
        <_>
          <internalNodes>
            0 -1 8 1.7266659415327013e-04</internalNodes>
          <leafValues>
            -9.9396848678588867e-01 5.2530956268310547e-01</leafValues></_></weakClassifiers></_>
    <!-- stage 9 -->
    <_>
      <maxWeakCount>2</maxWeakCount>
      <stageThreshold>3.3267524093389511e-02</stageThreshold>
      <weakClassifiers>
        <_>
          <internalNodes>
            0 -1 13 3.5202689468860626e-02</internalNodes>
          <leafValues>
            -6.1313867568969727e-01 8.7815123796463013e-01</leafValues></_>
        <_>
          <internalNodes>
            0 -1 21 -5.9550791047513485e-04</internalNodes>
          <leafValues>
            6.4640623331069946e-01 -9.4450330734252930e-01</leafValues></_></weakClassifiers></_></stages>
  <features>
    <_>
      <rects>
        <_>
          0 0 2 2 -1.</_>
        <_>
          0 0 1 1 2.</_>
        <_>
          1 1 1 1 2.</_></rects>
      <tilted>0</tilted></_>
    <_>
      <rects>
        <_>
          0 0 2 9 -1.</_>
        <_>
          0 3 2 3 2.</_></rects>
      <tilted>0</tilted></_>
    <_>
      <rects>
        <_>
          0 1 2 6 -1.</_>
        <_>
          0 1 1 3 2.</_>
        <_>
          1 4 1 3 2.</_></rects>
      <tilted>0</tilted></_>
    <_>
      <rects>
        <_>
          6 1 12 14 -1.</_>
        <_>
          6 1 6 7 2.</_>
        <_>
          12 8 6 7 2.</_></rects>
      <tilted>0</tilted></_>
    <_>
      <rects>
        <_>
          6 9 12 14 -1.</_>
        <_>
          6 9 6 7 2.</_>
        <_>
          12 16 6 7 2.</_></rects>
      <tilted>0</tilted></_>
    <_>
      <rects>
        <_>
          6 28 18 5 -1.</_>
        <_>
          15 28 9 5 2.</_></rects>
      <tilted>0</tilted></_>
    <_>
      <rects>
        <_>
          10 6 9 6 -1.</_>
        <_>
          10 9 9 3 2.</_></rects>
      <tilted>0</tilted></_>
    <_>
      <rects>
        <_>
          13 4 17 10 -1.</_>
        <_>
          13 9 17 5 2.</_></rects>
      <tilted>0</tilted></_>
    <_>
      <rects>
        <_>
          13 6 3 28 -1.</_>
        <_>
          13 20 3 14 2.</_></rects>
      <tilted>0</tilted></_>
    <_>
      <rects>
        <_>
          13 20 7 10 -1.</_>
        <_>
          13 25 7 5 2.</_></rects>
      <tilted>0</tilted></_>
    <_>
      <rects>
        <_>
          15 14 8 12 -1.</_>
        <_>
          19 14 4 12 2.</_></rects>
      <tilted>0</tilted></_>
    <_>
      <rects>
        <_>
          16 16 8 4 -1.</_>
        <_>
          20 16 4 4 2.</_></rects>
      <tilted>0</tilted></_>
    <_>
      <rects>
        <_>
          17 28 11 10 -1.</_>
        <_>
          17 33 11 5 2.</_></rects>
      <tilted>0</tilted></_>
    <_>
      <rects>
        <_>
          19 3 9 10 -1.</_>
        <_>
          19 8 9 5 2.</_></rects>
      <tilted>0</tilted></_>
    <_>
      <rects>
        <_>
          19 6 16 8 -1.</_>
        <_>
          27 6 8 8 2.</_></rects>
      <tilted>0</tilted></_>
    <_>
      <rects>
        <_>
          19 28 4 12 -1.</_>
        <_>
          19 34 4 6 2.</_></rects>
      <tilted>0</tilted></_>
    <_>
      <rects>
        <_>
          21 2 6 14 -1.</_>
        <_>
          21 9 6 7 2.</_></rects>
      <tilted>0</tilted></_>
    <_>
      <rects>
        <_>
          22 22 16 8 -1.</_>
        <_>
          22 22 8 4 2.</_>
        <_>
          30 26 8 4 2.</_></rects>
      <tilted>0</tilted></_>
    <_>
      <rects>
        <_>
          24 13 2 12 -1.</_>
        <_>
          24 19 2 6 2.</_></rects>
      <tilted>0</tilted></_>
    <_>
      <rects>
        <_>
          27 13 12 18 -1.</_>
        <_>
          33 13 6 18 2.</_></rects>
      <tilted>0</tilted></_>
    <_>
      <rects>
        <_>
          29 14 8 4 -1.</_>
        <_>
          33 14 4 4 2.</_></rects>
      <tilted>0</tilted></_>
    <_>
      <rects>
        <_>
          30 8 2 10 -1.</_>
        <_>
          31 8 1 10 2.</_></rects>
      <tilted>0</tilted></_></features></cascade>
</opencv_storage>
