<?xml version="1.0"?>
<opencv_storage>
<cascade>
  <stageType>BOOST</stageType>
  <featureType>HAAR</featureType>
  <height>40</height>
  <width>40</width>
  <stageParams>
    <boostType>GAB</boostType>
    <minHitRate>9.9500000476837158e-01</minHitRate>
    <maxFalseAlarm>5.0000000000000000e-01</maxFalseAlarm>
    <weightTrimRate>9.4999999999999996e-01</weightTrimRate>
    <maxDepth>1</maxDepth>
    <maxWeakCount>100</maxWeakCount></stageParams>
  <featureParams>
    <maxCatCount>0</maxCatCount>
    <featSize>1</featSize>
    <mode>BASIC</mode></featureParams>
  <stageNum>10</stageNum>
  <stages>
    <!-- stage 0 -->
    <_>
      <maxWeakCount>1</maxWeakCount>
      <stageThreshold>1.</stageThreshold>
      <weakClassifiers>
        <_>
          <internalNodes>
            0 -1 1 -5.8402621652930975e-04</internalNodes>
          <leafValues>
            -1. 1.</leafValues></_></weakClassifiers></_>
    <!-- stage 1 -->
    <_>
      <maxWeakCount>1</maxWeakCount>
      <stageThreshold>1.</stageThreshold>
      <weakClassifiers>
        <_>
          <internalNodes>
            0 -1 2 -1.3968821149319410e-03</internalNodes>
          <leafValues>
            -1. 1.</leafValues></_></weakClassifiers></_>
    <!-- stage 2 -->
    <_>
      <maxWeakCount>1</maxWeakCount>
      <stageThreshold>1.</stageThreshold>
      <weakClassifiers>
        <_>
          <internalNodes>
            0 -1 0 -1.2960344320163131e-03</internalNodes>
          <leafValues>
            -1. 1.</leafValues></_></weakClassifiers></_>
    <!-- stage 3 -->
    <_>
      <maxWeakCount>3</maxWeakCount>
      <stageThreshold>-7.4792647361755371e-01</stageThreshold>
      <weakClassifiers>
        <_>
          <internalNodes>
            0 -1 4 3.4574627876281738e-02</internalNodes>
          <leafValues>
            -8.1538462638854980e-01 9.4285714626312256e-01</leafValues></_>
        <_>
          <internalNodes>
            0 -1 19 -1.2589878402650356e-02</internalNodes>
          <leafValues>
            9.1474717855453491e-01 -7.0091015100479126e-01</leafValues></_>
        <_>
          <internalNodes>
            0 -1 26 -4.3454486876726151e-02</internalNodes>
          <leafValues>
            -8.3814769983291626e-01 7.6836824417114258e-01</leafValues></_></weakClassifiers></_>
    <!-- stage 4 -->
    <_>
      <maxWeakCount>3</maxWeakCount>
      <stageThreshold>-6.3902395963668823e-01</stageThreshold>
      <weakClassifiers>
        <_>
          <internalNodes>
            0 -1 9 2.8057400137186050e-02</internalNodes>
          <leafValues>
            -7.0479702949523926e-01 9.2066806554794312e-01</leafValues></_>
        <_>
          <internalNodes>
            0 -1 10 -1.7165441066026688e-02</internalNodes>
          <leafValues>
            8.3158802986145020e-01 -7.8840738534927368e-01</leafValues></_>
        <_>
          <internalNodes>
            0 -1 16 -2.7411829680204391e-02</internalNodes>
          <leafValues>
            8.5418051481246948e-01 -6.3795107603073120e-01</leafValues></_></weakClassifiers></_>
    <!-- stage 5 -->
    <_>
      <maxWeakCount>4</maxWeakCount>
      <stageThreshold>-4.4030743837356567e-01</stageThreshold>
      <weakClassifiers>
        <_>
          <internalNodes>
            0 -1 22 -2.0960103720426559e-02</internalNodes>
          <leafValues>
            8.4765625000000000e-01 -7.7310925722122192e-01</leafValues></_>
        <_>
          <internalNodes>
            0 -1 8 2.1626647561788559e-02</internalNodes>
          <leafValues>
            -7.8011721372604370e-01 7.9018580913543701e-01</leafValues></_>
        <_>
          <internalNodes>
            0 -1 21 -4.9194735474884510e-03</internalNodes>
          <leafValues>
            6.5122848749160767e-01 -7.3833757638931274e-01</leafValues></_>
        <_>
          <internalNodes>
            0 -1 13 -2.4436023086309433e-03</internalNodes>
          <leafValues>
            -9.0267699956893921e-01 4.6169051527976990e-01</leafValues></_></weakClassifiers></_>
    <!-- stage 6 -->
    <_>
      <maxWeakCount>5</maxWeakCount>
      <stageThreshold>-1.0529639720916748e+00</stageThreshold>
      <weakClassifiers>
        <_>
          <internalNodes>
            0 -1 20 -7.6199119212105870e-04</internalNodes>
          <leafValues>
            7.9737335443496704e-01 -8.0645161867141724e-01</leafValues></_>
        <_>
          <internalNodes>
            0 -1 7 4.1965432465076447e-02</internalNodes>
          <leafValues>
            -6.3015437126159668e-01 8.2662194967269897e-01</leafValues></_>
        <_>
          <internalNodes>
            0 -1 12 8.8181125465780497e-04</internalNodes>
          <leafValues>
            -9.2943620681762695e-01 5.3426754474639893e-01</leafValues></_>
        <_>
          <internalNodes>
            0 -1 18 -1.7934825271368027e-02</internalNodes>
          <leafValues>
            8.0742388963699341e-01 -6.0936564207077026e-01</leafValues></_>
        <_>
          <internalNodes>
            0 -1 17 -2.3570121265947819e-04</internalNodes>
          <leafValues>
            -9.7420847415924072e-01 4.5874017477035522e-01</leafValues></_></weakClassifiers></_>
    <!-- stage 7 -->
    <_>
      <maxWeakCount>3</maxWeakCount>
      <stageThreshold>-5.3530937433242798e-01</stageThreshold>
      <weakClassifiers>
        <_>
          <internalNodes>
            0 -1 6 -1.7985794693231583e-02</internalNodes>
          <leafValues>
            8.4178501367568970e-01 -6.4202332496643066e-01</leafValues></_>
        <_>
          <internalNodes>
            0 -1 3 4.8951089382171631e-02</internalNodes>
          <leafValues>
            -6.7934018373489380e-01 7.8657370805740356e-01</leafValues></_>
        <_>
          <internalNodes>
            0 -1 24 -2.6479896157979965e-02</internalNodes>
          <leafValues>
            7.8605413436889648e-01 -5.5143553018569946e-01</leafValues></_></weakClassifiers></_>
    <!-- stage 8 -->
    <_>
      <maxWeakCount>4</maxWeakCount>
      <stageThreshold>-4.6829208731651306e-01</stageThreshold>
      <weakClassifiers>
        <_>
          <internalNodes>
            0 -1 23 1.6445441171526909e-02</internalNodes>
          <leafValues>
            -5.7735848426818848e-01 8.3092784881591797e-01</leafValues></_>
        <_>
          <internalNodes>
            0 -1 5 3.0397722497582436e-02</internalNodes>
          <leafValues>
            -7.1918565034866333e-01 6.5977901220321655e-01</leafValues></_>
        <_>
          <internalNodes>
            0 -1 15 -4.1519018122926354e-04</internalNodes>
          <leafValues>
            -1. 4.3458554148674011e-01</leafValues></_>
        <_>
          <internalNodes>
            0 -1 11 -4.3597530748229474e-05</internalNodes>
          <leafValues>
            -9.1135573387145996e-01 3.9366650581359863e-01</leafValues></_></weakClassifiers></_>
    <!-- stage 9 -->
    <_>
      <maxWeakCount>2</maxWeakCount>
      <stageThreshold>1.5949968248605728e-02</stageThreshold>
      <weakClassifiers>
        <_>
          <internalNodes>
            0 -1 14 3.6320797516964376e-04</internalNodes>
          <leafValues>
            6.9125217199325562e-01 -9.1616767644882202e-01</leafValues></_>
        <_>
          <internalNodes>
            0 -1 25 -4.1966632008552551e-02</internalNodes>
          <leafValues>
            9.3211764097213745e-01 -5.3815042972564697e-01</leafValues></_></weakClassifiers></_></stages>
  <features>
    <_>
      <rects>
        <_>
          0 0 1 2 -1.</_>
        <_>
          0 1 1 1 2.</_></rects>
      <tilted>0</tilted></_>
    <_>
      <rects>
        <_>
          0 0 2 2 -1.</_>
        <_>
          0 0 1 1 2.</_>
        <_>
          1 1 1 1 2.</_></rects>
      <tilted>0</tilted></_>
    <_>
      <rects>
        <_>
          0 0 2 4 -1.</_>
        <_>
          0 0 1 2 2.</_>
        <_>
          1 2 1 2 2.</_></rects>
      <tilted>0</tilted></_>
    <_>
      <rects>
        <_>
          2 2 26 12 -1.</_>
        <_>
          2 2 13 6 2.</_>
        <_>
          15 8 13 6 2.</_></rects>
      <tilted>0</tilted></_>
    <_>
      <rects>
        <_>
          2 3 24 12 -1.</_>
        <_>
          2 3 12 6 2.</_>
        <_>
          14 9 12 6 2.</_></rects>
      <tilted>0</tilted></_>
    <_>
      <rects>
        <_>
          2 4 18 14 -1.</_>
        <_>
          2 4 9 7 2.</_>
        <_>
          11 11 9 7 2.</_></rects>
      <tilted>0</tilted></_>
    <_>
      <rects>
        <_>
          2 23 14 14 -1.</_>
        <_>
          2 23 7 7 2.</_>
        <_>
          9 30 7 7 2.</_></rects>
      <tilted>0</tilted></_>
    <_>
      <rects>
        <_>
          4 0 10 28 -1.</_>
        <_>
          4 0 5 14 2.</_>
        <_>
          9 14 5 14 2.</_></rects>
      <tilted>0</tilted></_>
    <_>
      <rects>
        <_>
          4 2 10 22 -1.</_>
        <_>
          4 2 5 11 2.</_>
        <_>
          9 13 5 11 2.</_></rects>
      <tilted>0</tilted></_>
    <_>
      <rects>
        <_>
          4 3 22 10 -1.</_>
        <_>
          4 3 11 5 2.</_>
        <_>
          15 8 11 5 2.</_></rects>
      <tilted>0</tilted></_>
    <_>
      <rects>
        <_>
          4 26 16 14 -1.</_>
        <_>
          4 26 8 7 2.</_>
        <_>
          12 33 8 7 2.</_></rects>
      <tilted>0</tilted></_>
    <_>
      <rects>
        <_>
          6 28 20 2 -1.</_>
        <_>
          6 28 10 1 2.</_>
        <_>
          16 29 10 1 2.</_></rects>
      <tilted>0</tilted></_>
    <_>
      <rects>
        <_>
          7 11 25 4 -1.</_>
        <_>
          7 13 25 2 2.</_></rects>
      <tilted>0</tilted></_>
    <_>
      <rects>
        <_>
          17 12 6 12 -1.</_>
        <_>
          17 18 6 6 2.</_></rects>
      <tilted>0</tilted></_>
    <_>
      <rects>
        <_>
          18 13 2 18 -1.</_>
        <_>
          18 13 1 9 2.</_>
        <_>
          19 22 1 9 2.</_></rects>
      <tilted>0</tilted></_>
    <_>
      <rects>
        <_>
          18 13 2 20 -1.</_>
        <_>
          18 13 1 10 2.</_>
        <_>
          19 23 1 10 2.</_></rects>
      <tilted>0</tilted></_>
    <_>
      <rects>
        <_>
          19 3 18 12 -1.</_>
        <_>
          19 3 9 6 2.</_>
        <_>
          28 9 9 6 2.</_></rects>
      <tilted>0</tilted></_>
    <_>
      <rects>
        <_>
          20 27 6 2 -1.</_>
        <_>
          20 28 6 1 2.</_></rects>
      <tilted>0</tilted></_>
    <_>
      <rects>
        <_>
          22 3 14 10 -1.</_>
        <_>
          22 3 7 5 2.</_>
        <_>
          29 8 7 5 2.</_></rects>
      <tilted>0</tilted></_>
    <_>
      <rects>
        <_>
          22 6 18 8 -1.</_>
        <_>
          22 6 9 4 2.</_>
        <_>
          31 10 9 4 2.</_></rects>
      <tilted>0</tilted></_>
    <_>
      <rects>
        <_>
          23 7 6 5 -1.</_>
        <_>
          26 7 3 5 2.</_></rects>
      <tilted>0</tilted></_>
    <_>
      <rects>
        <_>
          24 28 4 10 -1.</_>
        <_>
          24 33 4 5 2.</_></rects>
      <tilted>0</tilted></_>
    <_>
      <rects>
        <_>
          26 5 14 16 -1.</_>
        <_>
          26 5 7 8 2.</_>
        <_>
          33 13 7 8 2.</_></rects>
      <tilted>0</tilted></_>
    <_>
      <rects>
        <_>
          28 22 12 16 -1.</_>
        <_>
          28 22 6 8 2.</_>
        <_>
          34 30 6 8 2.</_></rects>
      <tilted>0</tilted></_>
    <_>
      <rects>
        <_>
          29 6 10 18 -1.</_>
        <_>
          29 6 5 9 2.</_>
        <_>
          34 15 5 9 2.</_></rects>
      <tilted>0</tilted></_>
    <_>
      <rects>
        <_>
          29 11 8 18 -1.</_>
        <_>
          33 11 4 18 2.</_></rects>
      <tilted>0</tilted></_>
    <_>
      <rects>
        <_>
          30 7 3 33 -1.</_>
        <_>
          30 18 3 11 2.</_></rects>
      <tilted>0</tilted></_></features></cascade>
</opencv_storage>
