<?xml version="1.0"?>
<opencv_storage>
<stage6>
  <maxWeakCount>5</maxWeakCount>
  <stageThreshold>-1.0529639720916748e+00</stageThreshold>
  <weakClassifiers>
    <_>
      <internalNodes>
        0 -1 1024913 -7.6199119212105870e-04</internalNodes>
      <leafValues>
        7.9737335443496704e-01 -8.0645161867141724e-01</leafValues></_>
    <_>
      <internalNodes>
        0 -1 235960 4.1965432465076447e-02</internalNodes>
      <leafValues>
        -6.3015437126159668e-01 8.2662194967269897e-01</leafValues></_>
    <_>
      <internalNodes>
        0 -1 421371 8.8181125465780497e-04</internalNodes>
      <leafValues>
        -9.2943620681762695e-01 5.3426754474639893e-01</leafValues></_>
    <_>
      <internalNodes>
        0 -1 993656 -1.7934825271368027e-02</internalNodes>
      <leafValues>
        8.0742388963699341e-01 -6.0936564207077026e-01</leafValues></_>
    <_>
      <internalNodes>
        0 -1 957435 -2.3570121265947819e-04</internalNodes>
      <leafValues>
        -9.7420847415924072e-01 4.5874017477035522e-01</leafValues></_></weakClassifiers></stage6>
</opencv_storage>
