<?xml version="1.0"?>
<opencv_storage>
<cascade>
  <stageType>BOOST</stageType>
  <featureType>HAAR</featureType>
  <height>40</height>
  <width>40</width>
  <stageParams>
    <boostType>GAB</boostType>
    <minHitRate>9.9500000476837158e-01</minHitRate>
    <maxFalseAlarm>5.0000000000000000e-01</maxFalseAlarm>
    <weightTrimRate>9.4999999999999996e-01</weightTrimRate>
    <maxDepth>1</maxDepth>
    <maxWeakCount>100</maxWeakCount></stageParams>
  <featureParams>
    <maxCatCount>0</maxCatCount>
    <featSize>1</featSize>
    <mode>BASIC</mode></featureParams>
  <stageNum>10</stageNum>
  <stages>
    <!-- stage 0 -->
    <_>
      <maxWeakCount>1</maxWeakCount>
      <stageThreshold>1.</stageThreshold>
      <weakClassifiers>
        <_>
          <internalNodes>
            0 -1 0 -6.3357967883348465e-04</internalNodes>
          <leafValues>
            -1. 1.</leafValues></_></weakClassifiers></_>
    <!-- stage 1 -->
    <_>
      <maxWeakCount>1</maxWeakCount>
      <stageThreshold>1.</stageThreshold>
      <weakClassifiers>
        <_>
          <internalNodes>
            0 -1 1 2.6200828142464161e-03</internalNodes>
          <leafValues>
            1. -1.</leafValues></_></weakClassifiers></_>
    <!-- stage 2 -->
    <_>
      <maxWeakCount>1</maxWeakCount>
      <stageThreshold>1.</stageThreshold>
      <weakClassifiers>
        <_>
          <internalNodes>
            0 -1 0 1.2069955701008439e-03</internalNodes>
          <leafValues>
            1. -1.</leafValues></_></weakClassifiers></_>
    <!-- stage 3 -->
    <_>
      <maxWeakCount>1</maxWeakCount>
      <stageThreshold>8.7772923707962036e-01</stageThreshold>
      <weakClassifiers>
        <_>
          <internalNodes>
            0 -1 15 -1.6915856394916773e-03</internalNodes>
          <leafValues>
            8.7772923707962036e-01 -9.7894734144210815e-01</leafValues></_></weakClassifiers></_>
    <!-- stage 4 -->
    <_>
      <maxWeakCount>2</maxWeakCount>
      <stageThreshold>-1.2587720155715942e-01</stageThreshold>
      <weakClassifiers>
        <_>
          <internalNodes>
            0 -1 9 1.3960169162601233e-03</internalNodes>
          <leafValues>
            -9.3617022037506104e-01 8.5217392444610596e-01</leafValues></_>
        <_>
          <internalNodes>
            0 -1 6 7.8988363966345787e-03</internalNodes>
          <leafValues>
            -9.6159869432449341e-01 8.1029301881790161e-01</leafValues></_></weakClassifiers></_>
    <!-- stage 5 -->
    <_>
      <maxWeakCount>2</maxWeakCount>
      <stageThreshold>-2.2261165082454681e-01</stageThreshold>
      <weakClassifiers>
        <_>
          <internalNodes>
            0 -1 8 -2.9398771584965289e-04</internalNodes>
          <leafValues>
            8.0508476495742798e-01 -9.3181818723678589e-01</leafValues></_>
        <_>
          <internalNodes>
            0 -1 3 2.8119662310928106e-03</internalNodes>
          <leafValues>
            -9.7388511896133423e-01 7.0920652151107788e-01</leafValues></_></weakClassifiers></_>
    <!-- stage 6 -->
    <_>
      <maxWeakCount>2</maxWeakCount>
      <stageThreshold>-2.6338038966059685e-02</stageThreshold>
      <weakClassifiers>
        <_>
          <internalNodes>
            0 -1 11 2.8847088105976582e-03</internalNodes>
          <leafValues>
            -9.3181818723678589e-01 8.0508476495742798e-01</leafValues></_>
        <_>
          <internalNodes>
            0 -1 4 -2.4922510609030724e-02</internalNodes>
          <leafValues>
            9.0548014640808105e-01 -6.7733120918273926e-01</leafValues></_></weakClassifiers></_>
    <!-- stage 7 -->
    <_>
      <maxWeakCount>2</maxWeakCount>
      <stageThreshold>6.4032286405563354e-02</stageThreshold>
      <weakClassifiers>
        <_>
          <internalNodes>
            0 -1 12 8.4888376295566559e-03</internalNodes>
          <leafValues>
            -6.9230771064758301e-01 9.1304349899291992e-01</leafValues></_>
        <_>
          <internalNodes>
            0 -1 5 -4.2931395000778139e-04</internalNodes>
          <leafValues>
            7.5633996725082397e-01 -1.</leafValues></_></weakClassifiers></_>
    <!-- stage 8 -->
    <_>
      <maxWeakCount>2</maxWeakCount>
      <stageThreshold>-3.6079622805118561e-02</stageThreshold>
      <weakClassifiers>
        <_>
          <internalNodes>
            0 -1 7 -2.8452477417886257e-03</internalNodes>
          <leafValues>
            8.6175113916397095e-01 -7.3831772804260254e-01</leafValues></_>
        <_>
          <internalNodes>
            0 -1 14 1.1357713956385851e-03</internalNodes>
          <leafValues>
            -8.9783078432083130e-01 7.3241096735000610e-01</leafValues></_></weakClassifiers></_>
    <!-- stage 9 -->
    <_>
      <maxWeakCount>3</maxWeakCount>
      <stageThreshold>-9.0728312730789185e-01</stageThreshold>
      <weakClassifiers>
        <_>
          <internalNodes>
            0 -1 13 2.2254965733736753e-03</internalNodes>
          <leafValues>
            -8.2524269819259644e-01 8.7330317497253418e-01</leafValues></_>
        <_>
          <internalNodes>
            0 -1 10 -2.4636951275169849e-03</internalNodes>
          <leafValues>
            7.1682721376419067e-01 -8.4150177240371704e-01</leafValues></_>
        <_>
          <internalNodes>
            0 -1 2 2.7035344392061234e-02</internalNodes>
          <leafValues>
            -7.5584673881530762e-01 7.5946134328842163e-01</leafValues></_></weakClassifiers></_></stages>
  <features>
    <_>
      <rects>
        <_>
          0 0 2 2 -1.</_>
        <_>
          0 0 1 1 2.</_>
        <_>
          1 1 1 1 2.</_></rects>
      <tilted>0</tilted></_>
    <_>
      <rects>
        <_>
          0 0 1 4 -1.</_>
        <_>
          0 2 1 2 2.</_></rects>
      <tilted>0</tilted></_>
    <_>
      <rects>
        <_>
          1 5 18 22 -1.</_>
        <_>
          1 5 9 11 2.</_>
        <_>
          10 16 9 11 2.</_></rects>
      <tilted>0</tilted></_>
    <_>
      <rects>
        <_>
          6 28 6 6 -1.</_>
        <_>
          9 28 3 6 2.</_></rects>
      <tilted>0</tilted></_>
    <_>
      <rects>
        <_>
          8 31 13 8 -1.</_>
        <_>
          8 35 13 4 2.</_></rects>
      <tilted>0</tilted></_>
    <_>
      <rects>
        <_>
          9 28 26 2 -1.</_>
        <_>
          22 28 13 2 2.</_></rects>
      <tilted>0</tilted></_>
    <_>
      <rects>
        <_>
          10 18 12 12 -1.</_>
        <_>
          10 24 12 6 2.</_></rects>
      <tilted>0</tilted></_>
    <_>
      <rects>
        <_>
          16 12 4 10 -1.</_>
        <_>
          16 12 2 5 2.</_>
        <_>
          18 17 2 5 2.</_></rects>
      <tilted>0</tilted></_>
    <_>
      <rects>
        <_>
          17 18 2 7 -1.</_>
        <_>
          18 18 1 7 2.</_></rects>
      <tilted>0</tilted></_>
    <_>
      <rects>
        <_>
          18 8 4 6 -1.</_>
        <_>
          18 11 4 3 2.</_></rects>
      <tilted>0</tilted></_>
    <_>
      <rects>
        <_>
          18 26 12 10 -1.</_>
        <_>
          18 26 6 5 2.</_>
        <_>
          24 31 6 5 2.</_></rects>
      <tilted>0</tilted></_>
    <_>
      <rects>
        <_>
          19 26 10 4 -1.</_>
        <_>
          24 26 5 4 2.</_></rects>
      <tilted>0</tilted></_>
    <_>
      <rects>
        <_>
          21 12 6 16 -1.</_>
        <_>
          21 12 3 8 2.</_>
        <_>
          24 20 3 8 2.</_></rects>
      <tilted>0</tilted></_>
    <_>
      <rects>
        <_>
          21 19 4 8 -1.</_>
        <_>
          23 19 2 8 2.</_></rects>
      <tilted>0</tilted></_>
    <_>
      <rects>
        <_>
          29 14 1 26 -1.</_>
        <_>
          29 27 1 13 2.</_></rects>
      <tilted>0</tilted></_>
    <_>
      <rects>
        <_>
          29 30 6 3 -1.</_>
        <_>
          32 30 3 3 2.</_></rects>
      <tilted>0</tilted></_></features></cascade>
</opencv_storage>
