<?xml version="1.0"?>
<opencv_storage>
<cascade>
  <stageType>BOOST</stageType>
  <featureType>HAAR</featureType>
  <height>40</height>
  <width>40</width>
  <stageParams>
    <boostType>GAB</boostType>
    <minHitRate>9.9500000476837158e-01</minHitRate>
    <maxFalseAlarm>5.0000000000000000e-01</maxFalseAlarm>
    <weightTrimRate>9.4999999999999996e-01</weightTrimRate>
    <maxDepth>1</maxDepth>
    <maxWeakCount>100</maxWeakCount></stageParams>
  <featureParams>
    <maxCatCount>0</maxCatCount>
    <featSize>1</featSize>
    <mode>BASIC</mode></featureParams>
  <stageNum>9</stageNum>
  <stages>
    <!-- stage 0 -->
    <_>
      <maxWeakCount>3</maxWeakCount>
      <stageThreshold>-1.0041599273681641e+00</stageThreshold>
      <weakClassifiers>
        <_>
          <internalNodes>
            0 -1 25 1.3486464507877827e-02</internalNodes>
          <leafValues>
            -7.8937196731567383e-01 9.1408592462539673e-01</leafValues></_>
        <_>
          <internalNodes>
            0 -1 13 1.4704646542668343e-02</internalNodes>
          <leafValues>
            -8.1498879194259644e-01 8.0232882499694824e-01</leafValues></_>
        <_>
          <internalNodes>
            0 -1 15 3.7196297198534012e-03</internalNodes>
          <leafValues>
            -8.1873810291290283e-01 6.0020089149475098e-01</leafValues></_></weakClassifiers></_>
    <!-- stage 1 -->
    <_>
      <maxWeakCount>3</maxWeakCount>
      <stageThreshold>-8.7733566761016846e-01</stageThreshold>
      <weakClassifiers>
        <_>
          <internalNodes>
            0 -1 27 -1.5651321038603783e-02</internalNodes>
          <leafValues>
            7.8779602050781250e-01 -8.5255646705627441e-01</leafValues></_>
        <_>
          <internalNodes>
            0 -1 28 -8.5343793034553528e-03</internalNodes>
          <leafValues>
            7.0265901088714600e-01 -8.1314367055892944e-01</leafValues></_>
        <_>
          <internalNodes>
            0 -1 0 1.6258606687188148e-02</internalNodes>
          <leafValues>
            -5.1846081018447876e-01 7.8836447000503540e-01</leafValues></_></weakClassifiers></_>
    <!-- stage 2 -->
    <_>
      <maxWeakCount>3</maxWeakCount>
      <stageThreshold>-5.8109909296035767e-01</stageThreshold>
      <weakClassifiers>
        <_>
          <internalNodes>
            0 -1 3 1.2120679020881653e-02</internalNodes>
          <leafValues>
            -7.0320075750350952e-01 8.6640077829360962e-01</leafValues></_>
        <_>
          <internalNodes>
            0 -1 23 -1.3121642172336578e-02</internalNodes>
          <leafValues>
            7.4100011587142944e-01 -6.6985511779785156e-01</leafValues></_>
        <_>
          <internalNodes>
            0 -1 29 -1.1885012499988079e-02</internalNodes>
          <leafValues>
            7.9195678234100342e-01 -5.4364061355590820e-01</leafValues></_></weakClassifiers></_>
    <!-- stage 3 -->
    <_>
      <maxWeakCount>5</maxWeakCount>
      <stageThreshold>-1.0789631605148315e+00</stageThreshold>
      <weakClassifiers>
        <_>
          <internalNodes>
            0 -1 11 1.2424372136592865e-02</internalNodes>
          <leafValues>
            -7.5669097900390625e-01 7.3814898729324341e-01</leafValues></_>
        <_>
          <internalNodes>
            0 -1 8 2.8934091329574585e-02</internalNodes>
          <leafValues>
            -7.0041793584823608e-01 6.6763329505920410e-01</leafValues></_>
        <_>
          <internalNodes>
            0 -1 5 1.5519151464104652e-02</internalNodes>
          <leafValues>
            -4.8409262299537659e-01 6.9802427291870117e-01</leafValues></_>
        <_>
          <internalNodes>
            0 -1 31 -6.2571335583925247e-03</internalNodes>
          <leafValues>
            4.5114222168922424e-01 -7.5408494472503662e-01</leafValues></_>
        <_>
          <internalNodes>
            0 -1 33 2.3198872804641724e-03</internalNodes>
          <leafValues>
            -7.0750790834426880e-01 4.3420642614364624e-01</leafValues></_></weakClassifiers></_>
    <!-- stage 4 -->
    <_>
      <maxWeakCount>5</maxWeakCount>
      <stageThreshold>-7.8366321325302124e-01</stageThreshold>
      <weakClassifiers>
        <_>
          <internalNodes>
            0 -1 19 -7.6815644279122353e-03</internalNodes>
          <leafValues>
            7.7647060155868530e-01 -6.0833334922790527e-01</leafValues></_>
        <_>
          <internalNodes>
            0 -1 2 3.9785139262676239e-02</internalNodes>
          <leafValues>
            -6.1327582597732544e-01 6.6568118333816528e-01</leafValues></_>
        <_>
          <internalNodes>
            0 -1 1 -1.1162865906953812e-02</internalNodes>
          <leafValues>
            5.7886713743209839e-01 -6.4058631658554077e-01</leafValues></_>
        <_>
          <internalNodes>
            0 -1 24 4.9537891754880548e-04</internalNodes>
          <leafValues>
            -9.2905473709106445e-01 3.2613155245780945e-01</leafValues></_>
        <_>
          <internalNodes>
            0 -1 10 -1.2567102909088135e-02</internalNodes>
          <leafValues>
            7.2862994670867920e-01 -4.6181750297546387e-01</leafValues></_></weakClassifiers></_>
    <!-- stage 5 -->
    <_>
      <maxWeakCount>5</maxWeakCount>
      <stageThreshold>-1.1484986543655396e+00</stageThreshold>
      <weakClassifiers>
        <_>
          <internalNodes>
            0 -1 14 2.0392592996358871e-02</internalNodes>
          <leafValues>
            -5.3470921516418457e-01 8.1178903579711914e-01</leafValues></_>
        <_>
          <internalNodes>
            0 -1 21 -1.8567326478660107e-03</internalNodes>
          <leafValues>
            6.4506793022155762e-01 -6.3200330734252930e-01</leafValues></_>
        <_>
          <internalNodes>
            0 -1 38 -7.3298122733831406e-03</internalNodes>
          <leafValues>
            5.5360853672027588e-01 -6.4293324947357178e-01</leafValues></_>
        <_>
          <internalNodes>
            0 -1 22 1.2470089131966233e-03</internalNodes>
          <leafValues>
            -8.8866996765136719e-01 3.6862656474113464e-01</leafValues></_>
        <_>
          <internalNodes>
            0 -1 6 1.2987660011276603e-03</internalNodes>
          <leafValues>
            -9.3827825784683228e-01 2.9252046346664429e-01</leafValues></_></weakClassifiers></_>
    <!-- stage 6 -->
    <_>
      <maxWeakCount>6</maxWeakCount>
      <stageThreshold>-8.3369952440261841e-01</stageThreshold>
      <weakClassifiers>
        <_>
          <internalNodes>
            0 -1 17 4.0507316589355469e-03</internalNodes>
          <leafValues>
            -5.8169937133789063e-01 7.3679155111312866e-01</leafValues></_>
        <_>
          <internalNodes>
            0 -1 26 1.2688236311078072e-02</internalNodes>
          <leafValues>
            -8.2410311698913574e-01 4.9293020367622375e-01</leafValues></_>
        <_>
          <internalNodes>
            0 -1 7 2.0369496196508408e-03</internalNodes>
          <leafValues>
            -8.3556622266769409e-01 3.4425497055053711e-01</leafValues></_>
        <_>
          <internalNodes>
            0 -1 39 -1.6485139727592468e-02</internalNodes>
          <leafValues>
            4.5487564802169800e-01 -6.3563776016235352e-01</leafValues></_>
        <_>
          <internalNodes>
            0 -1 34 -2.1072341769468039e-04</internalNodes>
          <leafValues>
            3.0981275439262390e-01 -9.2198103666305542e-01</leafValues></_>
        <_>
          <internalNodes>
            0 -1 36 -6.9503216072916985e-03</internalNodes>
          <leafValues>
            5.6819278001785278e-01 -5.3684043884277344e-01</leafValues></_></weakClassifiers></_>
    <!-- stage 7 -->
    <_>
      <maxWeakCount>5</maxWeakCount>
      <stageThreshold>-9.1975384950637817e-01</stageThreshold>
      <weakClassifiers>
        <_>
          <internalNodes>
            0 -1 32 -8.1447260454297066e-03</internalNodes>
          <leafValues>
            7.4218750000000000e-01 -5.4621851444244385e-01</leafValues></_>
        <_>
          <internalNodes>
            0 -1 18 2.1252965554594994e-02</internalNodes>
          <leafValues>
            -6.5050202608108521e-01 5.8676457405090332e-01</leafValues></_>
        <_>
          <internalNodes>
            0 -1 4 1.6176911070942879e-02</internalNodes>
          <leafValues>
            -5.0724327564239502e-01 7.3539942502975464e-01</leafValues></_>
        <_>
          <internalNodes>
            0 -1 20 -7.8841438516974449e-03</internalNodes>
          <leafValues>
            4.1186559200286865e-01 -7.1218049526214600e-01</leafValues></_>
        <_>
          <internalNodes>
            0 -1 30 -2.2063986398279667e-03</internalNodes>
          <leafValues>
            2.6953405141830444e-01 -9.1606163978576660e-01</leafValues></_></weakClassifiers></_>
    <!-- stage 8 -->
    <_>
      <maxWeakCount>7</maxWeakCount>
      <stageThreshold>-1.3549342155456543e+00</stageThreshold>
      <weakClassifiers>
        <_>
          <internalNodes>
            0 -1 13 3.2828476279973984e-02</internalNodes>
          <leafValues>
            -5.0199204683303833e-01 7.5350701808929443e-01</leafValues></_>
        <_>
          <internalNodes>
            0 -1 12 1.5603760257363319e-03</internalNodes>
          <leafValues>
            -5.9914308786392212e-01 5.8730703592300415e-01</leafValues></_>
        <_>
          <internalNodes>
            0 -1 9 7.7089358819648623e-04</internalNodes>
          <leafValues>
            -5.8265280723571777e-01 5.2662110328674316e-01</leafValues></_>
        <_>
          <internalNodes>
            0 -1 35 -2.9134568758308887e-03</internalNodes>
          <leafValues>
            3.4241038560867310e-01 -8.9017581939697266e-01</leafValues></_>
        <_>
          <internalNodes>
            0 -1 40 1.0340621520299464e-04</internalNodes>
          <leafValues>
            -7.8645849227905273e-01 3.3574220538139343e-01</leafValues></_>
        <_>
          <internalNodes>
            0 -1 37 -3.2602418214082718e-02</internalNodes>
          <leafValues>
            4.0211856365203857e-01 -6.3753396272659302e-01</leafValues></_>
        <_>
          <internalNodes>
            0 -1 16 -1.2826416641473770e-03</internalNodes>
          <leafValues>
            2.8823512792587280e-01 -9.0303480625152588e-01</leafValues></_></weakClassifiers></_></stages>
  <features>
    <_>
      <rects>
        <_>
          0 5 24 6 -1.</_>
        <_>
          0 5 12 3 2.</_>
        <_>
          12 8 12 3 2.</_></rects>
      <tilted>0</tilted></_>
    <_>
      <rects>
        <_>
          1 31 26 6 -1.</_>
        <_>
          1 31 13 3 2.</_>
        <_>
          14 34 13 3 2.</_></rects>
      <tilted>0</tilted></_>
    <_>
      <rects>
        <_>
          3 11 10 20 -1.</_>
        <_>
          8 11 5 20 2.</_></rects>
      <tilted>0</tilted></_>
    <_>
      <rects>
        <_>
          3 21 10 6 -1.</_>
        <_>
          8 21 5 6 2.</_></rects>
      <tilted>0</tilted></_>
    <_>
      <rects>
        <_>
          4 3 6 22 -1.</_>
        <_>
          4 3 3 11 2.</_>
        <_>
          7 14 3 11 2.</_></rects>
      <tilted>0</tilted></_>
    <_>
      <rects>
        <_>
          5 0 6 26 -1.</_>
        <_>
          5 0 3 13 2.</_>
        <_>
          8 13 3 13 2.</_></rects>
      <tilted>0</tilted></_>
    <_>
      <rects>
        <_>
          6 11 6 10 -1.</_>
        <_>
          6 16 6 5 2.</_></rects>
      <tilted>0</tilted></_>
    <_>
      <rects>
        <_>
          6 17 11 8 -1.</_>
        <_>
          6 21 11 4 2.</_></rects>
      <tilted>0</tilted></_>
    <_>
      <rects>
        <_>
          7 21 18 14 -1.</_>
        <_>
          7 21 9 7 2.</_>
        <_>
          16 28 9 7 2.</_></rects>
      <tilted>0</tilted></_>
    <_>
      <rects>
        <_>
          7 29 6 1 -1.</_>
        <_>
          10 29 3 1 2.</_></rects>
      <tilted>0</tilted></_>
    <_>
      <rects>
        <_>
          8 7 8 14 -1.</_>
        <_>
          8 7 4 7 2.</_>
        <_>
          12 14 4 7 2.</_></rects>
      <tilted>0</tilted></_>
    <_>
      <rects>
        <_>
          8 7 14 7 -1.</_>
        <_>
          15 7 7 7 2.</_></rects>
      <tilted>0</tilted></_>
    <_>
      <rects>
        <_>
          8 8 9 4 -1.</_>
        <_>
          8 10 9 2 2.</_></rects>
      <tilted>0</tilted></_>
    <_>
      <rects>
        <_>
          8 22 16 12 -1.</_>
        <_>
          8 22 8 6 2.</_>
        <_>
          16 28 8 6 2.</_></rects>
      <tilted>0</tilted></_>
    <_>
      <rects>
        <_>
          9 6 21 6 -1.</_>
        <_>
          9 9 21 3 2.</_></rects>
      <tilted>0</tilted></_>
    <_>
      <rects>
        <_>
          9 14 8 12 -1.</_>
        <_>
          9 20 8 6 2.</_></rects>
      <tilted>0</tilted></_>
    <_>
      <rects>
        <_>
          10 22 14 4 -1.</_>
        <_>
          17 22 7 4 2.</_></rects>
      <tilted>0</tilted></_>
    <_>
      <rects>
        <_>
          10 31 8 3 -1.</_>
        <_>
          14 31 4 3 2.</_></rects>
      <tilted>0</tilted></_>
    <_>
      <rects>
        <_>
          11 2 11 12 -1.</_>
        <_>
          11 8 11 6 2.</_></rects>
      <tilted>0</tilted></_>
    <_>
      <rects>
        <_>
          12 16 10 10 -1.</_>
        <_>
          12 16 5 5 2.</_>
        <_>
          17 21 5 5 2.</_></rects>
      <tilted>0</tilted></_>
    <_>
      <rects>
        <_>
          12 28 5 12 -1.</_>
        <_>
          12 34 5 6 2.</_></rects>
      <tilted>0</tilted></_>
    <_>
      <rects>
        <_>
          12 31 5 4 -1.</_>
        <_>
          12 33 5 2 2.</_></rects>
      <tilted>0</tilted></_>
    <_>
      <rects>
        <_>
          14 26 8 13 -1.</_>
        <_>
          18 26 4 13 2.</_></rects>
      <tilted>0</tilted></_>
    <_>
      <rects>
        <_>
          14 31 16 6 -1.</_>
        <_>
          14 34 16 3 2.</_></rects>
      <tilted>0</tilted></_>
    <_>
      <rects>
        <_>
          15 7 6 7 -1.</_>
        <_>
          18 7 3 7 2.</_></rects>
      <tilted>0</tilted></_>
    <_>
      <rects>
        <_>
          18 2 6 12 -1.</_>
        <_>
          18 8 6 6 2.</_></rects>
      <tilted>0</tilted></_>
    <_>
      <rects>
        <_>
          18 8 16 16 -1.</_>
        <_>
          18 8 8 8 2.</_>
        <_>
          26 16 8 8 2.</_></rects>
      <tilted>0</tilted></_>
    <_>
      <rects>
        <_>
          18 20 16 14 -1.</_>
        <_>
          18 20 8 7 2.</_>
        <_>
          26 27 8 7 2.</_></rects>
      <tilted>0</tilted></_>
    <_>
      <rects>
        <_>
          20 9 16 4 -1.</_>
        <_>
          28 9 8 4 2.</_></rects>
      <tilted>0</tilted></_>
    <_>
      <rects>
        <_>
          21 5 16 6 -1.</_>
        <_>
          21 5 8 3 2.</_>
        <_>
          29 8 8 3 2.</_></rects>
      <tilted>0</tilted></_>
    <_>
      <rects>
        <_>
          21 7 10 6 -1.</_>
        <_>
          26 7 5 6 2.</_></rects>
      <tilted>0</tilted></_>
    <_>
      <rects>
        <_>
          21 30 14 3 -1.</_>
        <_>
          28 30 7 3 2.</_></rects>
      <tilted>0</tilted></_>
    <_>
      <rects>
        <_>
          22 25 12 8 -1.</_>
        <_>
          22 25 6 4 2.</_>
        <_>
          28 29 6 4 2.</_></rects>
      <tilted>0</tilted></_>
    <_>
      <rects>
        <_>
          23 6 7 6 -1.</_>
        <_>
          23 9 7 3 2.</_></rects>
      <tilted>0</tilted></_>
    <_>
      <rects>
        <_>
          23 31 4 5 -1.</_>
        <_>
          25 31 2 5 2.</_></rects>
      <tilted>0</tilted></_>
    <_>
      <rects>
        <_>
          24 8 8 12 -1.</_>
        <_>
          28 8 4 12 2.</_></rects>
      <tilted>0</tilted></_>
    <_>
      <rects>
        <_>
          26 6 10 6 -1.</_>
        <_>
          26 6 5 3 2.</_>
        <_>
          31 9 5 3 2.</_></rects>
      <tilted>0</tilted></_>
    <_>
      <rects>
        <_>
          26 11 14 18 -1.</_>
        <_>
          33 11 7 18 2.</_></rects>
      <tilted>0</tilted></_>
    <_>
      <rects>
        <_>
          28 20 12 5 -1.</_>
        <_>
          34 20 6 5 2.</_></rects>
      <tilted>0</tilted></_>
    <_>
      <rects>
        <_>
          29 11 10 16 -1.</_>
        <_>
          34 11 5 16 2.</_></rects>
      <tilted>0</tilted></_>
    <_>
      <rects>
        <_>
          32 15 4 6 -1.</_>
        <_>
          32 18 4 3 2.</_></rects>
      <tilted>0</tilted></_></features></cascade>
</opencv_storage>
