<?xml version="1.0"?>
<opencv_storage>
<stage5>
  <maxWeakCount>5</maxWeakCount>
  <stageThreshold>-1.1484986543655396e+00</stageThreshold>
  <weakClassifiers>
    <_>
      <internalNodes>
        0 -1 509803 2.0392592996358871e-02</internalNodes>
      <leafValues>
        -5.3470921516418457e-01 8.1178903579711914e-01</leafValues></_>
    <_>
      <internalNodes>
        0 -1 672851 -1.8567326478660107e-03</internalNodes>
      <leafValues>
        6.4506793022155762e-01 -6.3200330734252930e-01</leafValues></_>
    <_>
      <internalNodes>
        0 -1 1143150 -7.3298122733831406e-03</internalNodes>
      <leafValues>
        5.5360853672027588e-01 -6.4293324947357178e-01</leafValues></_>
    <_>
      <internalNodes>
        0 -1 750864 1.2470089131966233e-03</internalNodes>
      <leafValues>
        -8.8866996765136719e-01 3.6862656474113464e-01</leafValues></_>
    <_>
      <internalNodes>
        0 -1 368996 1.2987660011276603e-03</internalNodes>
      <leafValues>
        -9.3827825784683228e-01 2.9252046346664429e-01</leafValues></_></weakClassifiers></stage5>
</opencv_storage>
