<?xml version="1.0"?>
<opencv_storage>
<stage3>
  <maxWeakCount>5</maxWeakCount>
  <stageThreshold>-1.0789631605148315e+00</stageThreshold>
  <weakClassifiers>
    <_>
      <internalNodes>
        0 -1 462550 1.2424372136592865e-02</internalNodes>
      <leafValues>
        -7.5669097900390625e-01 7.3814898729324341e-01</leafValues></_>
    <_>
      <internalNodes>
        0 -1 435408 2.8934091329574585e-02</internalNodes>
      <leafValues>
        -7.0041793584823608e-01 6.6763329505920410e-01</leafValues></_>
    <_>
      <internalNodes>
        0 -1 291250 1.5519151464104652e-02</internalNodes>
      <leafValues>
        -4.8409262299537659e-01 6.9802427291870117e-01</leafValues></_>
    <_>
      <internalNodes>
        0 -1 987296 -6.2571335583925247e-03</internalNodes>
      <leafValues>
        4.5114222168922424e-01 -7.5408494472503662e-01</leafValues></_>
    <_>
      <internalNodes>
        0 -1 1024274 2.3198872804641724e-03</internalNodes>
      <leafValues>
        -7.0750790834426880e-01 4.3420642614364624e-01</leafValues></_></weakClassifiers></stage3>
</opencv_storage>
