<?xml version="1.0"?>
<opencv_storage>
<stage6>
  <maxWeakCount>6</maxWeakCount>
  <stageThreshold>-8.3369952440261841e-01</stageThreshold>
  <weakClassifiers>
    <_>
      <internalNodes>
        0 -1 586112 4.0507316589355469e-03</internalNodes>
      <leafValues>
        -5.8169937133789063e-01 7.3679155111312866e-01</leafValues></_>
    <_>
      <internalNodes>
        0 -1 877531 1.2688236311078072e-02</internalNodes>
      <leafValues>
        -8.2410311698913574e-01 4.9293020367622375e-01</leafValues></_>
    <_>
      <internalNodes>
        0 -1 379430 2.0369496196508408e-03</internalNodes>
      <leafValues>
        -8.3556622266769409e-01 3.4425497055053711e-01</leafValues></_>
    <_>
      <internalNodes>
        0 -1 1155378 -1.6485139727592468e-02</internalNodes>
      <leafValues>
        4.5487564802169800e-01 -6.3563776016235352e-01</leafValues></_>
    <_>
      <internalNodes>
        0 -1 1040519 -2.1072341769468039e-04</internalNodes>
      <leafValues>
        3.0981275439262390e-01 -9.2198103666305542e-01</leafValues></_>
    <_>
      <internalNodes>
        0 -1 1095011 -6.9503216072916985e-03</internalNodes>
      <leafValues>
        5.6819278001785278e-01 -5.3684043884277344e-01</leafValues></_></weakClassifiers></stage6>
</opencv_storage>
