<?xml version="1.0"?>
<opencv_storage>
<cascade>
  <stageType>BOOST</stageType>
  <featureType>HAAR</featureType>
  <height>40</height>
  <width>40</width>
  <stageParams>
    <boostType>GAB</boostType>
    <minHitRate>9.9500000476837158e-01</minHitRate>
    <maxFalseAlarm>5.0000000000000000e-01</maxFalseAlarm>
    <weightTrimRate>9.4999999999999996e-01</weightTrimRate>
    <maxDepth>1</maxDepth>
    <maxWeakCount>100</maxWeakCount></stageParams>
  <featureParams>
    <maxCatCount>0</maxCatCount>
    <featSize>1</featSize>
    <mode>BASIC</mode></featureParams>
  <stageNum>10</stageNum>
  <stages>
    <!-- stage 0 -->
    <_>
      <maxWeakCount>1</maxWeakCount>
      <stageThreshold>1.</stageThreshold>
      <weakClassifiers>
        <_>
          <internalNodes>
            0 -1 0 -2.3263655602931976e-03</internalNodes>
          <leafValues>
            -1. 1.</leafValues></_></weakClassifiers></_>
    <!-- stage 1 -->
    <_>
      <maxWeakCount>1</maxWeakCount>
      <stageThreshold>1.</stageThreshold>
      <weakClassifiers>
        <_>
          <internalNodes>
            0 -1 1 4.6525346115231514e-03</internalNodes>
          <leafValues>
            1. -1.</leafValues></_></weakClassifiers></_>
    <!-- stage 2 -->
    <_>
      <maxWeakCount>1</maxWeakCount>
      <stageThreshold>1.</stageThreshold>
      <weakClassifiers>
        <_>
          <internalNodes>
            0 -1 2 -2.3114992678165436e-01</internalNodes>
          <leafValues>
            -1. 1.</leafValues></_></weakClassifiers></_>
    <!-- stage 3 -->
    <_>
      <maxWeakCount>2</maxWeakCount>
      <stageThreshold>-1.6096751391887665e-01</stageThreshold>
      <weakClassifiers>
        <_>
          <internalNodes>
            0 -1 6 -7.5386911630630493e-03</internalNodes>
          <leafValues>
            8.0169969797134399e-01 -9.0977442264556885e-01</leafValues></_>
        <_>
          <internalNodes>
            0 -1 18 1.5233426820486784e-03</internalNodes>
          <leafValues>
            -8.3247548341751099e-01 7.4880689382553101e-01</leafValues></_></weakClassifiers></_>
    <!-- stage 4 -->
    <_>
      <maxWeakCount>2</maxWeakCount>
      <stageThreshold>-1.7647808790206909e-01</stageThreshold>
      <weakClassifiers>
        <_>
          <internalNodes>
            0 -1 11 7.2930417954921722e-03</internalNodes>
          <leafValues>
            -9.6581196784973145e-01 7.4525743722915649e-01</leafValues></_>
        <_>
          <internalNodes>
            0 -1 12 3.5500514786690474e-03</internalNodes>
          <leafValues>
            -7.6419669389724731e-01 7.8933387994766235e-01</leafValues></_></weakClassifiers></_>
    <!-- stage 5 -->
    <_>
      <maxWeakCount>5</maxWeakCount>
      <stageThreshold>-9.4272321462631226e-01</stageThreshold>
      <weakClassifiers>
        <_>
          <internalNodes>
            0 -1 19 7.5473105534911156e-03</internalNodes>
          <leafValues>
            -8.4251970052719116e-01 7.4930363893508911e-01</leafValues></_>
        <_>
          <internalNodes>
            0 -1 10 6.4297155477106571e-03</internalNodes>
          <leafValues>
            -6.8259859085083008e-01 7.2315347194671631e-01</leafValues></_>
        <_>
          <internalNodes>
            0 -1 21 -3.0690613202750683e-03</internalNodes>
          <leafValues>
            5.8518475294113159e-01 -7.5235712528228760e-01</leafValues></_>
        <_>
          <internalNodes>
            0 -1 8 5.8879046700894833e-03</internalNodes>
          <leafValues>
            -5.7437491416931152e-01 8.7160897254943848e-01</leafValues></_>
        <_>
          <internalNodes>
            0 -1 3 7.1522230282425880e-03</internalNodes>
          <leafValues>
            -8.1390625238418579e-01 5.7158523797988892e-01</leafValues></_></weakClassifiers></_>
    <!-- stage 6 -->
    <_>
      <maxWeakCount>4</maxWeakCount>
      <stageThreshold>-2.5113171339035034e-01</stageThreshold>
      <weakClassifiers>
        <_>
          <internalNodes>
            0 -1 14 -3.2676630653440952e-03</internalNodes>
          <leafValues>
            6.5891474485397339e-01 -9.3939393758773804e-01</leafValues></_>
        <_>
          <internalNodes>
            0 -1 24 -4.0441509336233139e-03</internalNodes>
          <leafValues>
            8.0902594327926636e-01 -6.6665828227996826e-01</leafValues></_>
        <_>
          <internalNodes>
            0 -1 13 -2.5125008542090654e-03</internalNodes>
          <leafValues>
            7.0559090375900269e-01 -6.2497645616531372e-01</leafValues></_>
        <_>
          <internalNodes>
            0 -1 7 3.4257241059094667e-03</internalNodes>
          <leafValues>
            -6.6289347410202026e-01 6.4932954311370850e-01</leafValues></_></weakClassifiers></_>
    <!-- stage 7 -->
    <_>
      <maxWeakCount>3</maxWeakCount>
      <stageThreshold>-9.1039645671844482e-01</stageThreshold>
      <weakClassifiers>
        <_>
          <internalNodes>
            0 -1 23 2.7752970345318317e-03</internalNodes>
          <leafValues>
            -6.8918919563293457e-01 7.8106510639190674e-01</leafValues></_>
        <_>
          <internalNodes>
            0 -1 16 1.0125410335604101e-04</internalNodes>
          <leafValues>
            4.9771207571029663e-01 -9.2566049098968506e-01</leafValues></_>
        <_>
          <internalNodes>
            0 -1 4 -5.4674176499247551e-03</internalNodes>
          <leafValues>
            5.6921571493148804e-01 -7.6580101251602173e-01</leafValues></_></weakClassifiers></_>
    <!-- stage 8 -->
    <_>
      <maxWeakCount>2</maxWeakCount>
      <stageThreshold>2.3473257198929787e-02</stageThreshold>
      <weakClassifiers>
        <_>
          <internalNodes>
            0 -1 9 -8.8312698062509298e-04</internalNodes>
          <leafValues>
            -7.1200001239776611e-01 6.9529086351394653e-01</leafValues></_>
        <_>
          <internalNodes>
            0 -1 5 -8.9282141998410225e-03</internalNodes>
          <leafValues>
            7.3547327518463135e-01 -5.8575707674026489e-01</leafValues></_></weakClassifiers></_>
    <!-- stage 9 -->
    <_>
      <maxWeakCount>4</maxWeakCount>
      <stageThreshold>-4.6253180503845215e-01</stageThreshold>
      <weakClassifiers>
        <_>
          <internalNodes>
            0 -1 17 -2.1284780814312398e-04</internalNodes>
          <leafValues>
            7.0308125019073486e-01 -6.8992245197296143e-01</leafValues></_>
        <_>
          <internalNodes>
            0 -1 22 9.4134304672479630e-03</internalNodes>
          <leafValues>
            -5.5472415685653687e-01 7.8339898586273193e-01</leafValues></_>
        <_>
          <internalNodes>
            0 -1 20 8.0674566561356187e-04</internalNodes>
          <leafValues>
            -9.1970729827880859e-01 4.8689955472946167e-01</leafValues></_>
        <_>
          <internalNodes>
            0 -1 15 -1.2728917412459850e-02</internalNodes>
          <leafValues>
            3.6369898915290833e-01 -9.5940554141998291e-01</leafValues></_></weakClassifiers></_></stages>
  <features>
    <_>
      <rects>
        <_>
          0 0 2 4 -1.</_>
        <_>
          0 0 1 2 2.</_>
        <_>
          1 2 1 2 2.</_></rects>
      <tilted>0</tilted></_>
    <_>
      <rects>
        <_>
          0 0 3 4 -1.</_>
        <_>
          0 2 3 2 2.</_></rects>
      <tilted>0</tilted></_>
    <_>
      <rects>
        <_>
          0 0 12 32 -1.</_>
        <_>
          0 16 12 16 2.</_></rects>
      <tilted>0</tilted></_>
    <_>
      <rects>
        <_>
          3 11 10 14 -1.</_>
        <_>
          8 11 5 14 2.</_></rects>
      <tilted>0</tilted></_>
    <_>
      <rects>
        <_>
          5 8 22 6 -1.</_>
        <_>
          5 8 11 3 2.</_>
        <_>
          16 11 11 3 2.</_></rects>
      <tilted>0</tilted></_>
    <_>
      <rects>
        <_>
          5 16 6 20 -1.</_>
        <_>
          5 16 3 10 2.</_>
        <_>
          8 26 3 10 2.</_></rects>
      <tilted>0</tilted></_>
    <_>
      <rects>
        <_>
          6 16 14 10 -1.</_>
        <_>
          13 16 7 10 2.</_></rects>
      <tilted>0</tilted></_>
    <_>
      <rects>
        <_>
          9 4 1 22 -1.</_>
        <_>
          9 15 1 11 2.</_></rects>
      <tilted>0</tilted></_>
    <_>
      <rects>
        <_>
          9 25 8 8 -1.</_>
        <_>
          9 25 4 4 2.</_>
        <_>
          13 29 4 4 2.</_></rects>
      <tilted>0</tilted></_>
    <_>
      <rects>
        <_>
          12 3 18 12 -1.</_>
        <_>
          12 9 18 6 2.</_></rects>
      <tilted>0</tilted></_>
    <_>
      <rects>
        <_>
          12 5 18 6 -1.</_>
        <_>
          12 8 18 3 2.</_></rects>
      <tilted>0</tilted></_>
    <_>
      <rects>
        <_>
          13 13 18 26 -1.</_>
        <_>
          13 26 18 13 2.</_></rects>
      <tilted>0</tilted></_>
    <_>
      <rects>
        <_>
          15 6 14 4 -1.</_>
        <_>
          15 8 14 2 2.</_></rects>
      <tilted>0</tilted></_>
    <_>
      <rects>
        <_>
          15 31 6 6 -1.</_>
        <_>
          15 34 6 3 2.</_></rects>
      <tilted>0</tilted></_>
    <_>
      <rects>
        <_>
          16 2 8 18 -1.</_>
        <_>
          16 11 8 9 2.</_></rects>
      <tilted>0</tilted></_>
    <_>
      <rects>
        <_>
          16 3 12 18 -1.</_>
        <_>
          16 12 12 9 2.</_></rects>
      <tilted>0</tilted></_>
    <_>
      <rects>
        <_>
          16 13 11 2 -1.</_>
        <_>
          16 14 11 1 2.</_></rects>
      <tilted>0</tilted></_>
    <_>
      <rects>
        <_>
          19 0 1 6 -1.</_>
        <_>
          19 3 1 3 2.</_></rects>
      <tilted>0</tilted></_>
    <_>
      <rects>
        <_>
          23 10 10 4 -1.</_>
        <_>
          23 10 5 2 2.</_>
        <_>
          28 12 5 2 2.</_></rects>
      <tilted>0</tilted></_>
    <_>
      <rects>
        <_>
          24 15 10 7 -1.</_>
        <_>
          29 15 5 7 2.</_></rects>
      <tilted>0</tilted></_>
    <_>
      <rects>
        <_>
          25 20 2 14 -1.</_>
        <_>
          25 27 2 7 2.</_></rects>
      <tilted>0</tilted></_>
    <_>
      <rects>
        <_>
          26 12 12 3 -1.</_>
        <_>
          32 12 6 3 2.</_></rects>
      <tilted>0</tilted></_>
    <_>
      <rects>
        <_>
          28 10 6 14 -1.</_>
        <_>
          28 10 3 7 2.</_>
        <_>
          31 17 3 7 2.</_></rects>
      <tilted>0</tilted></_>
    <_>
      <rects>
        <_>
          28 14 4 10 -1.</_>
        <_>
          30 14 2 10 2.</_></rects>
      <tilted>0</tilted></_>
    <_>
      <rects>
        <_>
          31 8 6 8 -1.</_>
        <_>
          31 8 3 4 2.</_>
        <_>
          34 12 3 4 2.</_></rects>
      <tilted>0</tilted></_></features></cascade>
</opencv_storage>
